{{0.2783886, -0.004376418, -0.0901892, -0.10428107, -0.15184394, 0.18772623, -0.035087015, -0.056268185, 0.02578454, -0.09371569, -0.09401765, 0.11221481, -0.06338954, 0.060053386, 0.09791677, 0.047475636, -0.06766858, 0.079177104, 0.12105, -0.063237704, 0.06686288, 0.13022138, -0.12997976, 0.021836692, -0.0057826596, -0.16152193, -0.13682151, -0.016768366, 0.15691346, 0.09907597, -0.0025615043, -0.02343625, -0.12089258, -0.03187225, -0.018863227, -0.13984469, -0.11778294, 0.07907688, 0.08889729, 0.0016004068, 0.12992293, -0.084243804, 0.026415998, -0.07321919, -0.048598774, -0.08782101, -0.03562228, -0.06714502, 0.0036614025, 0.029779801, -0.12115471, -0.04848001, 0.35739806, -0.1163399, -0.13520513, -0.05181425, -0.06836601, 0.11032857, 0.038903892, 0.11905294, -0.00099051, -0.051877987, 0.041306302, -0.05079996}, 
{0.07975341, -0.022992074, -0.13517283, -0.05747082, 0.012606361, -0.058555305, 0.100250505, -0.13653807, 0.025148256, -0.038873143, 0.18154731, -0.08170392, -0.047909837, -0.07185725, -0.0113758445, 0.08041789, 0.043127965, 0.056647737, 0.0089528505, -0.054574475, -0.096467935, -0.09883819, -0.13946491, -0.02674041, -0.10100507, 0.20308903, 0.12503476, -0.12674183, -0.0053877807, -0.029491574, -0.08070912, 0.090503864, 0.006471399, -0.048901357, 0.1070663, -0.024295466, 0.0847494, -0.037407264, 0.13057448, 0.1205268, 0.039036963, -0.0628315, -0.07121672, -0.03893367, 0.11497195, 0.021569159, -0.0050167725, 0.081589565, 0.06698856, -0.10611221, -0.10838089, -0.02079183, -0.09815604, -0.073968425, 0.08524667, 0.027889723, 0.1021221, -0.14489917, 0.108283445, 0.008587112, -0.12036298, -0.12648419, -0.00526854, -0.12575622}, 
{0.019477218, 0.09975557, 0.06710737, 0.10606678, -0.08418193, 0.0022497352, -0.14276032, 0.13356121, -0.06748534, 0.09435169, 0.08569661, -0.111669734, -0.0310763, -0.0043649087, 0.031247467, 0.13352598, -0.1259177, 0.08568865, 0.07649885, 0.03171502, -0.011901296, 0.08112457, 0.122469716, 0.10604625, 0.0864292, 0.20360231, 0.014899307, 0.039801374, 0.056182083, -0.008939549, 0.12535605, -0.01050669, 0.113722466, -0.027164012, 0.082078904, -0.12690714, -0.044307098, 0.015463105, 0.014983001, 0.1277265, 0.08141033, -0.05564821, 0.11671883, -0.057049822, 0.01977852, 0.009711062, -0.15415108, -0.029100463, 0.07447349, -0.14780267, -0.051489886, -0.12891544, -0.08018405, -0.008180856, 0.07081044, 0.037692554, -0.0898381, -0.12659442, 0.010942653, -0.0039219987, -0.004518032, -0.0135317985, 0.09149891, -0.005378785}, 
{-0.032493297, 0.045118853, 0.05540111, 0.09502499, -0.06153468, -0.043429952, -0.024454696, 0.11716889, -0.025661694, 0.12318976, -0.075171664, -0.0510328, -0.08786891, -0.14058274, -0.08702853, -0.009247631, 0.055262867, -0.14280738, 0.11723829, 0.12895526, -0.0071040243, -0.038912147, 0.07513367, 0.021771993, -0.025942646, 0.14115733, -0.0064034755, 0.115646824, -0.14689952, 0.11679496, 0.031002872, -0.0044589536, 0.13702662, -0.06971773, 0.16620012, 0.07333029, -0.14664201, -0.032785438, -0.0077988934, -0.08573448, 0.10071135, -0.009418445, -0.086013354, -0.05512316, -0.08468138, 0.0697685, -0.010027556, 0.12776445, -0.1017625, -0.030281298, -0.075507045, 0.088768564, -0.06194064, 0.089726016, -0.10624936, 0.09744999, 0.058456704, 0.1355809, 0.039599106, -0.07726939, 0.14167978, 0.036186084, -0.064210705, 0.079092585}, 
{-0.0042970716, 0.10835152, 0.031115247, -0.123212926, -0.0068909544, 0.06686442, 0.071440004, 0.002226904, 0.026845032, -0.092523344, 0.10680974, -0.0593268, 0.103219435, -0.02864278, 0.03415042, -0.01575914, 0.11502955, 0.017518133, -0.028165244, -0.14275184, -0.07734426, 0.03939169, -0.004888303, 0.070100665, -0.13795775, -0.0061561093, -0.05346527, 0.0030781776, 0.04900191, -0.016419709, -0.074522465, -0.04636939, -0.05937018, 0.09305015, 0.14049412, -0.09671981, 0.047729276, -0.029278537, 0.018494489, -0.07587834, -0.095250204, 0.017934768, -0.00626876, 0.05538123, 0.038343936, 0.13249765, -0.14567412, 0.042225808, 0.11247263, 0.0001957754, -0.12654409, -0.09372036, -0.121211626, -0.119641006, 0.13787825, 0.10996507, 0.089878485, 0.09011657, 0.11478187, 0.015882326, -0.12450742, -0.09845356, -0.0991411, -0.0645515}, 
{-0.121213526, -0.061094385, -0.0033492881, 0.017819196, -0.14819, 0.07315146, 0.1056964, -0.05402235, 0.048403352, 0.021941518, 0.012798596, 0.06564673, 0.017524596, 0.10782069, -0.046327375, 0.024467975, -0.08976178, -0.030717736, -0.011683798, 0.018125843, 0.11264347, 0.19347562, 0.08929618, -0.020504694, -0.0052982327, 0.13684636, 0.1317722, 0.13474943, -0.048803642, -0.14372018, -0.10232683, 0.107116915, 0.049286827, -0.10024701, 0.12672848, 0.086557426, -0.028045775, -0.06477096, -0.0074413554, 0.00045826382, 0.07170518, -0.1285902, 0.13008596, -0.028978445, 0.08859511, -0.035285886, 0.02461075, -0.021359183, -0.09339283, -0.15205035, -0.1399111, -0.07001193, -0.034248196, -0.113470815, -0.009404287, 0.088813424, 0.057312936, 0.04690007, 0.023156196, 0.075129755, 0.10480024, -0.08283457, -0.07110534, 0.11984073}, 
{0.0101801725, -0.06908066, -0.04483265, -0.08041939, 0.12870635, -0.15205681, 0.06271977, 0.011674508, 0.10411418, -0.019782934, -0.030372735, 0.047762055, 0.09495986, -0.0673772, 0.06583032, -0.13331348, -0.054795768, -0.0862771, 0.1055334, -0.058089413, -0.037140425, 0.020382423, 0.10137128, 0.12245304, -0.01558291, -0.070946306, 0.040401436, -0.0564832, -0.058540385, -0.12981914, 0.11500556, 0.044260595, -0.07682781, 0.12049703, 0.22690701, -0.11750241, 0.04559565, 0.05184391, -0.09961095, 0.017818296, -0.07546332, 0.14390229, 0.123298205, 0.07829082, -0.13079165, -0.04505428, 0.055002127, -0.059340492, -0.007732898, 0.10288858, 0.07535867, -0.092776, -0.22449853, 0.03640855, -0.096257955, 0.04969489, 0.1172871, -0.0026192204, 0.006928861, -0.12033247, 0.10242981, 0.06838906, 0.121320136, -0.07752364}, 
{0.05166323, 0.10131813, -0.043878738, -0.050558142, -0.0066606095, -0.033572014, 0.023685293, 0.060799956, 0.11307446, -0.07733189, -0.02441568, -0.020899288, 0.059710328, -0.059797768, 0.0664628, 0.1145554, -0.055601485, -0.04850261, -0.032866098, -0.008586297, 0.12607689, 0.118199386, -0.11180828, 0.111675814, 0.009502534, 0.134503, -0.12596044, -0.09209871, -0.14875029, -0.0868851, -0.014193599, 0.096025296, -0.11307853, -0.09673296, 0.27597857, -0.090089716, -0.13531208, 0.040935535, 0.03369055, 0.11828253, 0.013831343, 0.05538944, -0.041332673, 0.09473799, 0.124898985, 0.10775158, 0.07823999, -0.0002912879, 0.05514303, 0.068264075, -0.018924912, 0.10226498, -0.09643739, -0.121169694, 0.02187039, 0.037797563, -0.032092016, -0.12591651, -0.0047548264, -0.058580842, -0.07471213, -0.043739624, -0.09235507, -0.10277524}, 
{0.098994225, 0.13367097, 0.12628895, -0.06637444, -0.061955668, 0.10341094, 0.107976995, -0.071415596, -0.039173074, 0.11771421, 0.11015673, -0.14012203, -0.14645597, 0.074694216, -0.1247773, -0.13016275, -0.04224662, -0.011254639, 0.01398504, -0.07341098, 0.08283833, -0.0075798947, -0.0026936126, 0.15665169, -0.19027156, 0.22152716, 0.016774848, -0.05200953, -0.075708754, -0.12584843, -0.020055508, 0.079721585, -0.054505754, -0.0052900463, 0.12892361, 0.14002989, 0.11984511, 0.07034967, -0.07484571, 0.06412266, 0.124903016, -0.038933188, -0.0018031962, -0.114616014, -0.09803735, 0.1262897, 0.074874446, 0.049880594, 0.07751405, -0.07218743, -0.13446295, -0.0062970817, -0.15490669, -0.02751931, 0.09616943, -0.0092442, -0.15068129, 0.116940975, 0.06662017, -0.09723737, -0.021233484, -0.11709199, -0.0020463776, -0.078258105}, 
{0.025149636, 0.12890385, 0.03488553, -0.0007506907, 0.008933241, -0.053140342, 0.0076624826, -0.11781728, 0.14795113, -0.017472299, 0.0033463768, 0.093365185, -0.038693313, -0.09157472, -0.013908774, 0.049145773, -0.022206144, -0.08739657, 0.07094704, 0.07692992, 0.11262326, -0.02144404, -0.056877866, 0.061596338, -0.06927056, 0.26822677, -0.02434661, -0.023783453, 0.04266004, -0.0021463484, -0.08678556, -0.13415572, 0.045289952, 0.009296477, 0.06830119, 0.11026675, 0.093431756, 0.04222576, -0.04284955, 0.12723565, 0.13301755, 0.064527236, -0.041235913, -0.012560255, -0.13687693, -0.108378954, -0.04508877, 0.12287603, 0.017254284, -0.04702751, 0.0693086, -0.0016422509, -0.15263617, 0.11125419, -0.049754724, 0.11873542, -0.03584758, -0.13694318, -0.087636754, 0.06062308, 0.0075516105, 0.018514967, 0.031891182, 0.06968431}, 
{0.09863289, -0.014386702, -0.088057734, -0.06339815, -0.050584737, -0.058257584, -0.106665365, 0.11787771, -0.0072737066, 0.022252815, 0.1516114, 0.019194266, -0.114466324, 0.08135652, 0.041424453, 0.026156679, 0.08619061, 0.11083719, -0.07138491, 0.07512023, -0.13231415, -0.16767944, -0.1411668, 0.1078545, -0.05362969, 0.09706073, -0.01590746, -0.047401942, -0.06282978, -0.022154734, -0.105477855, 0.06384314, 0.0069662216, 0.023480773, -0.013625413, -0.012803305, 0.09880018, -0.055283953, 0.090898044, 0.13083816, -0.06921326, 0.053640477, -0.02320001, 0.09591111, 0.06328486, -0.09663644, 0.029604195, -0.1267728, 0.11787973, -0.048049342, -0.048316542, 0.120518826, -0.049086314, 0.09249142, 0.14080046, -0.061784808, -0.13659778, -0.11492136, 0.06226392, 0.07717115, -0.14189373, 0.10128743, 0.11602943, -0.05675794}, 
{0.03168517, -0.113932595, 0.06403172, -0.039812468, -0.004659561, -0.07686613, 0.042068917, -0.13754967, 0.051091094, -0.1456313, 0.14039087, -0.08487805, 0.0899765, 0.06324633, 0.004753411, -0.10963813, -0.12628561, -0.04387676, -0.11724364, -0.05329051, -0.1452197, -0.025599228, -0.1348676, 0.14636344, -0.06501898, 0.22619416, -0.086699635, -0.12200321, 0.054166302, -0.017222792, -0.07337256, 0.1198664, -0.06692498, 0.0062679797, 0.0855075, 0.023637375, 0.13162914, -0.11081446, -0.020881325, 0.015695477, 0.055171933, -0.008704693, -0.0007964617, 0.07506291, 0.06391445, 0.098121285, -0.10925315, 0.005117595, 0.0821753, -0.055359352, -0.0032262404, -0.12276982, 0.0015736296, -0.12788156, -0.021047123, 0.13071223, -0.15180497, -0.03506907, -0.07548428, 0.09425373, 0.119694784, -0.09899839, -0.13858762, 0.06722463}, 
{0.0087133795, 0.12478148, -0.11363249, -0.0004261136, -0.08608528, 0.049043633, -0.09977711, -0.0966682, 0.037919868, 0.008220429, 0.084509045, 0.11508622, -0.11461663, -0.050076995, 0.120306894, -0.03126777, -0.030315677, -0.013193782, 0.01573394, -0.1137472, 0.006673309, -0.17245673, -0.10895054, 0.08788899, -0.015023126, 0.15414293, -0.11306208, -0.047850564, -0.07297529, -0.08627908, -0.018955888, 0.003192534, 0.11333205, -0.07947268, 0.21640204, -0.019603023, 0.1262248, 0.033045474, -0.12705393, 0.10560144, -0.014964532, -0.008381138, 0.04080385, -0.11168556, -0.07309399, 0.00015974078, -0.09963348, 0.087907895, 0.09886565, -0.06653477, 0.13484047, -0.04775405, 0.14687659, -0.117947295, -0.021917872, 0.087213695, 0.11079124, 0.104073636, 0.05777155, -0.050277688, 0.0841036, -0.04215635, -0.0008351146, -0.07148772}, 
{-0.17790753, 0.1072608, 0.08601178, -0.0567739, -0.10341962, -0.013759561, 0.048926044, 0.024960324, 0.004178278, 0.112922706, 0.0071039726, 0.11632916, 0.12814112, 0.14027447, 0.14195825, 0.0076405555, 0.03179139, 0.13349442, -0.04348631, -0.0005421941, -0.117924266, 0.029605767, 0.10604075, -0.078776926, -0.03449575, -0.037130896, 0.054084897, -0.13753061, -0.12516966, -0.0093849, -0.06790497, -0.0742731, -0.06993338, -0.064311154, 0.13089505, 0.05090873, 0.08439507, -0.0726883, -0.032872986, -0.13794099, -0.042067263, 0.0005584362, 0.038341664, -0.0069898306, 0.02844666, -0.01513179, -0.11595469, -0.065559655, 0.05955644, -0.05443462, -0.041424233, -0.011668624, 0.06533404, 0.024481418, -0.12687065, -0.040367942, -0.14746074, -0.0075345105, -0.022729702, -0.010592973, 0.05084914, -0.14996816, -0.13500924, 0.120406926}, 
{0.16726674, 0.102550104, 0.07258251, 0.0102430135, -0.003388233, -0.21349318, 0.07915237, -0.012350723, 0.13586505, 0.012475231, -0.7565584, 0.022811437, -0.097822286, 0.14211604, -0.05877339, 0.07571906, -0.059808586, 0.12008814, 0.099223055, 0.019778129, 0.048695274, 0.23590036, -0.12527129, -0.4155385, 0.48989168, -0.6786817, -0.119092755, 0.09505968, 0.2509617, -0.046086356, -0.08566882, -0.044700947, 0.0325975, -0.025466174, 0.14212704, 0.0164068, -0.04277808, -0.12149816, 0.13378239, -0.091630645, 0.12478118, -0.052395318, 0.10300314, 0.072451115, 0.017898172, -0.114725225, -0.12770644, 0.100749314, -0.11206913, -0.058785003, 0.1369036, -0.12596193, -0.16042148, 0.103131, -0.120421834, -0.068994, 0.07905223, -0.08285884, -0.11139354, 0.0009843473, 0.13083144, 0.05974931, -0.07059739, -0.05634608}, 
{0.020977315, -0.14129974, -0.09272901, 0.095024675, -0.11110298, -0.03857408, -0.059902694, -0.13916314, -0.027407844, -0.12762816, -0.059244014, 0.00032256334, -0.11465989, -0.051213987, -0.021083534, -0.07046484, 0.12849803, -0.02788864, -0.001158524, -0.12771316, 0.0969703, 0.065323696, 0.0712084, -0.14320883, 0.049811095, 0.18315023, -0.008942597, -0.100632966, -0.03692166, 0.14241843, -0.00045620417, 0.035452034, -0.12994741, -0.14256021, -0.031657375, -0.12959875, 0.093777046, 0.05896196, 0.13174523, 0.047438685, 0.057297785, -0.009206277, 0.04000768, 0.10807283, -0.11884959, -0.0068297246, 0.071701616, -0.07820694, -0.14059292, -0.052387126, -0.1013769, 0.03548271, 0.07611983, -0.08373207, -0.041936733, -0.14214821, -0.04549237, -0.10728804, 0.06065169, -0.059176933, -0.09126373, -0.011596512, -0.122681044, -0.013726275}, 
{0.02072682, -0.14080879, 0.12767342, 0.013857171, 0.011842894, 0.18046968, 0.1272326, -0.03259339, -0.12225113, -0.07954745, 0.19325371, 0.12339917, 0.093779296, -0.01021577, -0.09517648, -0.12977105, -0.034687094, -0.071630105, -0.0950752, 0.062158823, -0.13761732, 0.048020083, -0.09251393, -0.0586728, 0.06580824, 0.18123196, 0.032740094, 0.0825731, -0.16429567, -0.009702921, -0.0842672, 0.007354149, -0.026949046, -0.096814916, 0.35761836, -0.13496125, 0.0867764, -0.1383594, 0.08915778, 0.03151972, 0.12380728, 0.08477834, 0.109766066, -0.040343504, 0.0034142584, 0.10315816, -0.10685331, 0.02500856, -0.090596154, -0.031352926, -0.12989509, -0.066810116, -0.087272294, -0.085327104, -0.08717147, -0.057240915, 0.078131, 0.05539825, 0.020242155, -0.108647555, 0.025642127, -0.08179791, 0.02753544, 0.023594981}, 
{-0.11900138, 0.008277256, 0.03170962, 0.103876665, -0.13729258, -0.12771015, -0.025095275, -0.09058219, 0.031997595, -0.01545538, 0.06000287, -0.114959136, -0.014274477, 0.0070626102, -0.11752576, -0.14236489, -0.06334195, 0.01806147, -0.12843035, -0.0060390537, -0.077663496, -0.04700945, -0.05927238, 0.051435098, -0.056739863, 0.151492, -0.14465888, 0.12662317, -0.09630835, -0.0689556, 0.032183878, 0.084938146, 0.09232815, 0.034582958, 0.24675024, -0.06193421, -0.13609806, -0.06293594, 0.06304886, 0.059829723, -0.028242234, 0.06223805, -0.08795802, -0.042356867, 0.0651326, -0.053701445, -0.008805696, -0.0422612, -0.010003168, 0.121273376, 0.084847115, 0.06697588, -0.061570052, 0.11105828, 0.09792961, 0.02111826, 0.021789435, -0.007921859, -0.07242778, 0.100645036, 0.0076301545, 0.058303338, -0.09607004, -0.14855899}, 
{0.015447541, 0.025214901, 0.082474515, 0.11727969, -0.10686658, 0.10113874, 9.932443e-05, -0.07831581, -0.16595966, -0.016018815, 0.10514729, -0.084991984, 0.023859343, 0.13269483, 0.070021614, -0.12703907, -0.014343751, -0.13779792, -0.049465153, -0.08862517, -0.11713614, 0.18492283, -0.11624085, 0.1538939, -0.0023007498, 0.005959941, 0.09409952, -0.12846191, -0.0554137, -0.03745962, -0.105109215, -0.023756912, -0.019107888, 0.029488042, 0.22833, -0.11966536, -0.06654686, -0.14193155, 0.10770615, 0.055683192, 0.052922573, -0.055456508, -0.12109725, -0.03557937, 0.08646572, 0.057893943, -0.100754656, 0.058295533, -0.07325746, 0.121050134, -0.14869812, 0.0036901145, -0.118825525, -0.017574118, 0.115579054, 0.089475274, 0.10859336, 0.10646236, -0.07241874, 0.06273006, 0.13484193, -0.12206307, -0.030680513, 0.0065468936}, 
{0.024234895, -0.02411618, -0.15405817, -0.071915366, -0.00770046, -0.10500759, 0.017373728, -0.059633598, -0.09443201, 0.09478007, 0.13013954, -0.11852446, -0.11257631, 0.07026723, 0.09743874, 0.057758152, -0.09643826, 0.12680288, 0.06884028, -0.0872731, -0.14729527, 0.2760294, -0.02256344, 0.02082465, 0.0730511, -0.018015167, -0.06965261, 0.13816412, 0.053998042, -0.06880493, 0.13180009, -0.09836777, -0.114965945, -0.06619972, 0.21695426, 0.11241303, -0.09945682, 0.008130806, -0.07315742, 0.093131796, 0.01304483, 0.066965386, 0.0051545324, 0.027350541, -0.019964278, 0.038569584, 0.11311011, -0.11675432, -0.0536483, 0.09618137, 0.017354468, -0.14484492, -0.23761378, -0.08157128, -0.02262871, 0.024643965, -0.07869398, 0.079526246, 0.059930682, 0.122145824, 0.04553461, 0.06241777, -0.026039232, 0.074784584}, 
{-0.09824633, 0.13341828, -0.09944249, -0.020079665, 0.061520953, -0.09330397, 0.123480365, 0.050158918, -0.11059788, -0.06842185, -0.042280763, 0.024790946, -0.12069194, -0.10268788, 0.042642593, -0.10390514, 0.09773633, -0.033435103, 0.0045225727, 0.121143416, 0.06799354, 0.22794628, -0.0973473, -0.030978192, 0.01521237, -0.09523343, 0.006401468, -0.052087232, 0.16153823, -0.052035257, -0.12927203, 0.07983182, -0.10992312, 0.10298252, 0.20236774, 0.13365458, -0.14398627, 0.00053080707, 0.1016817, 0.10022949, -0.05760411, 0.13522576, -0.093361594, 0.07851711, -0.029817723, -0.04872292, 0.061837558, -0.12329482, 0.026405696, -0.05297745, 0.0036004873, -0.028217588, -0.007871755, -0.024928058, -0.043223977, 0.10082622, -0.073667936, -0.14700526, 0.08919196, -0.057361666, 0.017622039, 0.10442068, 0.118558474, 0.03582997}, 
{-0.20799597, 0.069960006, 0.10543627, -0.12894318, -0.009847367, -0.084617645, 0.076768, -0.029332966, 0.08697814, -0.13218892, -0.03888384, -0.046438698, -0.07017617, -0.0059718518, 0.07189569, -0.09591171, 0.04821593, -0.14909752, -0.05599283, -0.09059588, -0.008632302, 0.30719826, -0.084348254, 0.1356258, -0.08704351, -0.05502518, 0.056532852, -0.039488688, 0.07930178, -0.009694457, 0.035933457, 0.10412839, 0.005930593, -0.011131942, 0.079534814, -0.08623234, -0.029919885, -0.121709704, 0.0074722175, -0.12319587, -0.024239825, -0.060506023, -0.11816961, -0.07432383, 0.035567686, 0.11259962, 0.034239903, -0.10787908, -0.0028421604, -0.121230714, 0.010943612, -0.052235022, -0.06802711, 0.09466487, -0.093523994, -0.033396415, -0.051670168, 0.00055451394, -0.07778722, 0.084596746, 0.041175053, 0.05598611, 0.119992696, 0.043836497}, 
{-0.06428299, -0.13124269, -0.100063466, -0.012906417, 0.057709236, -0.09810232, 0.087238885, -0.06794802, 0.070875585, 0.05320848, 0.25361717, -0.13159634, 0.07175545, 0.0494693, -0.05347462, -0.14148861, 0.013964626, -0.015668552, -0.048074473, 0.118088014, 0.105503134, 0.1248307, 0.0054803668, 0.15520096, -0.04549322, -0.08318052, -0.070949204, 0.044671625, -0.023042997, 0.09850088, -0.038344733, -0.14483023, -0.057996176, -0.064287834, 0.13036568, -0.111509435, -0.08256506, 0.0504804, -0.11852958, 0.05593728, 0.067190245, -0.029445568, -0.1628537, -0.06827368, 0.11881991, 0.13086016, 0.03697646, 0.08449313, -0.071806386, 0.112249754, 0.019351484, -0.044377193, -0.15309048, -0.029908577, 0.10914467, 0.082603574, -0.042788804, 0.12064317, 0.055825204, -0.09408173, -0.13869885, -0.014239858, -0.13910541, 0.051303256}, 
{-0.18610409, -0.07561037, -0.0714621, -0.03906931, 0.037561584, -0.10237151, -0.039237168, -0.023570605, 0.10511705, -0.11438892, 0.2204633, -0.019530658, -0.14308162, 0.085363574, -0.019737579, -0.05919274, -0.14047757, -0.047752667, 0.10528281, 0.0008518101, 0.036334276, 0.09973121, 0.06940289, 0.19042999, 0.12005107, 0.018026667, -0.074733645, 0.0812628, 0.0010841095, -0.121521235, -0.12886603, 0.08011619, -0.12144559, -0.029057905, -0.05512424, 0.0125546865, 0.04797344, 0.07435966, 0.097654335, -0.037152883, 0.08937516, -0.10884807, -0.03232327, -0.07160237, 0.016807705, -0.05682974, 0.120494604, 0.13462524, -0.0004887258, -0.13832161, -0.10834044, -0.07681969, -0.10535473, -0.051246196, -0.0998438, -0.11328283, 0.11091648, 0.056348916, 0.07942477, 0.059952658, -0.0766908, -0.08863672, 0.07913868, 0.028105097}, 
{-0.010967996, 0.066115245, 0.09521971, 0.092583984, -0.080552414, 0.09370397, -0.13386391, -0.05500681, 0.13434371, -0.1364561, 0.032918733, -0.13287932, -0.08509296, -0.03618137, -0.11620371, -0.09332014, -0.116544515, 0.025293875, 0.03356494, 0.095576026, 0.015518059, 0.0060442253, -0.01841525, 0.03902959, -0.08373249, 0.1908176, 0.019407436, -0.10233317, -0.120936275, -0.052739255, -0.012255124, 0.053620856, -0.041466758, -0.0323139, 0.0626071, -0.13981652, -0.04933022, -0.022638481, -0.07927511, -0.08736975, -0.07607372, 0.054650176, -0.07024248, -0.13532087, -0.04154198, 0.066973515, 0.0019452553, 0.10315013, -0.036619876, -0.12752692, 0.057022937, -0.10709623, 0.011637477, -0.13096201, 0.024117604, 0.028023383, -0.0041895793, -0.0039572404, -0.027637772, 0.09990699, -0.08758539, 0.046742544, -0.09116242, 0.0076769083}, 
{0.07171098, 0.08833506, 0.039485004, -0.016578257, -0.046777938, 0.14022174, 0.12384804, -0.0028741956, -0.037167493, -0.030038869, 0.24454384, 0.08225986, 0.063309364, -0.012376673, 0.031241074, 0.088103056, 0.023787387, 0.04285779, 0.054703288, 0.08993029, 0.11504452, 0.07064944, -0.10562541, 0.14529608, 0.05832954, 0.1879787, -0.11413033, -0.13836539, -0.023966065, -0.03963256, -0.0900826, -0.059182715, -0.058468997, 0.02894622, 0.000119242904, -0.12971543, 0.06745378, -0.08207152, 0.09049437, 0.036366466, 0.11503367, 0.061949484, -0.075211726, -0.09666838, -0.12003399, -0.14368436, 0.061147526, 0.10228978, 0.04483334, -0.04135597, -0.0749678, 0.11223798, 0.062339034, -0.088621296, -0.0015415251, -0.13718195, -0.022330293, -0.13199611, 0.052268207, -0.007624197, -0.12626854, 0.0678149, -0.12578905, 0.047805842}, 
{-0.11426556, 0.0968186, -0.0010157656, 0.04349135, -0.004685073, 0.12543903, -0.048845883, -0.007348627, 0.01883941, -0.123806946, 0.2500711, -0.07305036, 0.009281437, 0.11248977, -0.061186217, -0.03574904, -0.013285718, -0.015947131, -0.05922719, 0.060423322, 0.096045, -0.005388575, -0.092448935, 0.06651183, 0.047211193, 0.25103435, -0.09848527, -0.09077811, -0.13464761, -0.05091057, 0.0036133563, 0.017275551, -0.014227121, -0.14049913, -0.047475565, 0.063953795, -0.100086756, -0.014632839, 0.110487334, 0.10165365, 0.022401717, 0.0943565, 0.050077014, 0.12866259, 0.13729818, -0.09878029, 0.026423505, 0.0074822605, 0.1295849, 0.08058423, -0.06902652, -0.13151856, -0.0055973544, 0.014549678, -0.09894471, 0.09983873, -0.047919728, 0.09365998, 0.13744853, -0.08367414, -0.07393712, -0.0028394966, 0.0091546755, 0.07019055}, 
{0.001161738, -0.024494492, -0.046658255, -0.08646119, 0.10871668, -0.027541136, -0.030430557, -0.07200039, -0.039830226, -0.13706656, 0.14577475, -0.14482269, -0.07466038, -0.10259861, -0.12652312, 0.14313306, 0.11780376, 0.1118672, -0.120300174, 0.052874923, 0.121343255, -0.22947375, 0.1191728, 0.011767916, -0.00033038724, 0.15121226, -0.13999175, 0.04147598, -0.13779914, -0.13085736, -0.0035709343, 0.07993691, -0.14735407, -0.044200845, 0.16507052, -0.024524065, -0.011831745, -0.0025798366, -0.002476795, 0.010326618, -0.12372286, 0.054002907, 0.011638625, 0.07299491, -0.007503286, -0.12498242, 0.10791572, -0.07829873, -0.11708831, -0.14439917, -0.06283445, -0.12263302, -0.050060295, 0.056613825, -0.013983622, -0.0044304733, -0.06809663, 0.02734078, 0.0016589165, -0.06477924, -0.13674378, 0.021114174, 0.13965547, -0.058705375}, 
{-0.009618937, -0.10704232, -0.0680778, 0.1371675, 0.08158094, -0.107752405, -0.1429921, 0.034005404, -0.006893252, -0.052343905, 0.16822149, 0.11043028, 0.031969175, -0.057668053, -0.031318165, 0.04905261, 0.09146005, -0.008505655, 0.08601826, -0.054960348, -0.007785189, -0.007545751, 0.037025332, 0.036480606, -0.04734506, 0.2775757, 0.012415612, -0.116851956, -0.12748791, -0.039239697, -0.09649952, 0.0048925206, -0.0816629, 0.10233873, 0.06274029, -0.14438495, 0.108518824, -0.049175862, -0.10109202, 0.0971362, 0.05688472, -0.14634965, 0.00936892, 0.13677937, 0.010543704, -0.098338716, 0.104565926, -0.05572661, 0.010384958, -0.059159238, 0.021780366, 0.111148864, -0.009085671, -0.13201688, 0.050714716, 0.12707053, -0.12748864, -0.027017292, -0.11705206, -0.08245617, -0.017314479, -0.026181001, -0.029693414, -0.0037806577}, 
{0.0702375, -0.14340423, 0.09411355, 0.0019043386, 0.0698142, 0.055758473, 0.13790853, 0.011815399, 0.13182412, -0.07610218, 0.14624281, 0.040780026, 0.106322154, -0.069356665, 0.09069243, -0.0073300004, 0.07077152, -0.041416287, -0.14461185, 0.06559005, 0.02025129, 0.0647095, 0.11638369, -0.12351143, 0.08415971, 0.005868908, 0.11380917, 0.14355536, 0.060835153, -0.0027966946, -0.011740416, 0.12937096, 0.0070715505, -0.08094362, -0.040965084, -0.08948683, -0.063643776, -0.11665244, 0.023542825, -0.017851748, 0.035169747, 0.03797649, -0.13987346, 0.0014048609, -0.05910758, 0.075650856, 0.060926147, -0.014310017, -0.05235875, -0.008715756, -0.021315267, -0.048155107, 0.11212996, 0.07124019, -0.13152584, -0.0066249063, 0.054663964, 0.060658246, -0.085452855, -0.09961924, 0.0044439584, 0.110724516, -0.1450854, -0.005682787}, 
{-0.07190114, -0.05585585, 0.07696453, 0.13746522, -0.12511535, 0.055715222, 0.010515655, 0.109118536, -0.041541465, 0.09696044, 0.1766292, 0.04242146, 0.095866345, 0.05700759, -0.015305236, 0.1380236, -0.12760405, 0.12118752, 0.053274393, -0.032568943, -0.08607819, 0.07167376, 0.13316299, -0.05570032, -0.059207365, 0.028857132, 0.09086411, -0.09570655, -0.114631444, 0.13783382, 0.06735626, -0.022443088, -0.043108154, -0.029399164, 0.055717114, 0.024366623, 0.032223947, -0.064401485, 0.050089337, -0.14028008, -0.053199116, 0.04093551, 0.026018523, 0.004593013, 0.019097537, -0.1289101, -0.004974543, -0.12137507, -0.10394516, -0.007540422, 0.08535186, -0.056703858, -0.16159198, -0.03192114, -0.0049072504, 0.09525873, 0.123895444, -0.10966517, -0.00030358136, 0.07062338, 0.023588777, 0.11810926, 0.13845514, 0.017810663}, 
{0.089188606, -0.13587202, 0.06635181, 0.042743966, -0.03364948, -0.0036693464, -0.0041792165, -0.08513093, -0.100180976, -0.058077212, 0.17680952, 0.016929291, -0.0914133, 0.111271076, -0.03325902, -0.05111514, -0.025186954, 0.02860764, -0.114879526, 0.04171377, 0.011272071, -0.15809865, 0.1209978, 0.07148992, -0.08738603, 0.09113308, -0.08136256, -0.13563967, -0.029706607, 0.10561617, -0.14376204, -0.06815441, -0.0300516, -0.048653327, 0.2767629, 0.014538749, 0.060323216, 0.01166091, -0.05112639, 0.11292625, -0.043566782, 0.12885474, -0.07808139, -0.06284424, 0.011161238, -0.0098133, 0.00027341367, 0.02175723, 0.033828564, -0.02034474, -0.09469009, 0.04112276, -0.018893007, -0.08609796, 0.12618719, -0.09070464, -0.04904541, 0.060749125, 0.022990212, 0.11390101, -0.079324864, -0.035919767, -0.032812044, 0.047753938}, 
{0.037083127, -0.10216711, 0.008124643, -0.016497493, -0.14450207, -0.01369258, -0.05487298, 0.13610472, 0.17533495, -0.048697453, -0.03739171, 0.033784445, -0.12880322, -0.04825241, -0.034436405, 0.034546927, -0.12732457, -0.11286303, -0.06592295, 0.05998359, -0.13581064, 0.03332321, 0.0023231946, -0.12163487, 0.12406046, -0.10144903, -0.11705501, -0.14263177, 0.0028735872, 0.08142288, -0.0112423785, -0.038681984, 0.08730188, 0.08287558, 0.16919397, 0.039073102, -0.00137668, 0.08675873, -0.14253575, -0.09003793, -0.14590403, -0.035976287, 0.07472595, -0.019579072, -0.10681547, 0.00281203, -0.008758362, 0.04470405, -0.08777836, -0.10429622, 0.081043564, 0.112231545, -0.1706345, -0.06104856, -0.07683484, -0.12445818, -0.043953184, -0.13557082, -0.12585461, 0.001235051, -0.02811446, 0.11435771, 0.05502372, -0.0662453}, 
{-0.21031733, -0.04549123, 0.00040270537, -0.10178431, 0.091578744, 0.0642597, 0.055144627, -0.034662895, -0.044479035, 0.13631836, -0.056738395, -0.04933504, -0.14792567, -0.09235282, -0.01826562, -0.06523436, -0.08960317, -0.013534132, -0.02545474, 0.011762325, -0.115147196, 0.20127402, 0.032067783, 0.05771807, 0.32351398, -0.14172544, 0.1324016, -0.03745749, 0.13471851, -0.058023877, 0.018896358, -0.0957474, 0.061788745, -0.05830138, 0.18186942, 0.06834837, 0.06400708, -0.02711913, -0.07280744, -0.14391458, -0.14575428, -0.022109162, -0.07633886, 0.13841511, -0.094180204, 0.013640497, 0.09558309, -0.1191193, -0.14271124, -0.038987007, 0.017495284, -0.13443537, 0.025901815, -0.055700764, -0.0034601837, 0.01076492, -0.04098636, -0.13387899, 0.11650984, 0.10041047, -0.12895828, 0.028026756, 0.13212252, 0.05650745}, 
{-0.04208283, -0.0037110772, -0.03231212, -0.0010400414, 0.022433547, -0.16021495, 0.10178851, 0.07399972, 0.04481629, -0.0035144296, -0.06101428, 0.07642631, 0.07260512, -0.06094905, 0.14408056, 0.13967757, -0.015949706, -0.09901982, -0.049090706, -0.061776638, 0.13706699, 0.103622735, -0.056273103, -0.052935638, 0.07778939, -0.1594047, 0.08820833, 0.054438084, 0.21460956, 0.052366152, -0.13323684, 0.08182795, -0.12599239, 0.04301244, 0.20520459, -0.04418799, 0.13685594, -0.09595674, -0.12108996, 0.08408903, -0.0006350423, 0.011524179, -0.13548428, -0.002443654, 0.027754366, 0.0180656, 0.07707268, -0.12061559, 0.03298824, -0.10524201, -0.112169296, 0.014369376, -0.12572473, 0.08377676, -0.010047793, -0.12555069, -0.0088236155, -0.14196233, 0.0092870295, -0.03225048, -0.13689527, -0.040231712, -0.124956906, 0.12793508}, 
{-0.16149153, -0.09085307, 0.0018425069, -0.007827297, -0.09304556, -0.08561716, -0.071103826, 0.02332443, 0.0011280065, 0.104074255, -0.042876933, -0.028752344, -0.0059629055, -0.08695268, 0.061701074, 0.13002585, -0.08202186, 0.027566578, 0.12691215, -0.114931695, -0.039638005, 0.30631933, -0.009607237, -0.12805052, 0.038632352, -0.203625, -0.062991194, -0.13973796, 0.156757, -0.022818133, -0.07583668, 0.0640713, 0.032456666, -0.12648328, 0.24015039, -0.12251237, 0.061331447, 0.0015706605, -0.00092097983, 0.11211931, -0.04608175, 0.0030430618, -0.107698984, -0.03544754, -0.053921387, -0.12260912, 0.1046058, 0.018676758, -0.0044162334, 0.100190386, -0.10963967, -0.037253067, -0.14712653, -0.09768845, 0.01955241, -0.007930486, -0.01375107, -0.025249973, 0.001819551, -0.12389267, -0.12419893, 0.102928005, 0.11725296, -0.109082215}, 
{-0.11613253, -0.0113849975, -0.044470742, 0.055161327, -0.024561135, -0.0015301529, 0.022175603, -0.09726326, -0.07819495, 0.0051514045, -0.07199685, -0.029614981, -0.13111918, -0.10990706, -0.12425469, 0.09017579, -0.020515079, 0.054635663, 0.12785053, -0.1438323, -0.0136779025, 0.35778496, 0.099892594, 0.06308314, 0.007798162, -0.09024735, -0.101000495, 0.022562101, 0.19157831, -0.0037166327, 0.0683072, -0.023889093, 0.103596225, -0.14129919, 0.15852596, -0.14124362, 0.14236435, -0.063062504, 0.0770194, 0.13047965, 0.018462846, -0.11671269, -0.11530841, 0.13547654, -0.03357239, -0.12672631, -0.10046653, 0.034528196, -0.106292404, 0.086946905, 0.030762166, -0.059317797, -0.084513284, 0.11479526, -0.112194285, 0.097976305, 0.089367084, 0.0042724456, -0.11604177, 0.105048195, -0.03574509, -0.13673443, -0.11396734, 0.07827246}, 
{-0.07466446, -0.08770797, -0.05640063, -0.03569428, -0.06250428, 0.076172695, -0.13887616, 0.10406357, 0.028135177, 0.08868423, 0.04449788, -0.07263718, 0.10307392, -0.08729557, -0.033170834, 0.03190337, -0.043205116, 0.06667626, 0.06987019, -0.025551844, -0.032789625, 0.19850436, -0.056725685, 0.033916984, -0.11920159, 0.06045829, 0.005755702, -0.07187311, 0.012897836, 0.0760023, -0.14611258, -0.016135618, -0.023843236, -0.005498573, -0.043500785, -0.067099154, 0.12799586, -0.07777639, -0.116552584, 0.13098286, -0.12134749, 0.0736349, -0.107701056, 0.08344143, 0.032894194, -0.012616947, -0.11538448, 0.10960896, 0.10789752, -0.13611315, 0.062020868, -0.14187287, 0.014545295, -0.07277217, 0.08465208, 0.057361122, 0.010105883, 0.11842846, -0.14111154, -0.13378224, 0.10795568, -0.11479529, -0.03698549, -0.06018271}, 
{-0.14819305, 0.10471195, -0.14641373, -0.08284857, -0.13142708, -0.1365328, -0.05518327, -0.10129825, 0.08928687, -0.105973415, 0.14363463, -0.08062278, -0.106815994, -0.04339134, 0.12654431, 0.053574592, -0.13233788, -0.08185561, 0.0043614125, 0.043540835, -0.007974886, 0.007428363, -0.0044868304, -0.094909206, -0.2217895, 0.014221467, -0.022960924, 0.096558616, 0.06993732, 0.12852012, 0.103089266, -0.13175537, 0.040271834, 0.052419707, -0.2517036, 0.12951387, -0.099131554, 0.015482871, 0.009930168, 0.101770796, -0.12236518, 0.09307314, -0.09170427, -0.14192241, -0.06132178, -0.14368601, 0.004433485, -0.14001894, -0.07052937, -0.10024698, -0.06470538, 0.09924459, -0.09964773, -0.10789211, -0.12921055, 0.022129662, 0.0048663435, -0.0064732973, -0.112190194, 0.1237496, 0.07667579, -0.03806466, -0.10452773, -0.09015062}, 
{-0.1153173, 0.008706039, -0.07840425, 0.10546103, -0.04731422, 0.036315937, -0.14551216, -0.10023254, 0.17218108, 0.10278108, 0.12333281, -0.006267091, -0.07669133, 0.091380045, -0.11834924, 0.1160572, -0.14086646, 0.0042325463, -0.038018607, -0.006925237, -0.10684111, 0.0035287247, 0.0743549, -0.058986794, -0.07388757, 0.022427978, 0.034609362, -0.03986469, 0.0027557109, -0.084538095, 0.0037218577, 0.08882475, -0.039336264, -0.10720532, -0.118835144, -0.12779726, -0.14057666, 0.116080865, 0.048965402, -0.04478415, -0.08350493, 0.09895048, 0.007774028, -0.0802115, 0.08838335, 0.081950165, -0.13205895, -0.14372607, -0.044130996, -0.050134152, 0.07847185, 0.03547476, 0.03773651, 0.100869946, 0.13371722, -0.06778126, 0.03486582, -0.07505635, 0.109411165, -0.0139394775, -0.042900577, -0.0012484005, -0.12726487, 0.122455865}, 
{0.035201076, 0.04463895, 0.09533196, -0.017530933, -0.027352085, 0.012256413, -0.12939908, 0.0017965734, -0.052350603, 0.086567305, 0.079498984, 0.1204126, -0.13970889, 0.06677158, 0.11434843, 0.08454101, 0.03573856, 0.045540452, 0.038597185, 0.006345398, 0.062784225, -0.028097535, -0.03791601, -0.15146935, -0.086160004, -0.02094748, -0.03185324, 0.06658867, -0.17592491, 0.026385874, -0.015818596, -0.06721974, -0.079927936, -0.075343676, -0.06683087, -0.110155135, -0.09075698, -0.049255386, -0.14339803, 0.08404498, -0.12748179, -0.041829806, -0.014687165, 0.07310262, 0.053616837, -0.122775, 0.13073026, -0.082960635, 0.03221974, 0.098919645, -0.11773355, 0.0415991, -0.17393248, -0.14277056, -0.072032854, -0.09115702, -0.12553379, 0.020342886, -0.056814782, 0.10824857, 0.071733266, 0.027637722, 0.124526896, -0.037646826}, 
{0.050168984, 0.081573725, -0.057733804, -0.014983997, 0.053130604, 0.021944465, 0.045644343, 0.13065676, 0.07444505, -0.06660167, 0.18502733, 0.13055234, -0.039779708, -0.09315809, 0.07186088, -0.0047906935, -0.122933336, -0.14215729, -0.039474674, -0.08637301, 0.11943242, -0.059403155, -0.12329424, 0.12610409, -0.064873055, -0.022365075, 0.048090544, -0.036160454, -0.0066367555, 0.07808846, 0.019952906, -0.10663054, -0.11475167, -0.10194306, -0.05041221, -0.13701165, -0.044751912, 0.009715863, 0.006249676, 0.04203812, 0.033874415, -0.048906684, 0.04627238, 0.03468731, -0.006639749, 0.1339747, -0.08333204, 0.06946121, 0.024557322, -0.0061134193, 0.088839985, 0.055541452, -0.020720573, -0.15814121, -0.1420869, -0.08240706, -0.13599429, 0.063946694, -0.015186742, -0.05864773, 0.065515235, -0.013513181, -0.107976966, -0.054403126}, 
{-0.14260033, -0.050980106, 0.07947026, -0.08072737, 0.12857352, 0.09430334, -0.027452651, 0.12760927, 0.12039705, -0.050824273, 0.1669344, 0.10478393, 0.00063647056, -0.010573309, -0.11100474, 0.045713484, -0.043551996, 0.124026544, -0.03234971, -0.14928423, -0.06800623, 0.07212896, -0.108331695, 0.03654437, -0.092834584, 0.116576605, 0.004704995, -0.1190442, -0.10051986, -0.048546694, 0.10893348, -0.018862395, -0.10489977, 0.115174934, -0.04673774, -0.099049754, -0.09151368, -0.08416026, -0.12809297, -0.050743267, -0.13513713, 0.09970858, -0.025071824, -0.05347823, -0.06410631, 0.0066386685, 0.08280016, 0.0034911335, -0.07955488, 0.08318475, -0.01480009, -0.059247352, 0.07197193, -0.01267255, 0.079044744, -0.052093126, -0.1030237, 0.11069872, -0.105828404, -0.14146449, 0.028138995, 0.037466872, 0.024509348, 0.09967651}, 
{-0.055470586, 0.08398857, 0.12056999, -0.049685396, 0.03698099, -0.024948558, -0.14128911, 0.03150402, -0.016844498, 0.1132063, 0.010337826, 0.024553923, 0.058001757, -0.063412674, 0.053374037, -0.079404116, 0.034923356, 0.0034917854, -0.037524432, -0.06999371, 0.13534601, -0.08061583, -0.061819423, 0.07148644, 0.012100465, 0.029718148, -0.09597698, -0.10903108, -0.16588408, -0.12703647, -0.12920505, 0.03928594, -0.1254062, -0.13548172, 0.16518348, 0.060940478, 0.12871364, 0.08253797, -0.06599677, -0.039958745, 0.10923898, -0.06823002, 0.12929827, 0.018950611, -0.04343704, 0.13613647, 0.081184015, -0.09485016, -0.056202, -0.13936044, -0.06454185, 0.09890912, 0.05645807, -0.04068071, -0.023530342, -0.13805607, -0.07347611, -0.08656542, 0.13090323, 0.021992343, -0.1130583, 0.016306886, 0.020336185, 0.006663733}, 
{0.04067148, -0.03389368, -0.006017087, 0.13415341, 0.13277285, -0.030806465, 0.044743095, 0.10845567, -0.030198812, -0.019007286, 0.09065205, 0.12127649, 0.0800491, -0.039760735, 0.061199278, 0.026850611, 0.04383229, -0.13218588, 0.027385045, 0.10243765, 0.13591084, -0.14533837, -0.14103779, -0.17427486, 0.13391708, -0.013185424, -0.08534107, -0.0027780384, -0.12821116, 0.12904547, -0.06303931, -0.13901098, 0.11286793, 0.017094001, 0.03426475, 0.0915225, -0.03641508, 0.0019334111, -0.041176617, -0.030132208, -0.14906363, -0.021968165, 0.049526893, -0.08910155, -0.106598735, 0.116742425, -0.1434331, -0.053121403, 0.12424911, 0.053552903, -0.066046946, 0.09458073, -0.046302173, 0.06732708, 0.047922432, -0.07201828, 0.027261268, 0.13767293, -0.13042359, 0.096591875, -0.109802544, 0.029759418, 0.0033992557, -0.031792995}, 
{-0.008115544, 0.062917985, -0.056879077, -0.039359905, -0.063256525, 0.09644702, -0.03947599, 0.12611927, 0.0135781495, -0.14252026, 0.12530045, 0.080669545, -0.09625436, 0.083675854, -0.10968671, 0.01648286, -0.016211972, 0.048485775, 0.0670018, 0.12907243, -0.12200914, 0.20218182, -0.01095601, 0.07625599, -0.052170806, 0.07951692, 0.08419292, -0.0704905, -0.09050217, 0.0807205, -0.0965106, 0.11597522, -0.030505922, 0.14379694, 0.04532927, -0.088984065, 0.011934863, -0.08520823, -0.07659638, 0.0980928, -0.11271332, 0.06842156, 0.073072836, -0.07678008, -0.12617722, -0.14003246, 0.019393627, -0.07560314, -0.13649274, 0.08310748, 0.013557312, -0.14605246, -0.14456701, -0.115423545, 0.11659445, -0.09900297, 0.1329174, -0.09009202, -0.091920555, -0.036316708, -0.11529105, 0.04481031, -0.030864093, 0.010490006}, 
{0.080274664, -0.14769593, -0.15095368, 0.10049383, -0.047521014, 0.08201967, 0.13239883, -0.03833309, 0.17107858, 0.09744607, -0.009293087, 0.07049575, 0.060640566, -0.10552576, -0.14031795, 0.14166112, 0.07166662, 0.118644826, 0.054847002, 0.11037948, 0.10992821, -0.12771513, 0.07423759, 0.13431303, 0.09917885, -0.016976247, -0.10956697, 0.023334563, 0.098373994, -0.03297846, 0.018008985, -0.003969767, -0.10962141, 0.143014, 0.07550684, 0.13918401, -0.14700982, 0.1377313, -0.108434275, 0.13209814, -0.038522486, -0.066344194, -0.035583876, 0.11432701, 0.07579225, 0.11777821, 0.040360056, 0.091577336, -0.00470635, 0.1189562, -0.07362902, -0.113038905, -0.07691716, -0.11652996, 0.0694776, 0.058176383, -0.0812409, 0.11144831, -0.12003368, -0.032505166, 0.053396165, 0.047033254, -0.044553626, -0.12094022}, 
{-0.048734184, -0.12656301, 0.0891, -0.030029856, -0.017883856, -0.022739954, -0.14430058, 0.07339585, 0.120897345, 0.10954715, -0.005057256, -0.08395904, -0.057271086, -0.1136338, 0.016159147, -0.024856992, 0.03933951, -0.09369846, -0.11109178, -0.10793955, 0.10947864, -0.05271285, 0.048916735, -0.10968199, 0.10764782, -0.052151572, 0.08654156, 0.03157249, 0.054319423, 0.14368291, 0.04629566, -0.048681933, 0.075429596, 0.09543876, 0.18723693, 0.016213562, -0.1046189, -0.031751115, 0.011400613, 0.0179944, -0.10325891, -0.06314322, 0.06685584, 0.014773677, -0.033667304, 0.076716654, 0.06447418, -0.0035620779, 0.073716976, 0.006663683, 0.10824763, -0.097301826, -0.011117594, -0.05350155, 0.1288247, -0.009973475, -0.06803929, 0.13786714, -0.09367508, 0.03992804, 0.07208301, 0.011372546, -0.143612, 0.0040312423}, 
{-0.13169853, 0.014402527, -0.13004966, -0.08875738, 0.102786735, -0.15303543, 0.06203197, -0.035015702, 0.017404152, 0.0445666, -0.16295095, 0.10182337, 0.06285936, 0.10047798, -0.08299674, -0.010767445, 0.073378235, 0.11985615, -0.10292125, 0.085026585, 0.008227638, 0.2067007, -0.14760546, -0.1733182, 0.1413806, -0.07794247, -0.07922691, -0.021571383, 0.17083056, -0.016932398, -0.09300717, 0.106368475, 0.05638706, -0.07908728, 0.24336444, 0.045072854, 0.08135444, -0.012546258, 0.11810256, -0.036504783, -0.053716585, -0.09230199, -0.18826523, -0.11356484, 0.022271499, -0.11582756, -0.10483033, -0.08994913, -0.04658093, -0.123997, 0.1174679, 0.056600984, -0.064989336, 0.0060815862, -0.14044736, -0.055194706, 0.10434987, -0.0691837, -0.11613143, -0.0060154065, 0.05323112, 0.0040369206, -0.035510402, 0.055567402}, 
{-0.1802296, -0.004317635, 0.12347694, -0.11757289, -0.08069244, -0.16828881, -0.07881406, -0.058633335, -0.030879911, 0.1163227, -0.08209039, 0.12007649, -0.045140915, 0.09239702, -0.05560562, -0.065973744, 0.050335087, -0.120671175, -0.108263016, 0.04677196, -0.1039005, 0.43425578, -0.031246578, -0.12273431, 0.2588805, -0.3558723, 0.11839578, 0.05871135, 0.24487472, -0.091722205, 0.13709898, -0.09370843, -0.1461741, 0.05883722, 0.27436632, -0.12169871, 0.07235008, -0.052527603, 0.12508386, -0.0973583, -0.11927472, 0.01933695, -0.29098818, -0.0836253, -0.13547975, -0.06282011, 0.121789224, -0.008480355, -0.043548547, 0.057154335, -0.07966953, 0.007994436, -0.19870982, 0.028230814, -0.04636956, 0.07506981, -0.058031086, 0.048962124, -0.1278564, 0.13065119, -0.06597327, -0.054038614, -0.082132734, -0.034446917}, 
{-0.17858718, 0.074397236, 0.029080195, 0.012108251, 0.08433506, -0.07594782, -0.06801794, -0.09311196, 0.040426433, 0.12563744, -0.18350253, -0.07690955, 0.014433744, 0.09118964, -0.009678215, -0.04678163, -0.060881067, 0.13594274, -0.08510139, 0.026543975, 0.12657806, 0.4543268, -0.12751865, -0.07948012, 0.1016922, -0.2819526, 0.059662264, 0.13229935, 0.25483438, -0.12131924, -0.04884498, 0.12286973, 0.04923868, -0.06061338, 0.16648819, -0.10171939, -0.13446736, -0.04104468, 0.012461978, 0.042212036, 0.09259252, -0.04289798, -0.20497683, 0.06252777, 0.13745432, -0.006905371, 0.06169163, 0.13655205, -0.13883817, -0.05957605, -0.049472526, -0.009013932, -0.21523246, 0.100496635, -0.075307705, -0.106613256, 0.075482644, -0.040078722, 0.079371065, 0.044050284, -0.032815143, 0.08253578, -0.018871376, -0.026221955}, 
{-0.16835976, -0.026431121, 0.0039773076, -0.13895269, -0.14123066, 0.09734169, -0.11906052, 0.030693352, -0.034364473, 0.05796309, -0.1593124, -0.057229377, 0.05640114, -0.0130306985, -0.02466382, 0.050119177, 0.09286432, -0.03647258, -0.12384955, -0.03664726, -0.06753105, 0.13199192, 0.010081106, -0.032462783, -0.17950638, -0.13374063, -0.022076655, 0.06800601, 0.009054443, -0.079568736, 0.07962288, 0.048400503, 0.07562953, 0.017534643, 0.092105195, 0.076084934, 0.11813998, 0.1276922, -0.05533666, -0.097960696, -0.0828921, 0.09697139, -0.12658519, -0.1377859, -0.10915039, 0.10346879, 0.1298101, -0.032659143, -0.013219172, -0.012014967, 0.09069132, 0.13636345, -0.24097623, -0.0049094656, 0.124312386, 0.02077077, -0.061460007, -0.064316384, 0.10278292, -0.058271535, 0.05118817, -0.14397609, -0.13471448, -0.05539913}, 
{-0.12741485, -0.07955279, -0.027376033, 0.14340489, 0.07343879, -0.07177711, 0.08790637, 0.078729525, 0.051001158, -0.13076366, 0.040032487, 0.029926876, -0.022172926, 0.047903355, -0.10959746, 0.12759097, -0.012090626, -0.08338261, -0.021352626, 0.052484687, 0.028925717, 0.17462848, 0.050395004, 0.12656042, -0.08300886, -0.039768748, 0.13335706, -0.10417049, 0.017941574, -0.034155913, -0.0972988, -0.04197634, -0.03322835, -0.105431624, -0.041377556, 0.1137613, -0.12958667, 0.09509713, -0.13016254, -0.056183036, -0.1415964, 0.026600227, -0.039665986, -0.0075628906, -0.009966165, 0.015876072, 0.124388896, -0.09231095, 0.03773482, -0.11171067, 0.083312534, -0.08547276, -0.08754029, 0.018619848, 0.043837667, -0.068854645, -0.12506175, -0.07159305, -0.12678649, 0.1086295, -0.13692619, 0.018034289, -0.05826176, 0.032528486}, 
{-0.082361676, -0.053857718, 0.04007329, 0.103417054, 0.009730948, -0.12751545, 0.0151482215, -0.09830822, 0.046368405, 0.069111824, 0.18332843, 0.028047523, 0.087950826, 0.13882266, -0.06632789, 0.03273754, -0.14953321, 0.023219703, 0.021484813, -0.058065027, -0.04888422, 0.051244177, 0.1240503, -0.10448415, -0.19188598, -0.1525358, 0.079325035, -0.12294346, 0.1373978, -0.0068460703, 0.056354962, -0.016945608, -0.046970658, 0.066947594, -0.15288116, 0.13921022, 0.059387635, 0.13533634, -0.116436906, -0.12267697, 0.109867975, 0.010058361, -0.039120328, -0.1410083, -0.030242912, -0.119420655, 0.12415387, 0.064107925, 0.09590933, 0.048074827, 0.11895009, -0.056050535, -0.038605038, -0.08062639, 0.098613486, -0.041440576, -0.034729827, -0.030898822, 0.0465627, 0.12586321, 0.1154239, -0.042372473, -0.05440621, -0.051632725}, 
{-0.09127444, -0.09938938, -0.050112236, -0.047544718, 0.11921856, -0.05957018, -0.005648947, -0.0017848909, 0.14996362, 0.019166257, 0.16993393, -0.09990932, -0.034546424, 0.08841299, 0.11360948, -0.13963144, -0.06843393, -0.06344935, -0.065310255, 0.12556328, -0.07779438, -0.019526089, -0.06516229, 0.03138741, -0.31515136, -0.055536866, -0.06723798, 0.11789633, -0.07962819, 0.077728435, 0.019303821, 0.0043890057, -0.026313363, -0.051276878, -0.03430839, 0.03236367, -0.035780337, -0.12019654, -0.14855263, -0.116448805, -0.023504402, -0.07267788, 0.1033813, -0.10221398, 0.12683599, 0.049664844, 0.11034306, 0.11838858, -0.007839302, 0.018141069, -0.11590251, 0.08339471, -0.086719416, 0.08817469, -0.097758226, -0.1040536, -0.04086445, -0.14048243, 0.13455094, 0.12354428, -0.113655835, -0.14494015, 0.0742023, -0.057248704}, 
{-0.017805958, 0.016102875, -0.10681791, -0.0072270483, -0.14765246, -0.016815042, -0.084080964, 0.08320141, 0.09417505, -0.030132318, 0.026662799, -0.027810574, 0.005931566, 0.06849134, 0.04019004, -0.11867855, -0.1337044, -0.009682029, 0.071013495, 0.045566022, 0.106493086, 0.058217596, 0.12603314, -0.12669806, -0.19326569, -0.03145936, 0.060221538, 0.0653085, -0.013392804, 0.09472577, -0.059673373, -0.011142751, 0.037006296, 0.045568243, -0.018172845, -0.13598679, -0.06779443, -0.012087656, 0.06661859, -0.09903157, 0.047669306, 0.012115217, 0.029062299, -0.085949756, 0.07471573, -0.09757478, -0.120832995, -0.0378979, -0.1327163, -0.001433082, -0.13362344, -0.08853015, -0.014415078, -0.15483749, -0.028397568, 0.05735483, 0.13902852, -0.014922479, -0.100715205, 0.12436338, -0.14145364, -0.066014536, 0.09033991, 0.1269079}, 
{0.008898319, -0.049020678, 0.06896995, 0.016983718, 0.106193826, -0.010555824, 0.13497558, 0.054375917, -0.117753856, 0.015442008, 0.17772199, -0.06288596, -0.13657795, 0.07808988, 0.07556048, -0.04295805, 0.11446264, 0.006459928, 0.0018176099, -0.090394765, 0.09972977, 0.08408966, 0.10687828, -0.037814323, -0.27861807, 0.031052586, 0.049310688, -0.116872534, -0.021406522, -0.0026070625, -0.022827115, -0.07853037, 0.12689559, 0.06717168, 0.026275538, -0.0068324544, 0.04134418, 0.005999734, -0.13546225, 0.07533388, 0.122909896, -0.064488605, 0.0870635, -0.054811604, 0.0026587993, 0.12874627, 0.12356268, -0.13400353, -0.0038082597, -0.11777142, -0.10451091, -0.057225067, 0.018721351, -0.043287985, 0.009165391, -0.08112067, -0.011201472, -0.13743632, 0.027446702, 0.11214268, -0.07321017, -0.14747472, 0.07808421, 0.09239302}, 
{-0.00088277576, 0.017585184, -0.09951426, -0.078937635, -0.10672487, -0.06743516, -0.058124103, -0.065418154, -0.006878705, -0.049252003, 0.10056273, 0.012286533, 0.018974163, 0.071317755, 0.1426001, -0.13429415, 0.075116776, -0.018579012, -0.07438813, -0.0777107, 0.0699459, 0.0700513, 0.10376562, 0.037265796, -0.22107616, -0.072505355, -0.064667925, 0.09222455, 0.038864058, 0.10747288, -0.07767674, 0.03917939, -0.09973806, 0.076743916, 0.107455775, -0.08543403, -0.12268653, 0.044907454, -0.09249841, 0.030842245, -0.029395508, -0.10443575, -0.04660786, 0.09254839, -0.025040433, 0.036409233, -0.108783595, -0.0028578788, 0.06843039, -0.10567514, 0.01065829, 0.03191063, -0.13427398, -0.17474693, -0.13532753, 0.05892694, -0.06688431, -0.018681576, 0.05870898, 0.12889026, 0.010456011, -0.12726901, -0.0988017, -0.118160345}, 
{-0.06337948, 0.12078644, -0.05331447, -0.0792598, 0.02527402, 0.08488401, 0.065391764, -0.12209514, 0.111197226, -0.025298629, 0.14392188, -0.12776734, 0.061730992, 0.015185066, 0.022400767, -0.10522712, 0.0036996733, -0.092795424, -0.093698904, 0.12407487, 0.014097864, 0.10091986, -0.046551306, -0.06955883, -0.09051774, 0.10233663, 0.1343094, 0.0746935, -0.07749612, 0.1114919, 0.10345856, -0.072845995, -0.13535623, 0.046839446, 0.057850532, 0.051662713, -0.12914309, 0.010399364, -0.062333174, 0.09349498, 0.026840422, 0.063462414, 0.16948567, 0.0072153285, 0.13357924, 0.08337465, -0.12815227, 0.10399844, -0.1260182, 0.051231552, 0.13252936, -0.128336, -0.0062660575, 0.04998475, 0.07258271, -0.054117426, 0.074643806, 0.0035252161, -0.04983896, 0.058130722, 0.086672425, 0.038003627, -0.14028561, -0.004162042}, 
{0.15880904, -0.14783233, -0.11849474, -0.06773582, 0.115551345, -0.092707336, -0.025509397, -0.13683073, 0.1155504, 0.09973682, 0.13670814, 0.003804236, 0.06397953, 0.022131015, -0.09793889, -0.033294983, 0.018358426, 0.07769817, -0.117613874, -0.07573792, 0.08836716, 0.14967868, -0.005135489, -0.108259514, -0.011236738, 0.026271122, -0.08715665, -0.07638602, 0.100029185, 0.07320516, -0.010344396, 0.10056344, -0.113168426, -0.1265672, -0.102787696, -0.039204948, -0.11494446, -0.021081883, -0.080949955, 0.0043673865, 0.13252501, 0.04230269, -0.042314414, 0.062400136, 0.057002485, -0.054418243, 0.06291201, 0.025142059, 0.060416, 0.044684503, 0.04883108, -0.081115425, 0.08240925, 0.08727264, -0.14043365, -0.134582, 0.06592218, 0.08611538, 0.05690138, 0.13173564, 0.057936102, 0.049326327, 0.11202341, 0.011131964}, 
{-0.089251444, 0.034083646, 0.059851766, 0.10701309, -0.020900238, -0.06576016, -0.049674038, -0.04039211, 0.006924305, 0.09308871, 0.08276039, 0.019495212, 0.054495588, -0.097544126, -0.09397958, -0.12134652, -0.047616098, 0.10836781, 0.1338718, -0.09761565, 0.13136975, -0.074935555, 0.0065119844, -0.023977539, 0.11831975, 0.11526916, -0.01985098, 0.08603558, 0.026076015, -0.03839808, 0.124678284, -0.085546255, -0.053968236, -0.10597643, 0.12002554, -0.10379451, -0.03670988, -0.028969785, -0.11228417, 0.07180832, 0.021130987, 0.1144844, 0.17650457, -0.03139564, -0.014913291, -0.09297701, -0.07104452, -0.13585623, 0.0916533, 0.12104527, 0.0460413, 0.10145922, -0.14352894, 0.05805062, -0.033144727, -0.07368737, 0.046996552, 0.068982184, -0.08801368, 0.12021587, -0.12543163, 0.0323203, -0.112846695, -0.08869287}, 
{-0.0913285, -0.08372554, -0.06584951, 0.0076298714, 0.08829867, 0.1377523, 0.103276275, -0.08323371, 0.17428, 0.08671487, 0.09524625, 0.087608136, -0.052270215, 0.095659874, 0.10546559, -0.022754401, -0.0052798423, -0.073852025, 0.13015948, 0.05971571, -0.12751062, 0.06969858, -0.07889896, -0.0031555917, 0.12025245, -0.03938558, 0.010617482, -0.03418319, -0.12677291, 0.08621089, -0.046239756, -0.028933797, 0.12889017, 0.14017363, 0.07423541, 0.016811645, 0.05330968, 0.1379172, 0.029610032, -0.09620639, 0.037177946, -0.05211399, 0.07001537, 0.058091138, 0.026288763, -0.14322467, 0.010763638, -0.07922606, 0.06622161, 0.033905834, 0.006375572, -0.14072447, 0.048456654, -0.054794263, -0.12690623, 0.013991805, 0.04992996, 0.121391565, 0.106706366, 0.1273488, 0.12675475, -0.066676036, 0.058125366, -0.14390318}, 
{0.066413686, -0.10552487, -0.081163034, 0.059137702, -0.13025293, -0.006320463, -0.1391423, -0.110305615, 0.09918984, 0.034861013, -0.07759643, -0.13687494, 0.1350216, 0.044516303, -0.0018266886, 0.045767218, -0.017590983, 0.115425296, 0.027500326, 0.041692153, -0.11259192, 0.05580617, -0.040502544, -0.0067617027, 0.25053614, -0.04359625, -0.024395322, -0.021640368, 0.07723229, -0.09953311, -0.053192686, -0.033225358, 0.0124256, -0.07186414, 0.19022566, 0.11400325, -0.118912056, -0.13413423, -0.012239291, -0.04924777, -0.08524189, 0.174027, -0.07340083, 0.0033944047, 0.060158, 0.123859875, 0.10539571, -0.026631229, -0.052339885, 0.1264464, -0.04822183, 0.025149183, -0.07429751, -0.009372117, -0.055841796, 0.08608259, 0.10962539, -0.037685744, -0.026909046, 0.11359822, -0.055051573, -0.039630692, -0.05269254, -0.00056866807}, 
{-0.09322052, -0.084219225, -0.034455337, 0.033647314, -0.08084497, 0.042030122, -0.018492825, 0.00022298098, -0.029348241, -0.13036618, -0.07450408, -0.09078499, -0.0013787518, -0.10736302, -0.04310471, -0.039434657, 0.06578508, -0.11071967, -0.114074856, 0.0015678713, -0.09103885, 0.2572143, 0.05488517, -0.18953465, 0.23836087, -0.18935357, -0.13008599, -0.06262177, 0.03702042, -0.045255423, -0.040700205, 0.012406396, 0.107595615, -0.12382675, 0.14311811, -0.047935054, 0.046174105, 0.03479616, 0.08434934, -0.1063779, -0.04424818, -0.05866502, -0.31971115, -0.116936155, 0.13378467, -0.004528038, -0.14342171, -0.03814569, 0.017058251, 0.026261887, -0.095183544, -0.021751164, -0.08510179, 0.08276121, 0.03573592, 0.050007127, 0.017989162, 0.028746027, -0.0140839815, -0.09449812, 0.12825762, 0.11988169, 0.04627797, 0.05658081}, 
{-0.2913358, -0.07979779, -0.009700653, 0.11022197, -0.15291937, -0.16184962, -0.09703022, -0.07529757, -0.0032973473, 0.111262165, -0.3814055, 0.1287353, -0.13789092, -0.09036923, -0.056800835, 0.054210052, 0.057431143, 0.034528915, -0.07266117, -0.14293216, 0.043754634, 0.48356304, 0.03821112, -0.25206202, 0.19449183, -0.33898044, 0.11969666, 0.1299993, 0.2998446, 0.019564986, 0.042933334, -0.09181636, 0.11234487, -0.12328692, 0.07430883, 0.12502463, -0.03173392, -0.1442138, 0.10335657, 0.023930011, 0.030831303, 0.082225405, -0.45655736, -0.021989416, 0.014194176, 0.066147715, -0.13808312, -0.068581596, 0.10986462, 0.07111429, 0.06076479, -0.1425239, -0.10636192, 0.20034766, -0.11661932, -0.1219773, -0.100563124, 0.0070616305, 0.12802292, -0.07583302, -0.10798008, 0.045536675, -0.13484837, -0.00027986884}, 
{-0.11716476, -0.12636712, -0.08684589, -0.028936803, 0.108575515, -0.15081465, 0.010951834, -0.03542114, -0.09045682, -0.14272419, -0.2658745, 0.06780616, -0.14384826, -0.024728874, 0.013570458, -0.10004553, -0.050394464, -0.055249184, 0.0026477382, 0.113001056, 0.07619463, 0.47545275, 0.09368904, -0.24922138, 0.001033283, -0.3307208, 0.054397635, 0.07585746, 0.09859839, -0.10153649, -0.060646255, -0.11366229, -0.1398148, -0.12792642, -0.01015221, 0.07536445, -0.113182984, 0.099979006, -0.023469321, 0.09123588, 0.026859615, 0.113666065, -0.5072679, 0.12707473, -0.10258794, -0.13526918, 0.09589088, 0.04420136, -0.036336992, 0.010818672, -0.014961708, 0.054726698, -0.2897344, 0.06903053, -0.07968547, 0.12977727, -0.055595256, -0.036120187, -0.14038834, 0.00020614357, -0.06796111, 0.06941761, -0.04126772, 0.103253245}, 
{0.0038492233, 0.075893685, -0.101233564, 0.004641831, -0.023746947, -0.0692469, -0.02031214, 0.14244045, -0.08225815, -0.026615394, 0.28487253, 0.061000194, -0.1291726, 0.089722775, -0.08009908, -0.09179039, -0.11356451, 0.109540254, 0.04197248, -0.14828089, -0.13886204, 0.13079673, -0.074929, -0.025804665, -0.1558525, -0.36750606, -0.06341366, -0.122851565, 0.02154734, -0.11439354, -0.10133048, 0.012739902, 0.021167299, -0.11553994, 0.06527461, 0.13914375, 0.037288126, -0.018705089, -0.013829098, -0.11527724, 0.04814386, -0.08174749, 0.035559595, -0.026500635, 0.02125898, -0.11990673, -0.0983321, -0.12176573, -0.05644959, 0.026258076, -0.050820265, -0.087852836, -0.18500817, -0.014693377, 0.06581798, 0.056038078, -0.04923193, 0.024077578, 0.03707455, -0.08270971, -0.028566517, -0.027518265, -0.13915606, -0.10853851}, 
{-0.13473204, -0.11335191, 0.0034214186, 0.0055277646, -0.109593846, -0.014214503, 0.03518753, 0.0678505, 0.1732988, 0.070579834, 0.13889807, -0.021050164, -0.036035884, -0.017848102, -0.05177074, -0.09332423, 0.060214728, -0.042082787, 0.05880481, 0.08028758, 0.09345474, -0.016291613, 0.043709546, -0.062040012, -0.30969876, -0.16464077, 0.075166464, -0.12002492, 0.18151143, -0.055475384, 0.08250273, 0.032327645, 0.0342202, -0.1263526, -0.10323494, -0.033615, 0.1404584, -0.044164374, -0.14799178, 0.12297448, 0.06873867, 0.035892304, 0.073976725, -0.013396834, -0.11051953, 0.009861558, 0.022829697, 0.014952838, 0.11223168, -0.120026164, -0.08568641, 0.028644323, -0.18945126, 0.006267861, -0.004262194, 0.014693885, -0.0884276, -0.13823545, -0.12368085, 0.0012921642, -0.10691204, -0.13310073, -0.07331793, -0.09042743}, 
{-0.05110101, 0.1055277, 0.112807855, 0.12871619, -0.07616461, -0.051869433, -0.06797089, 0.065799505, 0.17787038, -0.1346288, 0.0036907066, -0.04870457, -0.09599686, 0.02477577, 0.06472933, -0.07455678, 0.06570444, 0.0012813655, -0.064694166, 0.11759373, -0.019526381, 0.07098004, -0.07427531, -0.051976234, -0.27158505, -0.06549877, 0.013797082, -0.1264242, -0.034966312, 0.024033815, 0.10464281, 0.11160982, -0.12660386, 0.004886672, -0.10861805, 0.012862791, 0.011610016, -0.0565667, 9.1500784e-05, -0.134715, -0.13786082, 0.12544076, 0.08861306, -0.04210396, 0.015367612, 0.0956197, 0.07935564, -0.13241638, -0.05071636, 0.03223646, 0.07599839, 0.08223056, -0.22365983, -0.060993727, -0.020338997, -0.120877534, -0.006993595, 0.083943054, -0.10996246, 0.03403283, 0.041721508, -0.03171633, -0.020823637, 0.024718985}, 
{-0.011072282, 0.06369481, -0.030956011, -0.1101457, 0.13250828, -0.0956686, 0.027033525, 0.14011504, 0.11672266, -0.08329301, 0.055670395, 0.040892683, 0.06706372, -0.14049302, -0.04310392, -0.07621157, -0.12295318, 0.067184314, -0.023616705, 0.029055353, -0.09189918, 0.054337937, 0.0754924, -0.0831123, -0.16277446, -0.008243699, 0.014355071, 0.093541235, -0.032863356, -0.13176014, 0.09056402, -0.026402902, -0.13951162, 0.09510012, -0.07638138, -0.021221813, -0.110826604, -0.04405977, -0.007477163, -0.11118479, 0.013123536, 0.06624389, 0.07482635, -0.13307567, 0.03365861, 0.00784156, 0.0015838442, 0.0099455565, 0.018527333, 0.015915472, -0.124603935, -0.015723191, -0.10850076, -0.120743126, 0.018383726, 0.12804662, -0.101289265, 0.12482959, -0.1029571, 0.03240702, 0.04550177, -0.022521133, -0.091196224, -0.014763082}, 
{0.0047121556, -0.071689874, 0.051676534, -0.05231888, 0.05956306, -0.004905105, -0.1312563, -0.059068277, 0.0071608205, -0.100780465, -0.025771325, -0.04508434, 0.009154627, 0.04937246, 0.10617693, 0.04947388, 0.14414191, 0.06135043, -0.037062686, 0.13705334, 0.06838386, 0.02104297, -0.02389332, -0.07430346, -0.3052731, 0.04334925, 0.1193042, 0.012004331, -0.0773837, -0.12505594, -0.04685648, 0.11362651, -0.04555783, -0.03642071, -0.10262217, 0.007906612, -0.026257908, -0.094146915, -0.1274167, 0.057452243, -0.0726094, -0.061496142, 0.104189605, 0.11094143, -0.056115694, -0.071332745, 0.12087273, -0.06658795, -0.06143551, -0.11939949, -0.051748816, -0.059017915, -0.15564159, 0.0628067, 0.08798055, -0.054188635, -0.06845997, 0.118323706, -0.12859404, -0.04082826, -0.08551166, -0.069568366, 0.09118092, -0.050073218}, 
{-0.02226609, -0.13100271, -0.011657789, -0.1146269, -0.013484191, -0.16557218, 0.13030921, -0.053356104, 0.07651453, 0.006069115, -0.041850887, 0.034067478, 0.031524513, 0.1095664, 0.054796264, -0.11223334, 0.11717351, -0.09591593, 0.0016177731, -0.028409787, 0.06874429, -0.012145965, -0.049684957, -0.023916123, -0.3004865, 0.020594928, 0.0076872967, 0.09340373, 0.07613449, -0.041882627, -0.05474472, 0.039151303, -0.12630591, 0.03470649, -0.09006632, 0.1348527, -0.04260135, -0.0996057, -0.046143044, -0.023863183, 0.044443414, 0.10472406, 0.16154763, 0.010154363, 0.007757351, -0.04131488, 0.06239956, 0.06469728, -0.041385025, -0.13714626, 0.13392718, 0.09930129, 0.035679128, 0.09054711, 0.016642809, -0.11284513, -0.11374366, -0.038303327, -0.119648404, 0.05557823, 0.09076743, 0.099171594, 0.0138981035, 0.11553505}, 
{0.06497648, 0.08401532, 0.00593873, -0.02364453, 0.104678825, -0.06972392, -0.083754696, 0.11246355, 0.11247961, 0.02118971, -0.1935672, -0.13590045, 0.069867834, -0.111378044, -0.10716842, -0.067052335, 0.124940485, 0.10690781, 0.104858465, 0.06480385, 0.06361095, 0.06878681, -0.10988741, -0.08696027, -0.1610601, 0.087004036, -0.06706185, 0.04944785, -0.09766877, -0.12488888, -0.036326904, -0.13861343, 0.12459597, -0.07060758, -0.0005612612, -0.07548619, -0.0027733985, -0.038088158, 0.0069492827, 0.11220884, 0.09359741, 0.09612234, 0.023771293, 0.015601019, -0.09994182, 0.011037937, 0.0839361, -0.058856323, 0.069967896, 0.015491488, 0.07061044, -0.035707768, -0.028988378, 0.09518157, -0.021880873, 0.05866128, -0.069896735, 0.046919055, 0.10282752, -0.008240949, -0.034213588, 0.046058062, -0.050724067, 0.03361722}, 
{0.06832107, -0.028661361, -0.027532643, 0.12350799, 0.08286789, 0.085412115, -0.14757925, -0.10474435, -0.01835942, -0.14295544, -0.1049174, -0.055238567, 0.00051024364, 0.117883846, -0.13141368, 0.13805325, 0.05510715, 0.06492176, 0.102710076, -0.033942107, 0.057978336, -0.1173336, -0.06429546, -0.003310246, -0.1365823, 0.19244589, -0.014123869, -0.1257679, -0.0485718, 0.013624325, 0.079105556, -0.05623825, -0.007880171, 0.122248456, -0.072290115, -0.1347892, 0.07191995, 0.05661639, -0.051137704, 0.020800257, -0.002392658, 0.109960034, 0.099608704, 0.11184477, 0.02235116, -0.12094051, 0.11854559, 0.12641789, -0.004271484, 0.118856825, -0.13483697, -0.03848158, 0.12033762, 0.008716026, -0.118849665, -0.11329378, -0.04762208, -0.1363936, -0.09127317, -0.07437515, -0.04708404, 0.050832193, 0.115883455, 0.05344515}, 
{0.07007396, -0.07229694, -0.094788015, -0.05588776, 0.120475605, 0.08030299, 0.0424199, -0.09222589, 0.039485984, -0.14407058, 0.017965307, 0.12075397, 0.05695746, -0.01005499, -0.054199092, 0.04972659, -0.009582915, 0.016392184, 0.002489561, 0.08465826, -0.09169349, -0.040900577, 0.0036830418, 0.050205007, 0.04709103, -0.1460612, 0.11599416, -0.005248025, -2.1332555e-05, 0.032323644, -0.04716155, -0.07183261, 0.03787878, 0.111713275, 0.011244244, -0.059011556, -0.12960854, -0.022421986, 0.0668944, 0.068931565, -0.10364181, -0.0882368, -0.020945523, -0.0466651, -0.10397099, -0.000106120344, 0.05372251, -0.10295067, -0.094723426, -0.1250653, -0.0900126, 0.13880093, 0.12536556, -0.05149851, 0.040170595, 0.023799293, 0.11675852, 0.025366142, 0.007102102, 0.0377375, 0.06653498, -0.14427036, -0.050002426, 0.12829494}, 
{0.15530449, -0.009180649, 0.051662188, -0.03039544, 0.007731416, 0.0695164, 0.029871479, -0.097068414, -0.10674473, 0.009824293, 0.12131644, -0.09159683, -0.035633955, -0.13986012, 0.032076582, -0.051909044, -0.13783155, 0.04837783, 0.116324574, -0.14980918, -0.14352469, 0.08593673, -0.0046104086, 0.086051024, 0.015822118, -0.03649652, 0.12647511, 0.11915819, 0.17631061, 0.013656512, 0.1382596, -0.0891387, -0.11151076, 0.059589207, 0.008854982, -0.029275643, 0.1111016, -0.13215303, -0.097975254, 0.034920044, -0.14520209, 0.011417291, 0.07519568, 0.013397934, -0.08508871, 0.015286408, -0.07640035, 0.036436006, 0.10123436, -0.12740403, 0.029769659, -0.018094724, -0.02199155, -0.114326835, -0.027360618, 0.13441749, 0.018033367, -0.058700576, 0.026865855, -0.14910348, -0.05930937, -0.09599518, 0.09755851, -0.060666263}, 
{0.059643827, -0.05464775, -0.027765501, -0.013368189, -0.021150412, 0.058653045, -0.08047788, 0.12502389, 0.044701025, -0.033201527, -0.022265995, -0.009430049, 0.05181943, -0.042986516, 0.11565779, -0.07612875, 0.020032665, -0.060002595, 0.04727736, -0.0033212411, 0.013279996, -0.14717127, 0.02430134, -0.010002776, 0.22108762, 0.08833793, -0.06997602, -0.11136685, 0.073862895, -0.10464257, 0.084760144, 0.010189694, -0.1351539, 0.13344862, 0.22266205, 0.015838822, -0.031678673, -0.13267438, -0.07900024, 0.050243396, -0.10030417, 0.004981669, 0.03318809, -0.13346276, -0.09706398, 0.13860832, -0.15237065, 0.0749806, -0.0063624317, 0.12653185, 0.13291888, 0.023149269, -0.17831889, 0.08837091, 0.034231454, 0.034053795, 0.03514219, -0.09959303, 0.05766402, 0.03946027, 0.044832394, -0.106045686, 0.011703149, 0.081323475}, 
{-0.014024249, -0.015412402, -0.01686686, -0.013792351, -0.1286845, -0.032646865, -0.13598049, 0.0792453, 0.021311274, 0.097055234, 0.0028339892, -0.008189188, 0.019718833, 0.13459085, 0.08671506, 0.0935936, -0.073300906, 0.11603688, -0.10963859, -0.06224587, -0.011533473, 0.07343708, -0.14691713, 0.0042885775, 0.19945042, -0.054237198, -0.13918059, 0.014919609, 0.1314939, 0.12306942, 0.13146365, -0.061894055, 0.05494673, 0.06016837, 0.020237692, -0.12954228, -0.02982557, 0.059182446, -0.10063927, -0.039892357, 0.07431439, -0.035701025, -0.097481035, -0.03428559, -0.13557556, -0.032405287, -0.16462457, -0.09799382, -0.121488065, -0.024061158, -0.0023782593, -0.014717869, -0.1905182, 0.1471128, -0.021923468, 0.05489669, 0.070938095, 0.056384902, 0.10069549, 0.099227674, -0.122343615, -0.11003773, -0.020435154, 0.06201607}, 
{-0.16415781, 0.026468331, 0.026096303, 0.13600792, -0.097518794, -0.18197338, -0.14917278, 0.12753718, -0.025931006, -0.074556336, -0.17086434, 0.0373848, 0.121756755, 0.12882361, 0.019359246, 0.08594221, -0.0040353043, -0.1457567, -0.0016668519, -0.114370294, -0.114888944, 0.25725186, 0.0107568875, -0.22079076, 0.29008657, -0.25048444, 0.085633986, 0.060802296, 0.07547477, 0.008568987, -0.09283831, 0.12791497, -0.030387502, 0.03495112, -0.06752681, -0.10827072, 0.13001473, -0.111924216, -0.041533623, -0.08065249, -0.0032056526, -0.037071954, -0.37546596, -0.062046487, 0.01019825, -0.038853668, -0.06013118, 0.016451806, -0.059364043, 0.056595728, -0.106731124, 4.7059824e-05, -0.23388554, 0.11830917, 0.050738707, -0.053084254, -0.11558163, 0.042059783, -0.07240617, -0.07021483, -0.05203773, -0.14767884, -0.09352955, 0.09642139}, 
{-0.21148266, -0.07335633, -0.116489485, -0.024666741, 0.09573207, -0.26171675, -0.01097938, 0.04225014, -0.13882942, -0.1381703, -0.5235192, 0.11914402, 0.012829678, 0.04353233, 0.098202005, -0.0897436, 0.031314768, -0.08117568, 0.028317465, -0.075954385, 0.10814266, 0.43669942, 0.032722734, -0.29612538, 0.176127, -0.24524276, -0.077919535, 0.001458332, 0.4250329, -0.1418465, 0.047161296, -0.03867169, 0.07632547, -0.050493352, -0.040253922, 0.139461, -0.0066950344, -0.086091146, -0.05120848, -0.13361263, 0.096580654, 0.048375532, -0.56241226, 0.0667789, 0.1075754, -0.037961733, -0.09588716, -0.034158558, -0.0027338923, -0.082657106, 0.09437338, 0.0028949403, -0.44346306, 0.1967187, 0.13814707, -0.02713275, -0.04900767, 0.03539913, -0.017821833, 0.02007158, 0.0018948168, -0.07885068, -0.10351771, 0.049134478}, 
{0.0051145535, 0.06164001, 0.11412108, 0.03914231, 0.0049554985, -0.13896273, 0.00585964, -0.0210891, -0.087142564, -0.009355415, -0.026693506, -0.011223884, -0.007253369, -0.028414449, -0.010897413, 0.07494034, 0.065132104, 0.0077985586, -0.008380501, 0.13691299, -0.12597203, 0.32256016, -0.1337408, -0.36767673, -0.075364515, -0.2820175, -0.036556505, -0.031149566, 0.25602233, -0.102860324, -0.042972513, -0.05334505, -0.14041491, -0.13031328, -0.08318963, 0.112882264, 0.08506126, 0.09920149, -0.007877631, -0.02873206, 0.10297945, 0.025019737, -0.7920139, -0.022157185, -0.0020861328, 0.02360039, -0.15613545, 0.041312158, -0.116791114, -0.003946916, -0.05911176, 0.11120958, -0.48170865, 0.1053052, -0.04890208, -0.051308706, -0.11055882, 0.066700056, 0.07275458, -0.14501722, 0.10991274, 0.11865632, 0.06152886, -0.1428468}, 
{0.090133466, -0.08877185, 0.11536848, -0.10961673, 0.08555755, 0.41516083, -0.099841215, -0.13247392, 0.30858302, 0.09528143, 0.21734701, 0.0992578, 0.10065182, -0.079557575, -0.004057929, 0.0479763, -0.07217799, 0.08547388, 0.023469955, -0.082791, -0.08007112, 0.006200024, -0.100224875, -0.20066564, -0.2862976, -0.35264218, -0.07812447, -0.067405865, -0.0010948944, -0.04908216, -0.052714817, 0.14015655, 0.08149023, 0.12120552, -0.057423938, -0.0015630926, -0.04347619, 0.1078108, -0.12474956, 0.06508203, -0.04302759, 0.103541, 0.35154405, 0.10842532, 0.032696724, 0.031197982, -0.01843713, 0.10438636, -0.008152884, -0.06530343, -0.00874501, 0.085900486, -0.38724628, 0.034148682, -0.00078998506, -0.13574825, 0.06484226, 0.14021426, -0.017800778, 0.051905878, 0.03033711, -0.12586659, 0.07158265, -0.03301378}, 
{-0.06075111, 0.063327976, 0.07917077, -0.095431894, 0.10839362, 0.09878907, -0.024348615, 0.12846152, 0.23114532, -0.10992776, 0.14387791, -0.08150791, -0.0028664884, 0.0765221, -0.01516895, 0.05147651, 0.008906556, -0.041348018, -0.025566855, 0.06019004, 0.046047438, -0.1896334, -0.10238228, -0.1401531, -0.10110867, -0.025406681, -0.13796176, -0.14101367, 0.29406536, -0.07900366, -0.08864159, 0.10956009, 0.114738956, 0.05304922, -0.16348486, 0.006706024, 0.10636494, 0.11085165, -0.08135966, -0.07046783, -0.14185476, 0.17406239, 0.25335974, 0.044446114, -0.015390739, 0.01713544, -0.13963337, -0.0013484657, 0.07587011, 0.08801861, -0.10562951, -0.12525286, -0.37670597, 0.104052484, 0.11668302, 0.115283296, 0.07744247, -0.11568559, 0.099095106, -0.09848002, 0.0909072, -0.015801374, -0.028127046, 0.053909924}, 
{-0.04309604, 0.12846942, -0.13472964, 0.030248031, 0.08831328, -0.25550458, -0.119153254, -0.10197023, 0.13235433, -0.0436245, -0.10755611, 0.12015068, 0.089495674, -0.13395771, 0.14300926, -0.014201388, -0.15894693, 0.047960117, 0.08634175, -0.14717351, -0.076180875, -0.13121155, -0.07480749, -0.11826851, -0.14252917, 0.10367993, -0.1292209, -0.015563875, 0.039617505, 0.08857714, -0.025528485, -0.114307925, 0.13019213, -0.12589866, -0.13833399, 0.009334484, -0.011544668, -0.026920725, 0.078593746, 0.100244865, -0.0049001737, 0.15949468, 0.1400842, 0.035327647, -0.09585915, 0.059455603, 0.057341475, -0.018838838, 0.01755219, 0.027193861, -0.08696839, -0.02201738, -0.1444272, 0.11774691, 0.042097807, 0.07338519, 0.039126627, -0.005478246, -0.113974124, -0.10914023, -0.1040058, 0.026641043, -0.020180078, -0.04505962}, 
{-0.014353441, -0.12852204, 0.012249189, 0.12766169, 0.03352034, -0.21758538, -0.112803094, -0.07532739, 0.051389728, -0.114393756, -0.1679358, 0.10204256, -0.0496757, 0.11085969, 0.048390806, -0.07828228, -0.035610378, 0.04467661, -0.02053503, -0.10246757, -0.06303516, -0.04909748, -0.01780521, -0.11801794, -0.19669, 0.053325847, 0.11511408, 0.00966543, -0.031493917, -0.05673065, 0.044188283, -0.1070502, 0.020854536, 0.094331145, -0.23967887, 0.07863176, -0.02614254, 0.013672814, 0.028029457, -0.12167842, 0.11112827, 0.035516627, 0.13120396, -0.048916336, -0.06260343, -0.09024752, 0.056289345, -0.0672791, 0.030037519, 0.07929895, 0.124203995, -0.13457407, -0.13252616, 0.055446286, -0.06375601, -0.12225769, 0.05729376, 0.03129382, 0.055929974, 0.09437016, -0.13987249, 0.11172461, -0.11029028, -0.13434507}, 
{-0.07813088, -0.03453632, 0.006497779, 0.00035363436, 0.060011167, -0.2533392, 0.077815115, -0.046162106, 0.008666784, 0.08653101, -0.2239816, 0.017054908, 0.035110433, -0.009509189, 0.022637323, 0.07545693, -0.09414128, -0.08807944, -0.01907252, -0.06613594, -0.12345235, 0.07498871, -0.16822337, -0.14369027, -0.106880076, 0.0005475016, 0.0826036, 0.12569363, 0.03449639, -0.034325548, -0.08349294, 0.034125738, 0.024261082, -0.04364147, -0.16615416, -0.027773056, 0.04328149, 0.06647926, -0.08411893, 0.030601919, -0.09616112, 0.07775483, -0.00450741, -0.022167586, -0.11740573, -0.08638164, 0.057623334, 0.03586343, -0.050828934, -0.04013487, 0.0063595446, -0.13869998, -0.13852452, 0.15487286, -0.04050204, -0.07972926, 0.07251343, -0.100380704, 0.06449522, -0.051715143, -0.09397058, -0.07601888, -0.004338113, 0.08838498}, 
{0.03730535, -0.006013653, 0.111616604, -0.058622412, -0.11807148, 0.091342255, -0.03907996, 0.072009355, 0.03331865, -0.12583785, -0.0972304, -0.0063673113, 0.054544937, -0.029588051, 0.08068016, 0.0129406005, -0.05646348, -0.049128484, -0.013225528, -0.14872843, 0.1272898, 0.03519129, 0.016647642, -0.10386885, -0.16871582, 0.10864605, -0.071761236, -0.09930075, -0.112015426, -0.06966929, -0.0072062165, -0.047580194, 0.039415833, 0.0626798, -0.24902084, 0.11319227, -0.12010285, 0.09629931, -0.1198324, -0.027160289, -0.08383743, 0.0578021, 0.10071975, 0.11190294, -0.14327154, -0.06472717, 0.11285529, -0.00498496, 0.09482875, 0.043840315, -0.10133688, -0.11577564, 0.057856288, -0.073355734, -0.03360279, -0.023895688, 0.12911092, -0.053193465, -0.11668719, -0.040439837, -0.031124212, -0.14666766, -0.14082563, -0.100211665}, 
{0.07090126, -0.11626387, -0.055166017, -0.029607654, 0.08702206, -0.10318103, -0.13931186, -0.05731359, -0.053741306, -0.00248652, -0.10662498, -0.0020621459, 0.13573422, -0.07432082, -0.09784181, -0.03013295, 0.082249224, 0.05185873, 0.06552407, -0.093910605, -0.14349519, 0.093624845, -0.083588496, -0.053896505, 0.045109544, -0.026443988, -0.111611545, 0.08340661, 0.0983644, -0.092307374, -0.06810015, -0.05631363, 0.113719314, -0.14206347, -0.2754967, -0.053390957, 0.08623645, 0.030227207, -0.12387068, -0.026792137, -0.12215747, 0.011183633, -0.1136788, 0.040509835, -0.091817185, 0.12824884, -0.15543982, 0.11785407, -0.043183584, 0.061824575, 0.11519908, 0.12791541, 0.056385946, 0.06830994, 0.10197325, 0.056375824, -0.013218599, -0.09607355, -0.1100647, -0.12041274, -0.00794822, 0.12641542, -0.06294922, -0.0033768688}, 
{-0.0033035309, 0.038664047, 0.11009539, 0.116828665, -0.050855596, 0.08816017, 0.13239108, 0.035922796, 0.05280598, 0.10390336, 0.059180144, -0.008483272, -0.109584585, -0.07643275, -0.03962394, -0.14307901, -0.12730224, 0.038039718, 0.09382119, 0.046038, -0.10365244, -0.09077186, 0.07061627, 0.11720179, -0.041342996, -0.015686117, -0.10136593, 0.083467335, -0.03811087, 0.09332986, -0.10267795, 0.030935958, 0.0367576, -0.021562077, -0.02403074, 0.013439935, 0.13253365, 0.13663797, -0.09479949, -0.06609386, -0.04657612, -0.055367425, 0.1388144, 0.095172055, 0.046380356, -0.04558324, -0.06415931, 0.028745294, -0.04202229, -0.06807507, 0.035969157, 0.013952636, 0.069240116, 0.044990923, 0.09572287, -0.12648664, 0.124133535, -0.0695434, 0.11125298, -0.11866548, -0.06008637, -0.1537649, 0.02768169, -0.089848325}, 
{0.1387283, -0.07972924, 0.040768623, 0.04800889, 0.11070468, 0.16820222, -0.13708569, 0.0017693192, -0.079356275, 0.097079866, -0.008995047, 0.049911857, 0.107852854, -0.07149872, 0.13653384, -0.040671267, 0.0362829, -0.11424876, -0.0046860757, -0.13999765, 0.047380805, 0.036990605, 0.06966604, -0.0027642334, -0.04682134, 0.119246624, -0.0720555, -0.050575078, 0.023451671, 0.024416372, 0.009352777, -0.05118532, 0.043094363, -0.10899711, -0.013391739, -0.0678938, 0.062052943, -0.11370483, 0.1336854, -0.12955508, 0.017645257, -0.14907089, -0.002720001, -0.14557123, 0.08813821, -0.046381634, -0.037704386, -0.13171609, -0.06046544, 0.115600534, 0.10324483, -0.020175425, -0.085952036, -0.0143784685, -0.022318907, 0.028415332, -0.027804317, -0.11489954, -0.047481984, 0.037727356, 0.082898825, -0.048390143, 0.05375339, 0.07335358}, 
{-0.024785591, 0.028398627, -0.13611814, -0.027996525, 0.018383319, 0.12634364, 0.09390447, -0.048097767, 0.14439668, 0.08939891, 0.027703634, 0.0039343173, 0.10905213, 0.043409523, 0.054899827, -0.05566161, 0.035245154, 0.06830962, -0.052516107, -0.11035296, -0.0021007333, -0.09864204, -0.06082828, 0.046866212, 0.16072173, -0.118076615, -0.03980664, 0.034560874, 0.13545474, -0.05163508, 0.13662875, -0.077463076, -0.09984994, 0.13335367, 0.17360416, 0.029776828, 0.0037652263, -0.11819979, 0.07920252, 0.008059851, -0.027087182, 0.12863345, 0.10456221, -0.0765054, 0.12595092, -0.12170098, 0.11761802, -0.11095153, -0.09160683, 0.0068429345, 0.10943987, 0.1191058, 0.02773656, 0.10870816, -0.10713262, 0.0014455761, -0.0042204685, -0.082028046, 0.10008709, -0.05892655, -0.10741418, -0.07495104, -0.001954201, -0.011383601}, 
{-0.009809761, -0.12220739, -0.11008439, 0.060568616, 0.044326663, 0.16892342, -0.09612355, -0.12398357, -0.061716214, -0.046032015, -0.088694155, -0.13011715, 0.038069263, -0.029317385, -0.099865586, -0.12050906, 0.05406934, -0.1199105, -0.036443908, -0.11087804, -0.005407224, -0.16341296, 0.11998027, -0.0019378932, 0.2536371, 0.14304097, 0.10812851, -0.09489781, 0.07468945, -0.1376012, 0.078297734, -0.0875249, 0.001816928, 0.10887022, 0.19225176, 0.099938266, 0.0059649935, 0.07144327, 0.12586285, -0.13805975, 0.09707333, -0.07157304, -0.050023235, -0.056985658, -0.11737306, -0.1337848, -0.06298489, -0.10009098, -0.13092324, -0.04470756, 0.12863885, 0.07951488, 0.12539634, 0.086361974, 0.03298615, -0.13098752, 0.07328374, -0.11561761, 0.106940344, 0.025728779, -0.08976552, 0.12294922, -0.09801088, -0.07957658}, 
{0.109419785, -0.10957486, 0.1189441, -0.08821787, 0.08691108, 0.07773698, 0.033755485, 0.13051085, -0.028271701, 0.11444092, -0.048147563, 0.049558956, 0.12318033, -0.04360707, -0.10164364, -0.10757877, 0.033049162, -0.1422546, -0.0034682057, 0.012102444, -0.07219274, 0.1271612, 0.13732252, -0.14597367, 0.4066197, -0.0005827763, -0.11432733, 0.11552729, 0.18389867, -0.049422666, -0.011193152, 0.049829837, -0.05534451, 0.12191506, -0.13181402, 0.060907453, 0.09871804, -0.008555381, 0.0017207849, -0.075486556, 0.0029426778, 0.10461495, -0.16571128, 0.10614327, 0.0792934, -0.0071413796, -0.021007372, -0.11635658, -0.12810066, -0.01707222, -0.13757172, 0.032049533, 0.009940804, -0.0047230055, 0.020930395, -0.13936636, 0.10393932, -0.056844544, -0.04087639, -0.044766, -0.13164426, 0.10341243, -0.12939323, -0.05151446}, 
{-0.033271052, -0.14962807, -0.0694992, -0.08302227, 0.12431776, -0.0930425, -0.0003955282, 0.09618309, -0.0073200325, -0.06653653, -0.0017418179, 0.0024336192, -0.120133035, -0.025901904, 0.14001696, 0.049629673, 0.0074805683, -0.084717415, -0.046652663, -0.10531425, 0.0015831493, 0.09747485, 0.086155385, -0.08716587, 0.26361144, -0.16087595, -0.1013109, 0.042246014, 0.41773367, 0.005113676, 0.03474584, -0.042320393, -0.14797738, 0.107987806, 0.018151056, 0.026839998, -0.15610278, -0.018391702, -0.14282596, -0.02533567, 0.026041072, -0.10245397, -0.34799176, 0.12785707, -0.12506397, -0.048750985, -0.118059196, 0.09801337, -0.0033437314, 0.082355, 0.08374136, 0.04920173, -0.16214444, 0.10087843, 0.038374797, 0.13087149, 0.06457823, -0.06958463, 0.12192641, -0.061779182, 0.054129735, -0.09947515, -0.029926885, 0.10878683}, 
{-0.0594085, -0.039757095, -0.054377593, 0.030226499, -0.116146155, -0.27045628, -0.056244884, -0.082053095, -0.20269008, 0.08775819, -0.21176098, -0.100679696, 0.11863086, -0.07843898, 0.059244037, -0.06698748, -0.018608173, -0.11892123, -0.01447609, -0.032197274, 0.08831354, 0.117747106, 0.14676976, -0.2776571, 0.38976595, -0.19058584, 0.07431461, 0.063770294, 0.2778554, 0.1276579, -0.08666732, 0.077020414, -0.14080508, -0.00015379488, -0.13821034, 0.023592373, -0.15948713, 0.021346346, -0.108575165, 0.044683777, 0.035199434, -0.105429105, -0.6540634, -0.11373959, 0.1433024, -0.13793388, 0.039455455, -0.14346859, 0.12501377, -0.0032202539, 0.06629213, 0.063228905, -0.20664781, -0.103748895, -0.033303574, 0.04544827, -0.13139948, 0.12027139, 0.11020355, -0.011829945, -0.008017376, -0.12976357, -0.08877053, 0.061112296}, 
{0.14252025, 0.028015044, -0.15165257, 0.04357314, 0.02949326, 0.3041254, 0.0027324439, 0.0753919, 0.1780577, -0.057157278, 0.13915423, -0.09861186, 0.10415047, -0.0929091, 0.014652044, -0.11976339, -0.025267854, 0.052038766, 0.020806959, 0.099018045, -0.061848924, 0.06202161, -0.086881794, -0.0949687, 0.16477439, -0.06820916, 0.12791304, 0.017467275, -0.009352449, -0.06487908, -0.105897784, -0.05269727, 0.031505045, 0.10503511, 0.07052051, -0.11890236, 0.020339362, 0.097040564, -0.08091008, 0.039011113, 0.036826458, -0.15561754, -0.60016817, 0.076745406, 0.11132561, -0.06780725, 0.072937995, 0.063861296, 0.086130425, 0.04871992, 0.1286538, 0.12914291, -0.17924121, -0.14862348, -0.1180595, 0.056074973, -0.12486816, 0.034333143, -0.010357276, 0.025328401, 0.13802715, 0.12919223, 0.009380346, -0.09812913}, 
{-0.08593588, 0.10187804, -0.054342452, -0.09433356, -0.08790961, 0.5288176, -0.13988218, 0.022390082, 0.61590046, 0.023885142, 0.34699962, -0.039399765, 0.0028266397, 0.001815552, -0.028091475, -0.057333544, 0.028752498, 0.10533179, -0.05965805, -0.039313164, -0.09686218, -0.09490818, -0.047774702, -0.15533562, -0.13509315, -0.27935183, -0.13050385, -0.09682818, 0.23024768, 0.053535625, 0.113775, -0.13814542, -0.13305505, 0.038926095, -0.059171982, -0.008272499, 0.098502144, 0.042285107, 0.04588254, -0.1445579, -0.019884007, -0.07997425, 0.71112704, -0.046216372, 0.07861021, 0.052361157, -0.0987494, -0.1107912, -0.069514185, -0.14404997, 0.078902476, -0.06596366, -0.32239833, 0.00060011237, -0.039120324, 0.010339657, 0.07533038, -0.011044831, 0.10971798, 0.016985005, 0.1335089, -0.039606813, 0.002216795, -0.011713575}, 
{-0.15765554, 0.066743016, 0.070091814, 0.10864435, 0.04214461, 0.20797406, 0.06556356, -0.06801628, 0.41223985, -0.025808657, 0.16810115, 0.030098373, -0.11215978, -0.07289285, -0.04361949, -0.022478856, -0.045876924, -0.12479578, -0.019571029, -0.07228505, 0.12557682, 0.04669301, -0.052855317, -0.20555714, -0.06335738, 0.019722851, -0.07475018, 0.09724866, 0.42425972, -0.12470584, -0.11311853, -0.073083825, -0.013300659, -0.07627458, -0.31628245, -0.073272765, -0.008222121, -0.089086965, -0.018010497, 0.04657505, 0.13628444, 0.09657411, 0.27272263, -0.024864024, 0.06610735, 0.044602726, -0.062480174, -0.13090786, 0.13159318, -0.027397912, 0.03319999, -0.117673256, -0.31130826, -0.021513129, 0.035000697, 0.072112046, 0.066983074, 0.10520989, 0.07845539, 0.06729553, -0.110354125, -0.07962803, -0.093678996, -0.0064726016}, 
{-0.04868194, 0.13160485, 0.08875709, -0.029415034, -0.06541839, -0.3980555, 0.017086351, 0.102668524, 0.14704663, -0.08439647, -0.2426607, 0.09748352, 0.013473301, -0.0510694, 0.084796846, 0.072159305, -0.026965234, -0.06533392, 0.08076325, 0.039776396, 0.06126095, 0.1697004, -0.09707137, -0.09780255, -0.12113357, 0.29661202, -0.04581347, 0.1112092, 0.023896113, -0.043997787, 0.116058744, -0.012900218, -0.041439906, 0.010877892, -0.15908286, -0.104566135, -0.12152408, 0.0029190425, -0.07671183, 0.010916372, 0.058060803, 0.15333106, 0.18327138, -0.05260797, -0.06529242, -0.11339158, -0.027815986, 0.09081249, 0.020394135, 0.07612838, 0.013494831, 0.086989395, -0.1483871, 0.012983756, 0.13816859, -0.13685137, -0.020051384, -0.12241344, -0.14282484, -0.07890892, 0.13728116, 0.09757874, 0.10072777, -0.15480305}, 
{-0.04674911, -0.14134224, -0.018684046, -0.0067800432, 0.0738086, -0.26474613, 0.12528686, 0.09121415, 0.10371602, 0.12323411, -0.20312154, 0.019801004, 0.13556722, -0.13810435, -0.104375504, -0.068785965, 0.09275473, -0.078842476, 0.034341373, 0.13589327, 0.079257704, 0.14458537, 0.009477163, -0.2150138, -0.07948198, 0.16889326, -0.09578607, 0.066555485, -0.036360685, -0.13921487, 0.12673895, 0.0615508, 0.10750275, 0.049431354, -0.18898368, 0.079827584, -0.067389295, 0.021498496, 0.041367747, 0.0241272, -0.09432329, 0.014032779, 0.13672173, 0.041131593, -0.11000097, 0.018216847, 0.011099499, 0.03735763, 0.065291464, -0.106670894, 0.09898738, 0.025504155, -0.034768775, 0.15403761, -0.07845178, 0.11770778, -0.053988192, -0.04211026, 0.034688488, 0.044845156, 0.00240995, 0.03994343, 0.027110407, 0.019427726}, 
{0.03156911, -0.12324598, -0.037523646, -0.06686394, -0.14902867, -0.11956053, -0.0070362943, 0.12530614, -0.05469432, -0.13154687, -0.16180082, 0.1250281, -0.10039167, -0.10415679, -0.0028786212, -0.02470515, 0.05721838, 0.011683477, 0.1047182, 0.06720819, 0.045822494, 0.12615632, -0.041621946, -0.07680886, 0.0059340503, 0.11322515, 0.0265005, 0.08969581, -0.0893674, 0.11392085, 0.0050415345, 0.038742304, -0.14039387, 0.110035345, -0.32964373, -0.10534116, 0.048195317, 0.028439077, -0.049568802, 0.004108976, -0.07943682, 0.09122752, 0.17717484, -0.060317423, -0.08923809, -0.03424012, -0.08572715, 0.10579851, 0.10597071, -0.11300304, 0.08981279, 0.076205544, -0.098553196, -0.08616725, 0.0100610405, -0.07206088, 0.059453405, 0.13971572, 0.043524906, 0.008777114, -0.047576047, 0.024454297, 0.112821, 0.06080694}, 
{-0.015406914, -0.10748519, 0.10326281, 0.02634187, -0.07052016, -0.29664004, -0.14427052, 0.13220827, 0.0016652255, -0.122614734, -0.15293701, -0.08121731, -0.10139586, 0.12369452, 0.011067048, 0.024757534, 0.11521766, -0.03988493, 0.09734294, -0.05648297, -0.14309345, 0.08783928, -0.09386264, -0.09298929, 0.14602941, 0.09166123, 0.07311143, 0.022566557, -0.00064499653, -0.110100284, -0.109650105, -0.11317148, -0.09670312, -0.04486654, -0.27109307, -0.13247421, -0.13929294, -0.08621728, -0.150815, -0.09325974, 0.06138313, 0.08839417, 0.117186695, -0.023703149, 0.07602446, 0.103149354, -0.035135195, -0.061437927, 0.12123308, -0.14613865, -0.061828915, -0.05667786, -0.06209099, -0.11183028, 0.032470033, -0.08311827, 0.0560126, -0.06318733, -0.04149457, 0.056449514, 0.00315544, 0.105742544, -0.06489189, -0.017439904}, 
{0.19301079, -0.116240956, 0.0069060014, 0.04460813, -0.031860854, -0.14607644, -0.14240476, 0.11084823, 0.08740955, 0.0981128, -0.025603324, 0.1268287, -0.10668474, 0.023633031, 0.04187046, 0.09645796, -0.045429986, 0.0042408975, 0.06523006, -0.07616582, -0.13628335, -0.053475242, -0.00481041, -0.07924164, 0.07366457, 0.030378776, 0.023891386, 0.010262385, -0.034802552, 0.056860775, -0.038451556, 0.049585454, -0.025665563, 0.09359452, -0.035074096, -0.12606594, 0.048959754, 0.046872202, -0.057785206, 0.094266325, 0.09679434, 0.032747835, 0.09306181, 0.05317695, -0.14192939, -0.021593727, 0.059040308, 0.11734547, -0.11419289, 0.08957051, -0.010045859, 0.03763382, -0.1660503, 0.09347557, 0.13066922, 0.061721217, 0.09758581, -0.097368486, -0.10947259, 0.03436378, 0.099377945, -0.05137576, 0.124892645, -0.13960204}, 
{-0.0013451503, 0.12887117, 0.12237984, 0.11747675, 0.043425407, -0.08963862, 0.10585912, -0.04562836, 0.0019188485, 0.08888985, -0.032783695, -0.02005964, -0.007952819, -0.034547273, 0.050657317, -0.09116843, -0.13495274, 0.051743254, -0.0030969945, 0.055470377, 0.10365151, -0.13513356, -0.08775785, 0.10540364, 0.19135897, 0.11868411, -0.03592657, 0.052788764, -0.05581985, 0.09997338, 0.059294272, -0.040146593, 0.12815043, 0.013924569, 0.009245381, -0.019021401, 0.13293085, 0.031395998, -0.04504831, 0.05162684, -0.0065914025, -0.043782808, -0.005317916, -0.13650669, 0.046830475, -0.11956063, 0.13049498, -0.08249758, -0.015860548, 0.018085824, 0.04013485, 0.10926092, -0.0004817336, -0.112679645, 0.09481099, 0.061797976, 0.011298191, 0.12487268, 0.08350967, -0.09638981, -0.11767165, -0.08774541, 0.04147201, -0.031742625}, 
{0.15014939, -0.10564067, -0.016328726, 0.09728061, -0.004725204, 0.09817723, 0.09687417, 0.05852674, 0.13672578, 0.02585908, 0.06803843, -0.13924989, -0.03193604, -0.0017865867, -0.07848479, -0.13986486, 0.079192355, -0.08062491, 0.13580126, -0.061185315, 0.03046056, -0.0552309, -0.08824864, -0.117860675, 0.20076999, -0.00093316607, -0.11165897, 0.07656142, -0.07982645, 0.08043073, 0.06889686, -0.12457318, 0.016982991, -0.031223282, 0.037555337, 0.062403295, -0.16070826, -0.05141425, 0.09522968, -0.01409896, -0.023194173, -0.056036357, 0.1612144, -0.1435919, -0.06879466, 0.10768164, -0.063249215, 0.015347004, 0.11639999, 0.12279616, -0.051551033, 0.105194874, -0.05575827, 0.07293801, -0.11672482, 0.10076, 0.07689464, 0.098185055, -0.09191262, 0.0060401624, -0.011226028, -0.039629545, -0.02308618, -0.12266999}, 
{0.12185455, -0.07275246, -0.15234497, -0.016974524, 0.008311503, 0.08961932, 0.124710366, -0.08731373, 0.11370732, -0.087415405, 0.22901109, -0.14453214, 0.09434697, -0.13542335, 0.13829605, 0.06875436, -0.016189799, -0.0359103, 0.07346382, -0.078844, -0.083565526, 0.061386976, -0.0925596, -0.06352747, 0.04265213, 0.17979941, 0.039349932, 0.09515017, -0.10545507, 0.061983243, 0.052320953, -0.13432774, 0.099941306, 0.14219715, 0.099946216, 0.09813812, -0.040565092, 0.006839486, 0.09823125, -0.13179624, 0.12038317, -0.15716606, -0.15415165, -0.064311534, -0.12038779, 0.030098287, -0.07103447, 0.010620728, -0.12124026, -0.06635701, 0.100954495, 0.07024333, -0.053352077, -0.1619569, 0.11005588, 0.03826004, 0.023986932, 0.13386445, -0.026649266, -0.070826694, 0.06911205, -0.0126721375, -0.0036811023, 0.122510314}, 
{0.11397964, 0.0036743649, 0.0026953898, -0.047058173, 0.000639399, -0.04631693, -0.008391221, -0.11161378, -0.018418917, 0.07287155, 0.19092157, 0.07002642, -0.08169774, -0.03339844, 0.04444562, -0.07815273, 0.041107163, 0.086972825, -0.117411815, 0.10715616, -0.012745507, -0.079817116, 0.029786257, 0.016691947, 0.26410976, 0.025302399, 0.11515025, 0.11742894, -0.05773503, -0.13161777, 0.03697922, -0.06563335, 0.014689106, 0.130378, 0.015914334, 0.061979014, -0.081573226, 0.012003924, 0.022047387, -0.081881724, -0.08510892, -0.055517238, -0.038227644, -0.058599684, 0.039690346, 0.051747512, -0.030402087, 0.07779302, -0.10603476, -0.07718012, -0.03732415, -0.031732924, 0.01598217, 0.031025408, -0.11659283, -0.088787824, 0.11729063, -0.021917187, -0.06008146, 0.13581121, -0.14379463, 0.047610953, 0.13214102, 0.10828271}, 
{0.111824565, 0.013930423, 0.09317478, -0.03106124, 0.003830723, 0.010630947, 0.014749312, -0.019472547, 0.12779786, -0.11525973, 0.082012184, -0.10775823, -0.1328846, 0.0059051523, 0.079394326, -0.066949375, -0.06721209, -0.09394586, 0.07375608, -0.10054242, -0.10717358, -0.05430787, -0.047870334, -0.116957344, 0.19620955, 0.1425127, 0.05012544, -0.121856555, 0.16328141, -0.10576255, 0.012135161, -0.027167358, -0.04237291, 0.0104730725, -0.10782452, 0.043699708, 0.038721293, -0.07766059, -0.015633477, 0.119891465, 0.09454633, 0.03242, -0.04333348, 0.002682469, -0.06955469, 0.09049588, 0.031777658, -0.13476507, 0.048252314, 0.09365583, -0.024761474, -0.117046095, 0.26960626, -0.21693364, 0.044236302, -0.11608673, -0.12659775, 0.12335045, -0.09911239, -0.04742419, -0.00556089, 0.04588334, -0.07975719, -0.13354312}, 
{0.07175448, 0.011640394, 0.06502751, 0.031152591, -0.052979566, -0.061982524, -0.032396145, 0.14215575, -0.086362734, -0.008041614, 0.11896335, -0.11196588, 0.008236673, 0.010083969, 0.013237476, 0.05156064, -0.0704017, 0.1138454, -0.1073903, 0.00836462, 0.06802109, -0.0014745307, 0.09705205, -0.2895019, 0.3115102, 0.0017799794, 0.043990377, 0.113872156, 0.18377534, 0.021446511, 0.13346231, -0.077111445, 0.0077387793, -0.1279613, -0.27529562, 0.06982936, -0.10123041, -0.09502086, -0.09792519, -0.1409351, -0.095293276, -0.14009307, -0.34770644, -0.07038663, -0.09355477, 0.0066579524, -0.018922333, 0.028070554, 0.03471372, 0.07596454, 0.118631534, 0.12472597, 0.062985696, 0.07779146, 0.042669207, -0.090774976, 0.104897246, 0.124159195, 0.086503, 0.11109875, -0.09321381, 0.08469887, 0.09803631, 0.08200937}, 
{0.019629663, 0.020052105, -0.11561939, -0.010152593, 0.07614571, 0.19846563, -0.0030297851, 0.04764001, 0.07629045, -0.027830306, -0.017388782, -0.11234579, 0.058374796, 0.11988726, -0.06861231, 0.017832354, 0.113114096, -0.115979, 0.054861456, -0.012445975, -0.08279434, -0.14513479, -0.087708645, -0.28245458, 0.24912748, -0.017254764, 0.039374866, -0.060872063, 0.031903606, -0.0145525485, -0.051222023, 0.045347612, 0.07563558, 0.014448941, -0.08185467, -0.025242763, -0.14084208, -0.09094696, -0.07627075, -0.018878743, 0.12241476, 0.021942861, -0.43784362, -0.015551112, -0.11048521, -0.08511178, 0.1535302, 0.007374868, 0.010362983, -0.051931143, -0.117946535, 0.09592548, 0.21062745, 0.055578288, -0.10934754, -0.093731284, -0.023750719, 0.1381858, 0.010184959, 0.0570601, 0.1364459, -0.08457219, -0.13782215, 0.0033405558}, 
{-0.13709539, -0.09434246, -0.00038840788, -0.01346603, 0.06740211, 0.37418905, 0.08425704, -0.06882369, 0.482585, 0.12243161, 0.055839337, -0.05332619, 0.06340892, -0.1283669, -0.00912784, 0.0815282, -0.08547288, 0.11712256, -0.06273716, -0.037948098, 0.10037015, -0.11384354, 0.13151081, -0.29105812, 0.23147203, 0.02276368, 0.02916402, -0.07082397, -0.1019028, -0.0968165, -0.0793263, 0.0064631784, 0.021429654, 0.051834226, -0.22244036, -0.1131278, -0.12882006, 0.087693, 0.09454698, -0.12986712, 0.12122157, 0.036047198, 0.041774824, 0.056430608, 0.05789955, -0.14253849, 0.13164672, -0.09708243, -0.0827722, -0.009518726, 0.07663276, 0.08418571, 0.14403218, -0.09617593, 0.058169052, -0.13218212, -0.083556056, -0.03566479, -0.11118585, 0.121529385, 0.02704233, 0.0203069, 0.008478858, 0.07410648}, 
{-0.30864903, -0.030126605, -0.15063772, -0.11010012, 0.0975492, 0.40774506, 0.09424691, 0.038882226, 0.47888097, -0.03881075, 0.34709632, 0.07662041, 0.047069184, 0.1182049, -0.1406035, -0.116860785, 0.10864371, -0.058949623, -0.10543131, -0.0938512, 0.0028030083, 0.10000978, 0.09358935, -0.17483693, 0.16760243, -0.17752285, 0.064998485, 0.14384483, -0.012584918, -0.056966968, -0.02148341, 0.062223006, -0.0374932, -0.102935284, -0.23588498, 0.08558997, 0.009079625, 0.07126665, -0.02299502, 0.13363594, -0.06332726, -0.15390526, 0.17806858, 0.035951827, -0.12356635, -0.033787932, 0.108093195, -0.072973035, -0.06781489, 0.109164685, 0.013932391, 0.125449, 0.34726307, 0.059079446, 0.00134404, -0.14306937, -0.11677278, -0.010350501, -0.03942603, -0.07311256, -0.01366435, 0.1008287, 0.06067761, -0.084308356}, 
{-0.36355197, 0.092904314, 0.11825669, -0.12383939, 0.06550896, 0.031609472, -0.14382368, 0.033432126, -0.05845243, -0.09344364, 0.28933185, 0.0714442, 0.031089852, -0.085550554, 0.06740989, -0.13150963, 0.12753476, -0.0332384, 0.119360976, 0.124618344, -0.03864172, 0.13317825, -0.022281054, -0.17885439, 0.27994895, 0.09316957, -0.09475899, 0.016744971, 0.54498714, -0.13929306, -0.030748626, 0.13002606, -0.08927935, 0.02207373, -0.2792027, -0.027390253, -0.066321716, -0.11235864, 0.07652538, 0.08098418, -0.0892925, -0.04281316, 0.26140228, -0.10766053, -0.028022975, -0.07203134, -0.0054333354, -0.04068157, 0.016058682, -0.062355395, -0.05247389, -0.04884744, 0.403748, 0.04004936, -0.056542397, -0.0011226519, 0.09705852, -0.064083196, -0.13651949, -0.10940853, 0.08578862, -0.0125507, 0.11242261, -0.04902696}, 
{-0.06823113, 0.0023295004, 0.10158833, 0.047854334, 0.066457555, -0.7002383, -0.11464165, 0.1327364, -0.11761286, -0.09014112, 0.12922478, -0.103426225, -0.09807679, -0.13135648, 0.06302491, 0.09106578, 0.07656319, -0.15594032, 0.025336921, -0.119154975, 0.10551266, 0.2078791, -0.05009229, -0.19093141, -0.06468249, 0.08990497, 0.06806999, 0.11701767, 0.28844857, -0.08993134, 0.12348436, 0.082484215, -0.008752674, -0.087887496, -0.18608661, 0.04947173, -0.17317276, 0.042238213, -0.13935132, -0.09346541, 0.08771781, 0.0026016072, 0.027345544, -0.101737894, 0.11729391, -0.0022787235, -0.09175493, 0.12979369, -0.05365989, -0.096504495, -0.118011214, -0.12798847, 0.25102836, 0.012803982, 0.040897965, 0.027466225, 0.014058537, -0.07458051, 0.13347863, -0.014163687, 0.028669134, 0.002909224, -0.100696795, 0.12715325}, 
{0.04052385, -1.4605236e-05, 0.11989213, 0.010175094, 0.029136626, -0.44744486, 0.049803484, -0.016717315, -0.0030010967, -0.13738702, 0.038126733, -0.0639588, 0.0869049, -0.08999522, 0.13856278, -0.13430007, 0.13579331, 0.017118696, -0.005706638, -0.06464777, -0.020652806, 0.18640278, 0.017817695, -0.2883124, -0.079959385, 0.16568504, 0.03272718, -0.1298034, -0.06683364, -0.047990173, -0.13918386, -0.13389085, -0.05735821, 0.11180563, -0.063408434, -0.019340469, -0.04749541, 0.072201565, -0.15060076, -0.08182228, 0.041381747, -0.06103713, 0.038876534, 0.01651839, 0.06320347, 0.0043431493, -0.13242772, 0.0058425516, 0.027300682, -0.07086519, -0.07152349, 0.09581279, 0.101556584, 0.05707864, 0.04372306, -0.0537619, -0.09211924, 0.037948243, -0.07258123, 0.087340154, 0.10370441, 0.05816759, -0.020723475, 0.007619759}, 
{0.2503353, 0.09349522, -0.020008154, 0.12158184, -0.04616714, -0.1198768, 0.109401874, 0.10475466, -0.068200134, 0.13663009, 0.00030229174, -0.14931357, -0.067835875, -0.021382818, -0.079579115, -0.07883045, 0.03300421, -0.09964667, 0.06089716, -0.13764459, -0.14938685, 0.19580017, -0.023254948, -0.109135725, -0.005219675, 0.16462193, 0.11537848, 0.10349785, -0.25849387, 0.014056146, 0.0988797, 0.07156762, -0.010840929, -0.14402404, 0.04916082, 0.03129156, 0.11419549, -0.06392425, -0.111013465, 0.07448068, 0.09958941, -0.10781068, 0.0871107, 0.10107707, 0.05682358, 0.07420217, -0.039974302, 0.07347548, 0.014585715, 0.015721135, -0.04989789, 0.0006166344, -0.04999543, -0.081718504, 0.042442486, -0.12937804, 0.10457385, -0.047428545, -0.09877865, -0.04735315, 0.014282361, -0.112325564, -0.11625069, -0.028033307}, 
{0.2047026, -0.0030918245, -0.007782855, -0.09925272, 0.07397729, -0.110879235, 0.0005572967, -0.018314496, -0.0077471226, -0.010070898, -0.01925472, -0.14324453, 0.025876181, -0.13680519, 0.05949481, -0.10175563, 0.055265658, -0.031147603, 0.015770938, -0.019238183, 0.053975523, 0.20350811, -0.078265965, -0.10245939, 0.26369792, 0.07798837, -0.08452117, 0.09754619, -0.22525238, 0.051888436, 0.11834579, 0.04650534, -0.0028252567, 0.011535376, 0.041925084, -0.0288272, 0.05772479, 0.015556563, 0.052463304, 0.05795973, -0.042810813, 0.118580304, 0.050031938, 0.13698584, -0.0019682348, 0.017025305, -0.028151743, 0.10103294, -0.081265226, 0.12513454, -0.0855674, 0.1273101, 0.025437597, 0.1384542, 0.071357295, 0.08729653, 0.032561228, -0.11724552, 0.022743717, -0.029043129, -0.101277605, 0.068102606, -0.019197244, -0.1361213}, 
{0.14948513, 0.058777403, -0.041284345, -0.0028850138, -0.15235497, -0.14058971, 0.07892711, 0.07076354, 0.05044719, -0.13686892, -0.06427561, -0.14893502, -0.09002508, -0.054315843, -0.075580984, -0.0064230114, -0.027594626, 0.08603731, 0.024005955, -0.15092263, -0.02242325, 0.08746935, 0.11045098, -0.031005941, 0.3004523, 0.125146, -0.10058414, 0.054310024, -0.07164321, 0.08195154, -0.12065255, 0.13838848, -0.0054190625, 0.063188836, 0.12831247, -0.14435107, 0.05161837, 0.12540077, 0.069916725, 0.11178703, -0.124349244, 0.11064902, 0.06558775, 0.10168855, 0.11819272, -0.07532681, 0.10605878, 0.12917228, 0.019402117, 0.019194337, 0.03547496, 0.042974938, -0.014593225, 0.07120215, 0.07815559, 0.06581803, 0.084706634, -0.1286294, -0.016594678, -0.0008801908, -0.031805746, 0.010080881, -0.0986057, 0.08535009}, 
{0.08661511, 0.06438497, -0.037394486, 0.0071512014, 0.022511035, -0.110576026, -0.01182287, -0.07537212, -0.10480481, -0.0020684097, 0.0749813, 0.12685575, 0.0056439675, 0.051686294, -0.06414839, 0.049513012, -0.1416866, -0.031177528, 0.13940279, 0.037705153, -0.04976832, -0.035941824, -0.030032491, 0.09109837, 0.00020097134, 0.14181975, -0.088620685, -0.14361733, -0.1700404, -0.13240944, 0.035730347, 0.07503904, 0.117022455, 0.0903144, 0.26452833, -0.051098228, -0.13713966, -0.037849486, -0.123076595, -0.047552645, 0.059103146, 0.048167583, -0.04426143, -0.003989061, -0.06609398, -0.13476601, -0.026017118, 0.09740126, 0.10381947, -0.022326201, 0.027532239, -0.02168476, 0.018006323, 0.104070835, -0.04706686, -0.088043965, -0.048214365, 0.06348142, 0.096001714, -0.054339383, -0.054126576, 0.113276854, -0.097108945, 0.064086184}, 
{0.072687216, -0.12001409, -0.1123894, -0.106296435, -0.0058303913, 0.103473425, -0.07810861, 0.09049359, 0.009821368, -0.13398585, 0.027407803, 0.079368174, 0.053000037, 0.05494763, 0.04586643, 0.13328798, 0.07216431, -0.13502322, -0.042048357, -0.15094824, 0.09477799, 0.08985315, -0.12957774, 0.043677427, 0.06917323, 0.12530795, 0.0062219524, -0.043442056, 0.017087717, -0.016709864, 0.09297461, 0.0018597053, 0.058239445, 0.094360635, -0.050786033, -0.12993744, 0.07774934, -0.08775425, 0.0019269597, 0.08926204, -0.09084274, 0.11247219, 0.15330592, 0.045322448, -0.014939159, 0.06991843, -0.043448493, 0.14163889, -0.0034252838, 0.08057011, 0.07600712, -0.120628886, -0.044347603, 0.04798372, -0.00062175095, 0.03058576, -0.1408074, -0.05282374, 0.050943583, 0.087405324, -0.041662045, -0.07735921, 0.066621885, -0.14156002}, 
