{{0.21075802, -0.13872422, 0.024634607, 0.13835059, -0.028468924, -0.012154022, -0.026981968, 0.24811009, 0.13672437, 0.113101766, -0.02887497, -0.09535314, -0.13122655, 0.16714309, 0.123971716, -0.12616156, 0.055511385, -0.040907748, -0.16334859, -0.09527841, -0.02671976, -0.13962938, 0.11146005, 0.12493587, -0.06804851, -0.2737172, 0.085571736, -0.10702695, -0.08609024, -0.010238523, 0.12510717, 0.073470466, 0.40085307, 0.122947864, -0.08041837, -0.08347057, -0.1867097, -0.029252775, -0.009962931, 0.038611006, 0.13676472, 0.04349327, -0.1440738, -0.011949358, -0.36107472, 0.051275067, 0.08195196, 0.28927085, -0.020184822, 0.06692583, 0.10031101, -0.019358732, 0.06476715, -0.118994154, -0.07508445, 0.010331727, -0.13915135, -0.30031958, 0.10200343, 0.11437102, -0.0221299, -0.12809533, 0.015600427, -0.13236117}, 
{0.17765659, 0.00047424284, -0.045769833, -0.13584603, 0.05916988, 0.04648908, -0.014651487, -0.060966603, 0.0047969073, 0.087081335, 0.04646414, 0.07555058, -0.0935378, -0.011631826, 0.127471, 0.00049455464, -0.064277366, -0.07290701, 0.030786326, 0.11251732, -0.011600898, 0.010234296, -0.13264178, -0.023742184, -0.065747224, 0.064628944, 0.0075099105, -0.10363457, 0.004896471, 0.11058606, -0.116435856, -0.11717959, -0.09350269, -0.071067266, 0.130564, -0.014115617, -0.087612286, -0.0010221862, -0.028334558, 0.06460882, 0.09022679, 0.090106845, -0.064209715, 0.021195706, 0.08024625, 0.009407548, -0.067992404, -0.18116856, 0.115179285, 0.011414413, -0.047552913, 0.047255248, 0.02187317, 0.037362553, 0.027850837, -0.09194868, -0.12556969, 0.04713746, -0.071221076, 0.011544377, 0.10109587, 0.030258065, 0.0673862, -0.081318766}, 
{0.14019468, 0.20274939, -3.826653e-06, -0.12363712, -0.17643052, -0.12064198, -0.014581004, -0.2637215, 0.011317998, 0.09193512, -0.14358018, -0.037430745, -0.0012323111, 0.11003268, 0.17651133, 0.005776897, 0.03813376, -0.103877865, 0.22914279, 0.14222383, -0.07146906, -0.12356546, 0.023386573, 0.044949, 0.09210445, -0.06254313, 0.051130515, -0.11915355, -0.14003952, 0.10721795, 0.010681694, 0.04498876, -0.05688243, -0.13376585, 0.14930898, -0.00096677244, -0.086369425, 0.047357786, -0.08566598, -0.019074973, -0.09006691, 0.032091945, -0.0029698885, -0.12442255, 0.1441545, 0.11713006, -0.10224605, -0.19160415, -0.0492924, -0.14510165, 0.032232586, 0.10674612, -0.022911908, -0.09406515, -0.08669582, 0.07201492, -0.10033804, 0.2876603, 0.14810525, -0.10744623, 0.011893719, 0.0020673743, 0.067072764, 0.11103779}, 
{0.02069546, 0.27799052, 0.09252667, -0.082217366, -0.13289863, -0.12933026, 0.1107282, -0.06686317, -0.0012151748, 0.08273082, -0.02687513, -0.08731262, 0.06842519, 0.15282466, 0.07836462, -0.018172935, -0.08096132, 0.12092139, 0.06537129, 0.036633726, 0.03912018, -0.12999709, 0.101220995, 0.08679824, 0.09785798, 0.13038278, -0.13198592, -0.040635332, -0.15507156, 0.09343805, -0.012642661, -0.1147217, -0.13527445, -0.005541824, 0.20290035, -0.063392274, -0.1063258, 0.03745578, 0.052190185, -0.020280944, -0.01603525, 0.12240769, 0.07590669, -0.031251725, -0.07457806, -0.06344014, -0.10151024, -0.18290414, 0.10228546, -0.07245475, -0.15156616, 0.05263403, 0.0677032, -0.12261583, 0.08985332, -0.11625033, -0.10454627, 0.13122463, 0.10467709, -0.033688843, 0.018242598, 0.07346121, 0.076491974, -0.06543165}, 
{0.11627227, 0.18358399, 0.12077327, 0.098542616, 0.1661767, -0.14982702, -0.12893878, -0.12162671, -0.12464758, 0.065938435, -0.031340398, 0.002621521, 0.06942329, 0.11730341, 0.16429831, -0.12161063, -0.00093719794, -0.039337814, 0.3041949, 0.027578406, -0.062664546, -0.119469084, -0.08211828, -0.005443879, -0.09683199, -0.008244239, -0.10912943, -0.07366755, -0.13618083, -0.104640186, 0.001856539, 0.06572588, -0.21601252, -0.14289628, 0.09840588, -0.1358855, 0.101458244, -0.10853852, -0.11232376, -0.043648235, -0.052408483, -0.06591974, 0.058931433, 0.11271764, 0.04497678, -0.0757319, -0.0068274885, -0.15803903, 0.060935825, -0.046350922, -0.02530944, -0.036538713, 0.1123546, -0.13450268, -0.021710724, -0.1357213, 0.12303378, 0.13882701, 0.09512883, -0.104220435, -0.025198326, 0.092264265, 0.08507849, -0.023209088}, 
{-0.051561233, -0.016424403, 0.10671193, -0.06867387, 0.06305972, 0.0012202839, -0.033571076, -0.011069678, 0.04522705, 0.09879963, 0.018700365, 0.12655818, -0.14267176, 0.17291957, -0.056839332, -0.015280321, -0.11750411, 0.05917178, 0.23538992, -0.07785746, -0.035078213, 0.13159104, -0.05812544, -0.022743782, 0.11874242, 0.11397154, 0.040751226, 0.0105416775, -0.13038693, 0.12780254, -0.08702089, -0.107433416, -0.2122174, -0.12650248, 0.12768807, -0.093030885, 0.1526788, -0.11471043, -0.097505935, 0.051775187, -0.026604684, -0.11566591, 0.047723398, 0.042853612, 0.021457897, -0.09096888, -0.0061650127, 0.01833047, -0.14374746, -0.10560469, -0.060333688, 0.13334648, -0.14557175, 0.06621597, 0.14172436, 0.0992554, 0.059305593, 0.32029262, -0.06703094, -0.13694513, -0.058900155, -0.13013475, -0.007212156, -0.007986775}, 
{0.09794056, 0.022514485, -0.10352072, -0.08855951, 0.10384245, -0.017942773, -0.040050115, 0.008476851, -0.11841513, 0.019085756, -0.11606588, -0.016695455, 0.11246543, 0.12810485, -0.07025765, 0.08809976, -0.12512934, 0.088724986, 0.1070664, 0.14085507, -0.06369116, 0.09112531, -0.03731635, -0.09043239, 0.121669665, 0.09219929, -0.039454203, 0.038591415, -0.050422605, -0.08936988, -0.08012002, 0.04151571, -0.21870668, -0.046415232, 0.15852548, -0.052612253, -0.032285936, 0.09819969, -0.14174515, -0.047474463, -0.16607596, -0.11392039, 0.1479146, -0.023304917, 0.014715665, -0.039059818, 0.043413877, 0.07194984, -0.10206068, -0.14038236, 0.092562824, -0.08660719, 0.028847486, 0.05212746, -0.067377076, 0.09448733, 0.10413812, 0.14886639, 0.013279133, -0.012269512, -0.091671735, -0.08360031, -0.17176037, 0.05780055}, 
{-0.1698724, 0.20540519, -0.008769854, -0.0006220639, -0.038197365, -0.13515882, 0.058950566, -0.08867774, 0.07316345, -0.084848106, 0.012176508, -0.10857544, -0.10612123, 0.06420877, 0.13699947, -0.033942685, 0.0093609225, -0.061600104, 0.2918962, -0.09798019, 0.05370504, 0.015095919, -0.08563075, 0.12411409, -0.14195192, -0.12622719, -0.13602906, 0.056578368, -0.095224194, 0.004934471, 0.017549029, -0.10404992, 0.0046760244, -0.18424477, 0.13108785, -0.045038447, 0.05218662, 0.09074403, 0.001758948, -0.12802143, -0.13747542, -0.03685195, 0.10276907, 0.031836838, -0.059098363, 0.016857784, 0.13341354, 0.091368474, -0.10376343, 0.075506784, -0.15438047, -0.0049097836, -0.0056964667, 0.11222909, 0.067164466, -0.028401976, -0.10314247, 0.11613865, 0.09532334, -0.14350314, 0.07530011, -0.087209605, -0.16108061, -0.14609961}, 
{-0.13204047, 0.0044790306, 0.11297432, 0.046391577, 0.049828682, -0.14655839, -0.0011569039, -0.12950122, 0.0874857, -0.11747478, -0.07923204, -0.025723347, 0.06826314, 0.19761157, -0.004426335, 0.07531932, 0.057224177, 0.1324719, 0.109527096, 0.044241153, -0.0443675, -0.09167084, 0.112161905, 0.068742715, -0.052977532, -0.01928949, -0.01267476, -0.008281112, 0.0028551812, 0.08556648, 0.10446733, 0.051685046, -0.019526454, -0.09196543, 0.029712258, -0.101590216, 0.0092347, -0.0414201, -0.09125785, -0.10606775, 0.00599256, 0.09398474, 0.033906378, -0.045820188, 0.055855118, 0.07576289, 0.014190465, -0.24329942, -0.027959079, -0.046817385, 0.034479856, -0.039964378, 0.11537534, 0.071992874, -0.14016062, 0.032607004, 0.05400929, 0.13388498, 0.094174854, -0.027484834, -0.03476657, -0.046592142, -0.019837223, -0.13797957}, 
{-0.123241425, 0.08255982, -0.041554127, -0.09823014, -0.15912384, -0.11738486, 0.0032397727, 0.060875066, -0.045332544, -0.122376196, -0.06794839, -0.022780601, 0.07999231, 0.0040637054, 0.20081922, 0.099477366, 0.046567883, 0.012068883, 0.19026947, -0.23673025, -0.12746069, -0.0852053, 0.058562607, 0.12855135, -0.12414823, 0.055960238, -0.022320488, -0.052724585, -0.08070898, 0.07288502, 0.045701995, 0.0068035773, -0.20732026, -0.19645205, 0.23592257, -0.1295575, 0.10202303, 0.100987114, 0.031980023, 0.10515551, -0.11298315, -0.015008897, 0.17605525, 0.08986594, 0.056838755, 0.09319634, 0.017292216, -0.16244456, 0.13436086, -0.09006424, -0.03880487, -0.118554704, 0.038294375, -0.122110896, -0.14370023, -0.019272564, 0.028015316, 0.37275815, -0.014357152, -0.082850054, -0.05845648, -0.023929682, 0.05520637, -0.0013119174}, 
{-0.05834851, 0.14052731, -0.07049697, 0.14116175, 0.04369513, 0.05530918, 0.020624299, -0.10271367, 0.022120312, -0.07469108, 0.018134484, -0.104083546, -0.06750803, -0.17284146, 0.14842911, 0.02530396, -0.047303922, -0.030561298, 0.07522873, 0.030276736, 0.09509795, 0.06435667, 0.029922687, -0.12232646, 0.06807019, 0.055897724, -0.10453608, -0.05356119, 0.098532856, -0.04938578, 0.1373682, -0.054480072, -0.114780165, 0.007354857, 0.25987694, -0.10403454, 0.038883995, 0.08119255, 0.14047258, -0.10433859, -0.14747547, 0.04918477, 0.22597662, 0.077256106, 0.044517208, 0.059017282, 0.072328225, -0.18528347, -0.029921852, 0.0025222355, 0.0139244655, -0.053053074, 0.10136334, -0.01993422, 0.03591545, -0.085869595, -0.08012069, 0.079492174, 0.03421386, -0.10919367, 0.117001966, -0.06468683, 0.12936887, 0.11403605}, 
{0.054837756, 0.033530183, 0.05458611, 0.12345971, -0.028197436, -0.05258028, 0.096457936, -0.008020017, 0.08055715, -0.08515343, -0.066681586, -0.088797055, 0.0054448694, 0.060698133, 0.21629354, -0.018309489, -0.05577903, -0.12985271, 0.021689234, -0.20219406, 0.040920325, -0.13557443, 0.06976336, 0.10619927, 0.10286482, 0.033285666, -0.0591222, 0.07389322, -0.08148813, 0.038516387, -0.06723569, -0.15865184, -0.13145736, -0.102440916, 0.13801533, 0.09290475, 0.034564152, -0.11225501, -0.087903365, 0.06840332, -0.1134151, -0.112810716, 0.24757491, -0.1395916, 0.086258665, 0.21583314, -0.043771192, -0.2735607, -0.11455792, 0.13288096, -0.13071078, 0.09984219, -0.14025378, -0.14601773, 0.03425972, -0.12337505, 0.060767084, 0.27386102, -0.14446232, 0.10234138, -0.08052688, 0.026934357, 0.14615534, -0.12196463}, 
{-0.024386475, 0.15176366, -0.15402694, -0.122587696, -0.12676884, -0.08822919, 0.08159369, -0.2733318, -0.13094129, 0.085262924, 0.017287316, -0.13333525, -0.02917666, 0.043738257, 0.13021812, -0.10251624, -0.12360224, -0.12735431, 0.060301054, 0.10691843, -0.0067680157, 0.04779993, 0.07372731, -0.07263086, -0.13289836, -0.055647336, -0.014593968, 0.11043371, 0.06354747, 0.0800659, -0.0064434526, -0.0778726, -0.06632167, 0.117664754, 0.11343758, -0.0991721, 0.040585898, -0.14687645, 0.008581623, -0.017660039, -0.1046217, -0.12392867, -0.06882993, 0.039876703, -0.054896392, 0.014146825, 0.060439453, -0.178756, 0.11864255, 0.04256093, -0.16164877, -0.019390233, 0.08306694, -0.07132116, -0.027504317, 0.077939175, -0.0010700971, 0.33217442, 0.09140501, 0.022784814, -0.013811901, 0.01457936, 0.0010600922, -0.09205273}, 
{0.13369411, 0.005793357, -0.12676287, -0.02147884, -0.14542075, -0.086257964, 0.011543096, -0.18987389, 0.03273222, -0.11686905, -0.07773912, 0.13250259, 0.024600402, -0.008363873, 0.08125793, -0.12646995, -0.13648926, -0.115507066, 0.17296992, -0.09824024, -0.036767844, 0.13101418, 0.033713747, -0.1295755, -0.086119235, -0.1742114, -0.13582239, -0.088029236, -0.040838424, -0.028297082, -0.059147175, -0.0078083803, -0.1572506, 0.02328501, -0.15448426, 0.044664755, -0.013438255, -0.011974182, -0.007999748, 0.008728504, -0.049933225, 0.12900357, -0.0141403945, -0.07193281, 0.14901814, -0.015464079, 0.099793896, -0.034636073, 0.111175194, -0.12114028, -0.026543504, 0.039851293, 0.10649073, -0.0481717, 0.08329238, -0.03226647, 0.036683246, 0.06254481, 0.10140802, -0.096022904, -0.10682753, 0.028941141, -0.09219558, 0.08368247}, 
{0.7854311, 0.24539717, -0.07366113, 0.07794717, 0.3720936, 0.026247233, 0.018305477, 0.49762407, -0.14199144, 0.10931016, 0.070100434, 0.055025864, -0.14190544, 0.12877147, -0.6641247, -0.14030308, 0.04161683, -0.11789842, 0.19869263, 0.32391387, -0.12112932, -0.04132291, 0.055564992, -0.10359405, 0.12147029, -0.35923997, 0.030381773, 0.007821798, 0.22557008, -0.14577687, -0.08654816, 0.23150887, 0.2922215, 0.15720049, -0.55297345, -0.016153276, -0.16135082, -0.26567867, -0.06558717, 0.003442806, -0.10989146, 0.1404085, -0.31593186, -0.04946542, 0.3000286, -0.7848021, -0.031663038, 0.51922, -0.1322891, 0.020413412, 0.6087677, 0.13007711, -0.054116998, 0.09987297, -0.13573599, 0.08587186, -0.10150911, 0.011368212, 0.61309177, 0.031456813, -0.093526155, 0.092214316, -0.033915676, -0.11280916}, 
{-0.03605141, 0.103344545, -0.029209979, -0.01810573, 0.12895252, 0.078729056, -0.11995664, 0.06266582, -0.02135297, 0.03144924, -0.037699837, 0.030522402, -0.0057992637, -0.0717026, 0.067166045, -0.0019270033, 0.0055920854, 0.05305569, -0.031358004, -0.09527732, -0.04794689, 0.038750067, -0.1383732, -0.1149043, -0.06719696, 0.009291636, -0.0027129792, 0.028187051, 0.04582592, -0.066610165, -0.03004937, 0.026554232, -0.07787834, 0.1444859, -0.02984427, -0.07540531, 0.04087133, 0.15290004, -0.061105594, 0.02700076, 0.01148552, -0.13571607, -0.01192452, 0.05463907, 0.051513508, 0.17280425, -0.034643248, -0.22418334, 0.10676743, 0.007868383, -0.1619793, -0.034166425, 0.032366306, 0.012198626, 0.06715131, 0.06585757, 0.13329889, -0.0155802285, 0.020061785, -0.025025941, -0.13059704, 0.02338517, 0.19521256, 0.0075766644}, 
{0.13056539, 0.20158868, 0.1019987, -0.07343319, -0.053060323, 0.12095837, -0.09239514, -0.27288622, -0.039498925, 0.076647, -0.03076553, 0.12206872, -0.13047907, 0.06345303, 0.20335832, 0.09655243, 0.11138238, -0.12689428, 0.104369365, 0.15359469, 0.037832182, 0.093620285, -0.038427826, -0.12781304, -0.04831502, -0.09805712, -0.07807917, 0.03611377, -0.053361464, 0.05161753, 0.0119238105, 0.005580548, -0.34070304, -0.062775075, 0.3195633, -0.0031891018, 0.23854646, -0.14984791, -0.0019129515, -0.11760208, -0.07013835, -0.12778461, 0.14988366, 0.005782081, -0.07268115, 0.21319798, -0.038894206, -0.17242344, -0.055552714, -0.14470944, -0.062771626, 0.12671985, -0.14424914, 0.05957916, -0.04627519, -0.019332903, 0.1392308, 0.32038033, -0.0444694, -0.057557188, -0.10801178, -0.062258195, 0.113000005, 0.055888828}, 
{-0.032371037, 0.17226247, 0.093165405, -0.05048342, -0.12314987, 0.098709226, -0.0118228365, -0.26804328, -0.026613228, -0.09668553, 0.11373854, -0.12845731, 0.06840491, 0.14611936, 0.19247347, 0.026854873, 0.06493565, -0.11780089, 0.28465897, -0.0121280085, 0.0479632, 0.026143104, -0.07065679, -0.10763239, 0.021127537, -0.035712972, -0.08373266, -0.117856994, 0.09192379, 0.04184032, 0.10752338, 0.06788953, -0.2868244, -0.06596111, 0.022553526, -0.004554063, 0.051215824, -0.09498962, 0.040691838, -0.13467039, 0.09186399, -0.06713615, 0.07986268, 0.06800251, -0.04087468, 0.17265639, 0.04972215, -0.026221203, -0.004076168, 0.12472373, -0.091714785, -0.06479499, -0.037814252, -0.069380306, -0.059860535, -0.07137335, -0.12179555, 0.16895017, -0.012731149, -0.11577302, 0.14288314, -0.110402524, 0.051719554, -0.1509577}, 
{-0.02357048, 0.21481287, 0.10761147, -0.00017818809, 0.12755254, 0.11212694, 0.07040157, -0.1203651, 0.07144916, -0.0045459415, 0.033687975, -0.11783153, -0.120068304, 0.04948817, -0.041221213, -0.00011624396, -0.055664852, 0.14366718, 0.38506567, -0.0046890066, -0.12575458, -0.087915316, 0.06571044, 0.08711741, 0.089763045, 0.21841113, 0.067599624, 0.11366488, -0.16333795, -0.07950345, -0.11789456, -0.12988017, -0.37201884, -0.25433773, 0.04925566, 0.099416584, 0.14031212, -0.0216781, -0.117951564, -0.13557151, 0.027638532, -0.018959448, 0.07527731, 0.018566376, 0.1795521, 0.049018506, -0.039084524, 0.11619876, -0.10084681, 0.12440294, 0.19443464, -0.06913915, -0.0017232305, -0.15031672, -0.09565076, 0.009750131, 0.06479007, 0.16738613, 0.047967527, 0.023394167, 0.13109712, 0.047632623, -0.038290586, 0.08506518}, 
{0.09092778, 0.18366982, -0.08845783, -0.13533819, 0.25122145, -0.02762798, 0.061419025, -0.1708903, 0.09262751, 0.017257143, 0.0085950745, -0.053311843, -0.09222352, 0.16155128, 0.02507066, 0.023933604, -0.09380054, -0.011065736, 0.30622813, 0.044680174, 0.08678178, 0.097961456, 0.0848072, -0.083700985, 0.06556705, 0.26935655, -0.09306006, 0.010418907, -0.026624799, 0.04104962, 0.048996806, 0.20427053, -0.40358347, -0.24942042, 0.065003045, -0.10924922, 0.059913214, 0.07846816, 0.02174583, 0.101884775, -0.030136712, -0.08523691, 0.09381851, 0.07079453, 0.030223286, -0.09944656, 0.115888104, 0.08973879, -0.06058985, 0.056927316, 0.063434385, -0.059904367, -0.05265471, 0.07510746, 0.108337805, -0.016392257, 0.1315055, 0.27296117, -0.19984321, -0.04250665, 0.027465805, 0.068090335, 0.02516692, 0.12888339}, 
{-0.08043195, 0.091035366, -0.117832184, -0.03163133, 0.27276063, -0.15391763, 0.0495418, 0.1934263, -0.037675187, -0.03302927, 0.12352856, -0.03574888, 0.10192564, 0.081280306, -0.20401576, 0.04392177, -0.1341428, 0.0019094199, 0.32127556, -0.09357976, 0.04906137, 0.025083512, -0.026029633, 0.10162574, -0.04052049, 0.28970474, -0.13846974, -0.03740696, -0.040393803, 0.03903324, 0.026085595, -0.015506573, -0.27316728, -0.042119026, -0.055777255, -0.04823882, 0.00714698, 0.12661809, -0.010454223, -0.13168193, 0.060580827, 0.08845374, 0.015654286, -0.11258787, -0.020572789, -0.05535631, -0.044466466, 0.15255947, 0.09335594, -0.12486813, 0.045228023, 0.013718188, 0.12823273, -0.1488812, -0.041858062, -0.13878317, -0.08813288, 0.25801262, -0.29942697, 0.10155758, -0.047668524, -0.022186875, 0.04844182, -0.1441933}, 
{-0.14741142, -0.05506345, -0.07295063, -0.14191923, 0.1975422, -0.119874515, -0.12580767, 0.096603714, -0.035711937, 0.10493105, 0.07452214, -0.104272395, -0.10964872, 0.10962733, -0.15300561, 0.13206907, -0.011932753, 0.11660375, 0.19142178, -0.0064704684, 0.049764138, -0.120875984, -0.09641442, -0.13121545, 0.07821602, 0.45435312, -0.10812862, 0.031691834, -0.13612083, 0.0767738, -0.14370362, 0.09462693, -0.24271834, -0.14802493, -0.1383648, -0.13275671, 0.08483548, 0.37995905, -0.096242666, 0.10121447, -0.058619972, 0.015113339, 0.11878097, -0.01681636, 0.13253514, -0.018064998, 0.08446747, 0.22039081, 0.023759305, -0.13583441, -0.020374274, 0.045891672, -0.06966725, -0.015571856, 0.13763882, -0.008959278, -0.10769601, 0.04935932, -0.15146096, 0.047879517, 0.04969804, -0.023953283, 0.017787851, -0.13184439}, 
{-0.30921212, -0.046809744, -0.122526675, 0.03253424, 0.2402833, -0.05504244, 0.103277095, 0.060911056, -0.108034976, -0.025371376, -0.14936225, -0.03318496, -0.11134583, -0.0132525, -0.06417701, -0.048838213, 0.012874998, 0.114779934, 0.12631491, -0.1858205, 0.063604005, 0.038894683, -0.0382039, 0.04526848, 0.10554379, 0.34783772, 0.12547308, 0.061042517, -0.10496188, 0.005236267, -0.0681949, 0.10046664, -0.16822788, -0.20326623, 0.08166296, 0.0758353, 0.1569306, 0.16530412, 0.045933694, -0.0041393866, -0.1421475, -0.11378223, 0.20318998, 0.04096565, 0.005961326, -0.012237422, -0.13560374, 0.23667485, -0.076830104, -0.028101321, -0.1405869, -0.077069476, 0.049141873, 0.13659385, 0.08477025, 0.12632951, 0.03508994, 0.044174287, -0.20465675, -0.12174601, -0.14067595, 0.0966647, 0.117720716, -0.049394183}, 
{-0.24393667, 0.00784135, -0.11396324, -0.06936451, 0.34808525, -0.14124815, -0.06424621, 0.026437983, 0.0071093887, -0.13278851, 0.061258025, -0.15082717, -0.013523638, 0.010605641, 0.018479504, -0.12857868, -0.06399911, -0.0057662874, -0.09954812, -0.13298978, 0.13772824, -0.11956819, 0.011111639, -0.05356818, -0.018654838, 0.16322069, -0.12876044, 0.045027047, 0.0027554187, -0.10600808, -0.13438945, -0.0268944, 0.0052592917, 0.006334676, -0.0076637664, -0.14119688, 0.038733024, 0.30090487, 0.10102181, 0.13415663, -0.15743914, 0.08506009, 0.1201714, -0.0398961, -0.024349611, -0.03417785, 0.060066864, 0.15181762, -0.023929588, 0.025911562, 0.030219628, 0.0925428, 0.019130768, -0.08045771, -0.09716749, -0.06698369, 0.085775495, 0.11424687, -0.18284336, -0.03464943, -0.06221118, -0.010100086, 0.034368876, 0.021574972}, 
{-0.25165015, 0.10906137, -0.1561842, 0.0044425577, 0.075132236, -0.06863823, -0.1435768, 0.17235677, -0.076589905, 0.10885137, -0.0698218, -0.08032039, 0.01923959, -0.1442899, 0.09890779, -0.06834988, -0.041223034, -0.029675677, 0.07618904, -0.13016017, 0.09713527, -0.089815125, -0.08877671, -0.08239052, 0.043814927, 0.094830595, -0.10766521, 0.112182364, -0.14004593, 0.09993222, 0.03896469, 0.060510848, -0.014056825, -0.06444003, 0.26197186, 0.04162535, 0.08655907, 0.032162573, -0.032696314, 0.05664863, -0.17434442, 0.12721418, 0.25637642, -0.084773764, -0.12399398, 0.027248321, -0.07704842, -0.011070029, -0.06722544, -0.017903501, -0.11766791, -0.13538979, 0.0063734, -0.060313947, -0.058768928, 0.0854891, 0.076687336, 0.006730125, -0.16430968, -0.020281695, 0.12157999, -0.012074697, -0.039475445, 0.09565067}, 
{-0.076545805, 0.07329913, -0.102822505, -0.09406598, -0.041793488, -0.1234542, 0.033694085, -0.12227177, -0.020298906, 0.08107325, -0.019321522, -0.06649754, -0.07361674, 0.020233728, 0.18825115, 0.10892354, 0.0060884794, 0.07226831, 0.16631104, -0.02956006, -0.11210983, -0.12574555, 0.043770526, -0.14419015, 0.06286812, 0.073101975, 0.0647735, -0.13113923, -0.017675014, -0.13692227, -0.062261105, -0.17782101, -0.27015212, -0.05191668, 0.25112838, 0.102072805, -0.013787431, 0.07366184, 0.12701614, -0.040161163, -0.14343631, -0.106993765, 0.25580123, 0.04210823, 0.15524282, 0.04844223, -0.091985896, -0.12158001, 0.06185697, 0.04110447, -0.08130174, 0.013306111, 0.023288902, -0.048513558, -0.0825093, -0.07236359, 0.027112141, 0.15154842, -0.018010087, -0.14261855, 0.094398215, 0.10666915, 0.06207278, -0.010222169}, 
{-0.13487317, 0.118528716, -0.14866346, 0.09654854, -0.04278544, -0.1329748, -0.06736276, -0.19757456, 0.013704583, -0.088252686, -0.07738279, -0.123004794, -0.07862251, 0.04894324, 0.0861269, 0.11810209, 0.11369215, -0.09657112, -0.049844008, -0.056928687, -0.005821572, -0.101536386, 0.009417535, -0.09159306, 0.018940076, 0.015685456, -0.11227376, 0.059432596, -0.13219291, -0.14458634, 0.10471049, -0.11465567, -0.22910906, -0.10983022, 0.37521005, 0.11868627, -0.0001544935, 0.1106434, 0.10116792, 0.035337932, -0.0467922, -0.08519098, 0.07886346, 0.093717046, 0.10805416, 0.25609413, -0.08559023, -0.0831376, -0.12256942, -0.014948775, -0.019173509, -0.06847404, -0.06799751, -0.0029743954, 0.055852994, -0.09818622, -0.010982782, 0.2738925, -0.0640629, 0.13571735, -0.11299069, -0.1403019, 0.050388727, -0.02280443}, 
{-0.023586098, 0.16319504, -0.08194677, 0.012138352, 0.014687845, 0.009532295, -0.014070423, -0.31972095, 0.017493695, 0.09105553, -0.12700447, 0.07357179, 0.066997945, -0.026296757, 0.26747236, -0.023265272, -0.050819095, 0.028190449, -0.05836793, -0.036722664, 0.11676443, -0.06347761, -0.07220746, 0.109989926, -0.01982411, 0.021423595, -0.05745619, -0.027548283, 0.061896563, 0.07194676, 0.13775179, -0.07396136, -0.13308494, -0.0005181077, 0.2179377, 0.1252129, 0.0025800434, -0.017914742, -0.08528435, 0.07270448, -0.005750571, -0.08357525, 0.2651037, 0.09251374, -0.003914998, 0.30269203, -0.13932483, -0.39335167, 0.0033034682, 0.091287926, -0.028124388, -0.12889676, 0.07086118, 0.026379481, -0.10539524, -0.039419036, -0.043816507, 0.25400558, 0.09591821, 0.064815566, 0.12879546, 0.07448878, 0.08911783, 0.0031493634}, 
{-0.14420934, 0.12903951, 0.095090166, 0.06941192, -0.1623166, 0.06498927, -0.07258829, -0.26127532, -0.0017198175, -0.023495581, 0.094504386, -0.042512294, 0.12458809, 0.05862286, 0.21760903, 0.10833557, 0.037458792, 0.0025347471, 0.086087026, -0.011357967, -0.04078642, 0.065101966, -0.033489775, 0.105947316, 0.13210504, -0.022121439, 0.0086630285, -0.13577725, 0.09510523, -0.114376664, -0.07536561, 0.003251751, -0.12369679, 0.1204798, 0.32203132, -0.0027791709, 0.099376224, -0.17252445, -0.0941799, -0.11655182, -0.032202918, 0.10186969, 0.084168494, 0.13878377, 0.06061572, 0.10841919, 0.027528048, -0.25731227, -0.02613493, -0.03333884, -0.1614856, 0.08628376, 0.011652481, -0.038133975, -0.050499707, 0.0026177983, 0.07894434, 0.25456592, -0.121897355, -0.056231327, -0.053038165, -0.0168252, -0.0411423, 0.1164011}, 
{0.04700315, 0.013462787, -0.12431447, -0.012744546, 0.001815391, -0.009888856, -0.04385607, -0.043176185, -0.03365954, 0.06518194, -0.14373188, 0.08866769, 0.042696655, -0.10703919, 0.037711773, 0.09887694, -0.15264548, 0.081631914, -0.03919487, -0.07843466, -0.14663094, -0.03197466, -0.104617186, 0.06695772, -0.11885609, 0.09867976, 0.043301743, -0.1053659, 0.15505613, -0.1353032, 0.043248884, -0.044864234, 0.01124403, 0.17292215, -0.033308312, 0.08866309, 0.008529353, -0.03914409, -0.059482135, -0.07959054, 0.14091118, 0.10805322, 0.0595114, -0.025834568, -0.032909513, -0.09644714, 0.06710765, 0.0031588953, -0.12592174, -0.06941779, -0.119514935, 0.016026825, 0.09455381, -0.008057105, 0.06942642, -0.14766617, -0.059898354, -0.012629082, 0.08582883, 0.059817627, 0.07345861, -0.03183978, 0.043255284, 0.11117869}, 
{0.08572155, 0.007021561, 0.032271996, -0.06691519, 0.10490814, 0.12125629, 0.118691005, -0.12698255, 0.00591892, -0.09793402, -0.12668706, -0.08196316, -0.12301993, -0.14236376, 0.120548375, -0.02122727, 0.116224825, -0.0013587326, 0.14192368, -0.14522234, -0.0037462292, 0.10456373, 0.09823107, -0.02171621, 0.13178621, -0.01186802, 0.05644662, 0.03578548, 0.0118429065, -0.021725563, 0.018277114, 0.16635364, -0.08443425, -0.0026183885, 0.043450937, -0.12844372, 0.1446211, 0.14671952, -0.057599783, 0.009657413, -0.089050144, -0.12782127, 0.075056694, -0.123779304, 0.056659855, 0.13292871, -0.08545457, -0.14879403, 0.07168801, -0.09491963, -0.13908282, 0.027379468, 0.05526298, 0.04254491, 0.07926458, -0.03537029, -0.10275479, -0.17307766, 0.09645694, -0.042567283, 0.12712778, -0.03814989, 0.043437067, -0.067602985}, 
{0.20135026, 0.24049409, 0.08117472, -0.04071091, -0.019090943, -0.082938604, -0.04217647, -0.12711586, -0.1345271, 0.013708662, 0.094581746, -0.046916395, 0.04774891, -0.029292762, 0.18081594, -0.117361724, -0.11016077, -0.06260064, 0.15381394, 0.066620335, 0.13451537, -0.063493244, -0.022385905, 0.12796077, -0.11812735, -0.0002855609, -0.13102293, -0.054708965, -0.07649139, 0.08930165, 0.062596396, -0.10336599, -0.18666211, 0.05902831, 0.19280209, -0.020441681, 0.025517158, -0.013295092, 0.11884828, 0.019854777, 0.119549476, 0.06240225, -0.032184847, -0.13658433, -0.01613037, 0.24534994, 0.016083255, -0.22920515, 0.10715683, -0.012210822, -0.030156635, 0.043319, -0.09206536, -0.05390668, 0.031404257, -0.05003821, -0.089701824, 0.006464902, -0.1670231, -0.09028095, -0.0020345598, 0.094927624, 0.061691135, -0.035305787}, 
{0.044756994, 0.2042359, 0.11628991, 0.013751909, -0.07561653, 0.04094139, -0.022124985, 0.022579005, -0.09817617, -0.12026832, -0.04585001, 0.11414294, 0.12086488, 0.10749833, -0.12181599, -0.11660162, 0.01609221, 0.010884553, 0.120725304, 0.12630104, -0.14833687, 0.0065283775, 0.06511771, 0.07266306, 0.1163234, 0.18088435, 0.07979559, -0.09648018, 0.13775696, 0.036503583, -0.07129995, -0.04784126, -0.15783262, 0.103386365, -0.0546313, -0.08084032, -0.12427794, -0.03287102, 0.027598366, -0.121009275, 0.007290184, -0.053180218, 0.004110284, -0.11636645, 0.19772139, -0.011840714, -0.10953456, -0.10091591, 0.064557016, -0.113483384, -0.06279572, -0.03773091, 0.051950768, -0.09860682, 0.022729471, -0.04388745, 0.11850689, 0.11980499, -0.07990241, 0.11067216, -0.020472154, -0.12737839, -0.04041599, 0.09687061}, 
{0.243778, 0.07828278, -0.012168893, 0.008006871, 0.30876315, 0.036912654, -0.12332197, -0.07525994, -0.06252167, -0.019036239, -0.0022958196, -0.00025500802, -0.0019919276, -0.15713356, -0.10996451, -0.034254096, 0.10607209, 0.06764774, 0.27662137, 0.19253662, 0.052488785, -0.044590242, 0.1221948, 0.07377111, -0.109809555, 0.18866669, 0.048482843, -0.118917644, 0.008315349, -0.099124655, 0.0016426067, -0.039158866, -0.21949877, -0.06887944, -0.005328265, 0.009411529, -0.0748964, -0.07970501, 0.11847173, 0.10230401, 0.16547854, -0.0492127, 0.19115527, 0.062496103, 0.23598461, -0.21573465, -0.043498017, -0.020596126, 0.0072626024, -0.042013027, 0.20916493, -0.11978348, -0.057011656, -0.018674938, 0.1323006, 0.0071660406, -0.02876731, 0.3281412, 0.052243035, 0.039215997, -0.05417993, -0.0068960944, 0.007769225, -0.030996073}, 
{0.15675928, 0.017534202, -0.15414423, 0.07621868, 0.32642287, -0.13574897, 0.10880911, 0.061951157, -0.12290938, -0.041291274, 0.006541304, 0.032788724, 0.11350267, 0.19300947, -0.13905285, 0.03176634, -0.043611586, 0.08810784, 0.18046293, 0.14091092, 0.09063906, 0.13135411, -0.110556565, 0.09849863, -0.03159471, 0.13780881, -0.1244944, -0.06390404, -0.114505224, -0.07736436, -0.12746377, 0.121161036, -0.20534521, -0.11744473, -0.29013994, 0.10384774, -0.13190952, 0.058817774, -0.09034093, 0.13323133, 0.1496196, -0.025317974, -0.026666839, 0.08901863, 0.12568036, -0.0022367302, -0.1152782, 0.04724442, 0.053793624, 0.07243266, 0.3455131, 0.026314452, -0.09760332, 0.050209187, -0.117770694, -0.14704108, 0.053574458, 0.40594697, -0.20751436, 0.10191399, -0.14157651, 0.03673445, -0.06423735, -0.08566762}, 
{-0.047368098, 0.08754202, -0.015640752, -0.11060102, 0.25971824, 0.0802443, -0.0844919, 0.30360043, -0.022933938, 0.116543785, 0.11552461, -0.08556803, -0.13597743, 0.28649244, -0.10580341, 0.037563473, 0.06512821, 0.0019569248, 0.18127796, -0.07848922, -0.009885655, -0.09848174, 0.12508698, 0.0038979142, 0.013513267, 0.1110135, 0.025583684, -0.045702495, -0.12994291, 0.09655854, -0.07569832, 0.057020545, -0.26075166, -0.08763936, -0.37270322, -0.07120704, 0.020470932, 0.17149486, -0.09352543, 0.07867367, 0.19130602, -0.07015401, 0.014770645, 0.13585389, 0.09595981, 0.035010908, -0.09091933, 0.3659971, -0.1439775, -0.06663639, 0.068853974, -9.286404e-05, -0.093813255, 0.040495776, -0.033689603, 0.07134943, 0.073436245, 0.067131184, -0.2740914, -0.093564704, -0.12006192, -0.052215893, -0.050790817, 0.0976438}, 
{-0.116532356, -0.1283418, -0.08392401, 0.13201256, 0.12791511, -0.12451937, 0.12535335, 0.03388123, -0.11188696, -0.13312083, -0.06294515, 0.06723537, -0.12512976, 0.12080664, -0.1653403, 0.0923384, 0.10048243, -0.078083, 0.091884285, -0.15363903, -0.079480715, -0.08326521, -0.14347602, -0.04936428, -0.05061362, 0.063554786, -0.053976435, 0.09127936, -0.20806232, 0.09328471, 0.061241757, -0.036435887, -0.19174002, 0.016615536, -0.17660816, -0.13816257, 0.076051526, 0.15774427, 0.015505478, -0.07141088, -0.018925002, -0.11612917, 0.065539725, -0.01252145, 0.12930277, -0.032877155, -0.0006763041, 0.4287343, 0.13321932, 0.019774226, -0.12825109, 0.06857827, -0.01807569, -0.06568601, -0.13146521, 0.09712657, 0.14085566, -0.032765593, -0.17882758, -0.10839967, 0.027474388, -0.12585428, 0.036054216, -0.10771572}, 
{-0.19583367, -0.34922847, -0.10102996, -0.0017964989, 0.20873584, -0.1287653, 0.037849437, 0.123032056, 0.08706638, -0.14232464, -0.057840284, 0.09980329, -0.14155291, 0.056827065, -0.18586177, -0.027672127, 0.12147839, 0.024749458, -0.019917974, -0.23600365, -0.12046844, 0.13061284, 0.07731066, 0.0054749623, 0.09436922, 0.13208845, -0.011347069, 0.14012201, -0.103538305, 0.124063246, 0.05560731, -0.13822027, -0.09671639, 0.021224333, 0.08859526, 0.06080754, 0.20012927, 0.12434141, 0.029056564, -0.13464496, -0.121978976, 0.12989037, 0.07247633, 0.104243614, 0.24342114, 0.07472616, 0.01207751, 0.14527342, 0.09949605, -0.14530525, -0.0053016413, 0.10843848, -0.069724, -0.08195774, -0.1096537, -0.09796557, -0.09945616, 0.085173324, -0.11988235, -0.09648359, 0.038273826, -0.1015053, 0.0618296, -0.0072146934}, 
{-0.34890205, -0.21784075, -0.053228322, -0.01880674, 0.20196658, 0.12299045, 0.11906206, 0.05102569, 0.12585206, -0.128477, -0.03856122, 0.110488445, -0.035648763, -0.074438825, -0.10102205, 0.100337386, 0.09516419, -0.05392451, 0.0094011715, -0.1860401, -0.10377898, -0.11474236, -0.018490398, -0.04176413, -0.06370658, 0.1491805, -0.12525466, -0.09419893, -0.11147367, 0.032736685, 0.07757984, -0.02824223, -0.1513352, -0.16275284, 0.07772103, -0.06370534, 0.043757893, 0.08390271, 0.13067858, -0.008211995, 0.07630897, -0.09360592, 0.108003795, -0.1260309, -0.0007555119, -0.010115718, -0.13477881, 0.28393278, -0.013954043, -0.06419482, 0.036611635, 0.10536587, 0.09957878, 0.024296826, 0.08615665, -0.0034358078, 0.13066293, -0.03593059, -0.0543136, 0.11335565, 0.1026617, -0.06052711, 0.15626791, -0.05114494}, 
{-0.24907567, -0.1178814, -0.0069944276, -0.048060425, -0.11085997, -0.094872065, 0.05156764, 0.18175262, -0.106544666, -0.064812824, -0.08362478, 0.1308422, -0.02556628, 0.053468294, -0.12504764, 0.08987516, 0.008178859, 0.10975231, 0.06913517, -0.05383989, -0.06702834, 0.08548793, -0.0062541575, -0.017942557, -0.13329116, 0.13018163, -0.051939655, 0.1437789, -0.14928275, -0.12806374, 0.12955263, 0.025366616, -0.14170356, -0.096818626, 0.26822478, -0.09187153, 0.106608205, -0.07890417, 0.06544818, 0.08049579, -0.03977724, 0.061503842, 0.0825632, 0.111442424, 0.08265527, 0.051642418, -0.09990928, 0.03597869, -0.08086818, -0.05806195, -0.11358001, 0.062576085, 0.07943014, -0.1313397, -0.0061354786, 0.058378108, 0.067453474, -0.0059214155, -0.075045444, 0.08768615, -0.0027191192, -0.07329419, 0.10620679, 0.08127096}, 
{-0.06864361, -0.012234579, -0.12954187, 0.025828809, 0.17235675, 0.080767535, 0.051788494, 0.26872325, -0.08950261, 0.08702547, -0.12336528, -0.0056631393, 0.050055146, 0.07099666, -0.079568006, -0.03158839, 0.0056347945, -0.02385106, 0.014366252, 0.02638431, -0.015370713, 0.0714809, -0.021134371, -0.15426826, -0.135031, 0.06269318, 0.03945599, -0.10221163, -0.10157639, -0.017923784, -0.080865934, 0.15132682, -0.17946324, -0.3245009, 0.117874175, -0.1093449, 0.0929329, 0.0888038, 0.073370636, -0.14009367, 0.026450073, -0.06380778, 0.10612071, 0.11199335, 0.09904454, 0.040653173, -0.011039659, -0.1764704, 0.08617303, -0.14069468, 0.09638137, 0.09520894, -0.0067893895, -0.017252564, 0.025386915, -0.10500495, -0.06984507, -0.11783824, 0.010914885, -0.109463856, -0.13587599, -0.09610563, -0.032080688, 0.052702613}, 
{-0.18692344, -0.036168125, 0.12160746, -0.0659486, -0.15448949, -0.02899625, -0.011234027, -0.008954609, 0.015078396, 0.042650726, -0.11314173, -0.0082222475, 0.07183443, -0.014057187, -0.1882275, -0.039433107, 0.1308178, -0.12704568, -0.03258733, -0.028293675, 0.07388688, 0.076044515, -0.11735687, -0.1266758, 0.11391096, 0.15320683, 0.0754236, 0.016718864, -0.025805201, -0.05574096, 0.056531936, -0.10136299, 0.15942067, -0.20600276, 0.33762327, 0.112887874, -0.017045837, -0.041756332, 0.006265536, 0.07214255, 0.0133058615, -0.10547797, 0.004789676, 0.11099001, -0.104726635, 0.19087338, -0.09731455, 0.034350187, -0.1278428, -0.06497947, -0.03203619, -0.005646497, -0.12200346, -0.0011491342, -0.021780558, 0.086127885, -0.013181448, -0.041553725, -0.09294384, -0.12576358, 0.11317985, -0.15352821, 0.09945657, 0.0026504137}, 
{-0.033357747, 0.17131457, -0.026758179, 0.0631077, -0.084263384, -0.07108637, -0.036359407, -0.029730108, -0.083600596, -0.09709989, 0.09548468, 0.12106699, -0.13518687, 0.055528417, -0.0803496, -0.10619533, -0.12342684, -0.037126705, 0.22949147, -0.014588465, 0.059536327, -0.037047416, -0.018512305, 0.012873415, -0.01042673, 0.12476987, -0.11078061, -0.11225643, -0.06813627, 0.09457351, 0.10412678, -0.026405353, -0.23583, -0.034017965, 0.2786356, 0.08625892, 0.09688151, -0.042828653, 0.061219543, -0.11384361, 0.007093295, 0.040447623, -0.012032001, -0.05897221, -0.2604902, 0.11680177, -0.07599433, -0.18100749, -0.119969845, 0.10265543, 0.04200461, -0.115685426, -0.07052738, -0.09603429, -0.14288935, 0.03231473, -0.012092933, 0.08659408, -0.026408846, -0.007112384, -0.13095805, -0.029014092, 0.024682237, -0.08352174}, 
{0.05781253, 0.15421526, 0.057183523, -0.10031977, -0.07868948, -0.11780919, -0.08147033, -0.114234835, 0.017066613, 0.01370675, -0.03152059, -0.021720586, -0.0046101958, 0.041638993, 0.12895203, -0.033330783, -0.09753294, -0.053619422, 0.031409394, -0.07327646, -0.0679545, -0.07695027, 0.120543696, -0.00059693225, -0.059644967, 0.08226241, 0.053325836, 0.1339079, 0.055189822, -0.079210065, -0.005851336, -0.16832177, -0.13129815, -0.11524082, 0.12592407, 0.08741775, -0.0021883615, -0.012436545, 0.05340685, -0.067370154, 0.1555399, -0.025551543, 0.1892817, -0.13210672, 0.011947635, 0.19032261, 0.05991581, -0.3196086, 0.10262813, -0.010279264, 0.19857645, -0.07402805, 0.09507448, 0.06369538, 0.07888202, 0.07725688, 0.11387353, 0.17854431, -0.08392109, -0.058224842, 0.0919189, -0.03814208, 0.039851546, 0.022427348}, 
{-0.061718103, -0.0013160445, 0.12818868, 0.0041891336, 0.011266138, 0.054492187, -0.14949381, -0.09855596, -0.13859947, 0.014739998, -0.052950986, 0.11371115, 0.0341814, -0.1305094, -0.11242448, 0.0516973, -0.07159461, 0.027858913, -0.03618976, -0.06451808, -0.005839233, 0.070136875, -0.12696402, -0.14470176, -0.12476253, 0.044509046, -0.13682339, -0.09477246, -0.0054970062, -0.12630324, -0.03764399, 0.17170951, 0.15886767, -0.00064723054, -0.027264377, -0.014159039, 0.27374315, 0.07381125, 0.028295636, 0.010834384, -0.01867581, 0.09313917, 0.061625343, -0.05103042, 0.10207832, -0.09068573, -0.061544247, -0.07014389, 0.07416399, 0.040791515, -0.14135666, -0.038062178, 0.00024410851, 0.078244776, 0.11538862, -0.08634943, 0.1284063, 0.033235524, 0.08762862, -0.03454362, -0.13609715, 0.009451501, -0.1096917, -0.005258926}, 
{0.056241184, 0.0837477, -0.0333383, -0.016320094, -0.11855885, 0.08160156, 0.12534665, -0.031588376, 0.11563651, 0.108461864, 0.059449077, 0.027611008, 0.011153549, 0.0702422, 0.070727915, 0.085290834, 0.022222783, 0.12822191, 0.24400325, -0.109240964, 0.114123054, 0.062129244, -0.10222014, -0.10363387, 0.062343344, 0.07411746, -0.14377658, -0.11321533, 0.010850593, -0.12927803, 0.13624083, 0.048815306, -0.105164975, 0.020088844, 0.11553772, -0.0848559, 0.033131845, -0.015021332, 0.0444182, 0.051647563, -0.10889526, 0.09217453, 0.07705694, -0.11005975, 0.14470497, 0.060990874, 0.13896005, -0.21393637, 0.12136178, 0.08342208, -0.05191808, -0.13307706, 0.116030805, -0.07125691, -0.047164425, 0.13153829, -0.01427494, -0.08181855, 0.085176446, -0.052418917, -0.046235375, -0.027120957, 0.16871135, 0.019569993}, 
{0.03690125, 0.36919138, 0.0539441, -0.018228203, 0.0742427, -0.1361985, -0.08186356, 0.040476944, -0.08482917, 0.004607731, -0.14662704, 0.12575299, -0.083248064, 0.04448826, -0.015756097, -0.09153697, 0.048163086, -0.1263839, 0.32906115, 0.091139786, 0.09164118, 0.027173325, -0.039171465, 0.08744908, 0.10635708, -0.020956106, 0.001209497, -0.029838093, 0.048367623, 0.0012813509, -0.012096344, 0.0022453892, -0.14142066, 0.1703328, 0.03502082, -0.08474401, 0.077900454, 0.03755923, -0.06424489, -0.026174154, -0.03141461, 0.13904221, 0.096727535, -0.13598451, 0.11257037, 0.15405329, -0.1188611, 0.01954836, 0.13921632, -0.06331813, -0.1700467, -0.006067738, -0.13358687, -0.105854265, 0.045336634, -0.065023415, 0.01994899, 0.22213623, 0.014201644, 0.112387314, 0.10336129, 0.07246, -0.063724, 0.12085442}, 
{0.103533864, 0.09188784, -0.037993636, -0.07660914, 0.00642678, -0.09455256, 0.024563417, 0.053714637, 0.07508111, 0.003848713, -0.0376102, 0.11954404, 0.103311926, 0.022732005, -0.2737883, -0.13618115, 0.020676337, -0.10643694, 0.15254122, 0.26877645, 0.13509226, -0.03412932, -0.11532259, -0.049136005, -0.10435513, -0.030162677, 0.10090977, 0.11740209, 0.098070666, 0.048067965, -0.115441225, -0.04767913, -0.20051657, -0.11109158, -0.16548622, -0.11355086, 0.12284081, -0.05546696, 0.07897343, 0.12699223, 0.19702677, 0.018442705, 0.11688251, -0.10383221, 0.22896796, 0.118563905, -0.025581054, 0.055255674, 0.021515697, -0.012632262, -0.051823314, 0.010179803, 0.022250883, -0.016344769, -0.06604891, 0.10291691, 0.039860904, 0.17197885, 0.03757933, 0.060246006, -0.12980351, -0.029239863, 0.012108654, 0.05319402}, 
{-0.002905016, 0.03407608, -0.15644114, -0.08923823, 0.36255753, 0.07501876, -0.07245366, -0.027820991, 0.0040665865, 0.07280046, -0.11432976, 0.03946449, -0.010950044, 0.063948065, -0.16204746, -0.002692014, 0.094577, -0.13959928, 0.28797224, 0.17803332, 0.003468078, -0.03388191, -0.10554592, 0.07166753, -0.119847864, 0.11155734, -0.038873523, 0.050229862, -0.105709866, 0.038964257, 0.10682584, 0.11886635, -0.2338859, -0.14348689, -0.13854875, 0.12109502, 0.079134576, 0.22976235, 0.012395591, 0.050606187, 0.17845826, 0.025424853, 0.14414567, 0.12196722, 0.119595334, -0.18371643, -0.015400007, -0.053181447, 0.070999995, 0.03885508, 0.026890188, 0.023924157, -0.06590976, 0.048364796, 0.106397256, 0.083988115, -0.1288467, 0.17823148, -0.13435644, -0.10137232, 0.14187007, -0.058168482, -0.056808215, -0.12733288}, 
{-0.004982148, 0.028897408, -0.14522427, -0.09406491, 0.16490296, -0.04658339, 0.0967035, 0.073713385, 0.0413844, -0.14104737, 0.11325662, -0.14523041, -0.07426203, 0.09617399, -0.2531136, -0.05403798, -0.10867767, -0.12843412, 0.03547855, 0.20703535, 0.09202912, -0.08435688, -0.12597564, 0.013702537, 0.08762534, 0.06987698, 0.113035694, 0.014313802, -0.2394905, 0.0984924, -0.051479444, 0.19560762, -0.33964896, -0.079461105, -0.57423276, 0.098504856, 0.13337888, 0.13308628, 0.053174093, 0.02890512, 0.20956078, 0.013512686, 0.33109957, -0.08010945, 0.07418983, -0.1738046, -0.015744671, 0.23848686, -0.11473738, 0.064685114, 0.20894748, -0.1281055, -0.13451989, 0.07096492, -0.1193395, -0.15026218, 0.0478262, 0.08574147, -0.027383566, 0.13324408, 0.055742383, -0.15452328, -0.031804428, -0.014163162}, 
{-0.11109122, -0.062146332, 0.1308556, -0.032592773, 0.44332802, -0.051755708, -0.06829639, 0.20359321, 0.047731906, -0.10812255, -0.092814244, 0.055992447, 0.11135937, 0.1859381, -0.14914975, 0.016882107, 0.047873702, 0.0973465, 0.20227104, -0.07590302, 0.06066531, -0.006032586, -0.068475895, -0.104881436, -0.0059847385, 0.0447855, -0.081139065, -0.0028321743, -0.22243252, 0.019302435, -0.11149019, 0.12549739, -0.34850028, 0.12003838, -0.49182218, -0.083198935, -0.044865783, 0.07015987, -0.05484394, 0.115092225, 0.0712389, 0.0867589, -0.02386048, 0.13844253, 0.12001579, -0.029046196, 0.07346906, 0.043306068, -0.01963105, 0.028725905, 0.06960802, 0.057238564, 0.10190292, -0.08629361, -0.13790601, 0.05718807, -0.059516415, 0.12058605, -0.22042057, 0.016579151, 0.13350494, -0.025542717, 0.007198579, -0.10870668}, 
{-0.17213266, 0.0038941505, -0.110550575, 0.09986088, 0.32139373, 0.12531905, -0.102965385, 0.40079638, -0.119216725, 0.1258834, -0.08641531, -0.067607425, 0.07917254, 0.06826504, -0.06814007, 0.047447667, -0.10976918, -0.112130865, 0.076503046, -0.26736897, 0.07430007, 0.022544846, 0.007612386, 0.060358368, 0.049919173, 0.06810258, -0.017420517, -0.032783672, -0.2805191, -0.04348263, -0.096283026, 0.06365352, -0.34042692, 0.0949034, -0.22691777, 0.019975647, 0.08652078, 0.17368339, -0.004570648, 0.01711225, -0.3386535, -0.035344705, 0.08850128, -0.010370475, 0.20712103, -0.3065102, -0.0900907, 0.31558517, 0.024185792, -0.07384549, -0.10916004, -0.03951233, -0.08873702, -0.09283483, 0.007976949, 0.037869707, -0.08182687, 0.13014145, -0.24494071, 0.07700056, -0.105434954, 0.014409998, 0.16048999, -0.087519206}, 
{-0.20759384, -0.20822717, -0.1229442, 0.015919939, 0.12689684, 0.027517803, -0.10501407, 0.20363988, -0.07261353, 0.13919842, -0.03897898, -0.07223217, -0.13173477, 0.06152491, -0.09042098, 0.049448505, -0.0023949156, 0.034005716, 0.027806554, -0.21885072, 0.019698415, 0.017260611, 0.11539816, 0.06580241, -0.11053441, -0.07249268, -0.11458396, 0.10353635, -0.31944636, 0.097291596, 0.13297641, -0.24060644, -0.33631414, -0.12572512, -0.13232304, -0.036473274, 0.103072636, 0.12671591, -0.083775595, 0.073602974, 0.016528891, -0.012763783, -0.021246519, 0.0031669633, 0.116008066, -0.29317385, -0.08336446, 0.3670138, 0.0401662, 0.011731765, -0.09917628, 0.11653148, 0.030150773, 0.12188277, -0.10370012, -0.039645355, -0.042083554, -0.059640184, -0.226905, -0.025845952, 0.08142054, -0.06415157, -0.20398675, 0.08774063}, 
{-0.22489423, -0.12337749, -0.044712275, -0.010567278, -0.045081638, 0.0123219155, 0.050053652, 0.08016876, 0.019340187, -0.025552105, -0.053102665, 0.005613678, 0.12769969, 0.042357184, -0.30686504, 0.07545243, 0.047203228, -0.0596719, 0.10616479, -0.27841645, 0.06555084, 0.06771968, -0.12355757, -0.049961224, 0.059502393, 0.028690835, -0.09824528, -0.04346545, 0.023640025, 0.04993199, -0.058324642, 0.15115447, -0.21726531, -0.42984933, 0.115933776, 0.045990303, 0.1361346, -0.051419757, -0.024464779, -0.0547584, -0.0931326, -0.04929851, 0.060405623, 0.03174059, 0.070390284, -0.11563754, -0.083532065, 0.12309597, -0.0002811104, 0.08415073, 0.111891836, -0.039266735, 0.10432936, 0.008528889, -0.119853705, 0.017836483, 0.057430834, -0.058580052, -0.06457746, 0.08295871, -0.12302811, -0.078286834, -0.08425419, 0.08163581}, 
{-0.25785187, -0.13027096, 0.06826493, 0.0076111853, -0.130987, 0.13472122, -0.05497753, -0.06307349, -0.13132676, 0.02835464, 0.10345053, -0.08712168, 0.052814424, 0.23514824, -0.30623204, 0.049934074, 0.12025882, -0.014114141, -0.21075173, -0.10217414, -0.14431411, 0.12851565, 0.054724652, 0.098956615, -0.06299553, 0.06275196, -0.12428055, -0.025201172, -0.16353941, 0.07047415, 0.038157806, 0.024388356, -0.2188039, -0.2682177, 0.07658152, -0.04903499, 0.033697333, -0.11647431, -0.022001073, 0.09392579, -0.062291753, -0.09209493, -0.22034907, 0.008906569, 0.024417667, 0.25087574, -0.09486342, 0.10866414, 0.10063644, 0.002578053, -0.073167145, -0.124169424, -0.14131247, -0.09260547, 0.013787672, -0.13968426, -0.003938034, -0.14054148, 0.022238538, -0.019427128, -0.11699535, 0.0939598, -0.033275135, 0.087124206}, 
{-0.15554754, -0.09600267, -0.025422389, 0.10880451, -0.14817508, -0.0128857, 0.12841171, 0.010992241, 0.0260835, -0.011410856, 0.1171344, 0.08845293, -0.03432311, 0.19837919, -0.18969707, 0.079672724, 0.009854877, 0.14400716, -0.07893647, -0.11660743, -0.09184473, -0.13365738, -0.0150025925, -0.033028327, 0.042088017, 0.18260968, -0.07475088, -0.0008265674, -0.008119673, -0.106869034, 0.122862704, 0.026939437, -0.14896008, -0.33831105, 0.15311795, 0.06639372, 0.12866077, 0.16163558, 0.090881824, 0.12977101, 0.07878832, 0.054352894, -0.2802484, -0.0064484747, 0.07531894, -0.0480584, -0.07294717, -0.09620991, -0.12287904, -0.061184388, 0.17331201, -0.14199638, 0.018801587, -0.14677268, 0.046268255, -0.055931486, 0.13226165, -0.22252373, -0.09287743, -0.0140532255, -0.024357803, 0.10659277, -0.014486437, -0.050425496}, 
{-0.17825359, 0.100587085, -0.13104409, -0.04303088, -0.14731897, 0.07257832, 0.027012963, -0.05073455, -0.10361922, 0.097400635, -0.10106552, -0.043600947, -0.05512464, 0.34942544, -0.07016857, -0.098791085, -0.09686001, -0.083551675, 0.020820217, -0.0745096, -0.09237816, -0.06780391, -0.02894877, 0.043547098, -0.123910606, 0.18205698, 0.0874313, -0.0021909475, -0.19447511, -0.14714934, 0.00664984, -0.042262383, 0.097049564, -0.1650516, 0.18913555, -0.094406486, -0.0316158, 0.044538457, -0.105338424, 0.09418699, 0.26409888, -0.008615047, -0.16193987, 0.068391494, -0.15451212, 0.22476244, -0.06406182, -0.28584227, -0.066835396, -0.008961825, -0.027034955, 0.005248815, 0.08437018, 0.003314195, -0.068552844, -0.11371844, -0.10949993, -0.12193711, 0.102106944, 0.07424636, 0.026978329, -0.10387033, -0.15408419, 0.06474995}, 
{-0.14636303, 0.10270659, -0.020451667, -0.041712403, -0.04239295, -0.036783185, -0.13931167, -0.01992508, -0.07185707, 0.07574837, -0.13878582, -0.02282745, 0.13524963, 0.0047467626, -0.13569133, 0.08787821, 0.11336647, -0.04453332, -0.050682757, 0.088552564, -0.120838694, -0.034811333, -0.06544276, -0.046100713, -0.10136016, 0.084142804, -0.092285424, 0.033869103, -0.23864062, 0.064853124, 0.08298816, -0.10675382, -0.17979607, -0.015078234, 0.06079404, -0.12274122, 0.17898433, 0.07522292, 0.0052780956, 0.07576643, 0.33335388, -0.0073842853, -0.20424514, -0.081056505, -0.003757957, 0.042794805, 0.10673095, -0.28183585, 0.09589648, 0.023260163, -0.04270419, -0.061646968, -0.05311028, -0.06497701, -0.057187647, -0.10059851, -0.016197309, -0.19320051, 0.025618345, -0.09593232, -0.13878879, -0.1365386, 0.12715048, 0.053872813}, 
{0.043736547, 0.26593024, 0.06064909, -0.06254918, -0.15382396, -0.07019672, -0.11080781, -0.12419712, 0.09260817, -0.1345085, -0.002694404, 0.11601414, -0.059526414, -0.0035401355, 0.044047296, 0.06508081, -0.14594717, 0.11784382, 0.02931048, 0.15740496, 0.13644037, -0.063965425, 0.047447104, 0.057146333, -0.112426475, -0.080096036, -0.014537985, -0.11669081, -0.07015925, 0.1230985, 0.092696026, 0.01179986, -0.122192174, -0.09392473, 0.14245178, 0.12324019, 0.14487278, -0.05032644, -0.072527096, 0.09065746, 0.091549926, 0.045389906, -0.003916312, 0.026826046, -0.041132946, 0.011936844, -0.13067089, -0.2823628, 0.12646706, 0.03926895, 0.1865277, -0.017598823, 0.12905477, -0.1485544, 0.122688696, 0.12788256, -0.042211972, 0.058544956, 0.017770693, -0.12253971, -0.08939625, -0.084676474, -0.09865856, -0.09636969}, 
{0.00809738, 0.06531522, 0.08066281, -0.04143796, 0.07778833, 0.011305121, -0.050801404, -0.023116823, -0.07903461, 0.07314619, -0.11025032, -0.12428851, -0.118581325, -0.10535011, -0.03463398, 0.12511586, 0.06943224, -0.103690125, -0.1949074, 0.08399301, -0.0025943117, 0.059930608, 0.048495576, 0.09658108, 0.14351933, -0.11840653, -0.021524034, 0.0059671104, -0.0055037886, -0.053691097, -0.13616785, -0.019538151, 0.21800965, 0.00049965054, 0.15581867, -0.13345546, 0.11649492, -0.014989049, 0.12786503, 0.12715253, 0.08163443, -0.084783204, -0.12371211, -0.08436295, 0.00060120644, -0.15142976, -0.05894179, -0.15404369, 0.14369829, 0.105699085, -0.10588282, -0.012815416, -0.1272184, 0.11128132, -0.06391266, 0.0010496154, 0.028696403, 0.17778446, -0.020814033, 0.07986514, -0.11268186, -0.045396037, 0.08310836, 0.011389154}, 
{0.11395488, 0.06113442, 0.07937162, 0.0013526529, -0.04091059, 0.10917153, -0.13828225, 0.03997917, -0.06159897, -0.14583401, 0.024661252, 0.075832516, -0.049038388, 0.06983694, -0.1803817, -0.140962, 0.06844911, -0.1329335, 0.13131632, 0.1368391, 0.10835645, -0.089052, -0.06815069, -0.12903953, 0.046805978, 0.071479626, -0.10803254, 0.0031384379, -0.10543519, -0.022719748, 0.07398978, 0.0058935476, 0.011901679, -0.0909685, -0.025228381, -0.015518531, -0.12481884, 0.25799012, -0.1267636, 0.057524916, 0.124046065, -0.07987733, 0.12981753, 0.103926115, -0.006875461, 0.070092864, 0.008004457, -0.16651748, -0.081377566, 0.085920535, 0.138819, -0.1342727, 0.05442731, -0.105049476, -0.12824741, 0.038439583, -0.118742585, -0.17456745, -0.137526, -0.039961874, -0.13262796, -0.062986754, 0.08316004, -0.023546802}, 
{0.07201909, 0.019586708, -0.08617229, 0.122735485, -0.061334368, -0.04242953, -0.048739225, 0.062466066, 0.02928938, -0.12979394, -0.06674939, -0.08668432, -0.014692649, -0.06445299, 0.005916962, 0.10695319, -0.117604695, -0.078827605, 0.2699753, 0.25869274, -0.10424897, -0.045370713, 0.056477524, 0.09551524, -0.07820509, -0.040522348, 0.037965234, 0.116840914, 0.17844391, 0.00584058, 0.038445584, 0.133224, 0.0823679, 0.20931683, 0.07161257, 0.033160836, -0.072114825, 0.057093933, -0.092036225, -0.06640043, 0.05192263, -0.11398343, 0.02388971, -0.12982662, 0.10122655, -0.12688814, 0.10333601, 0.07658336, 0.08966118, -0.02435122, 0.029289918, 0.00854291, -0.13882634, 0.045551367, 0.11153628, -0.051010795, 0.075441, -0.012084925, -0.1301989, -0.07121618, -0.09211723, -0.09694168, 0.034307938, 0.13357952}, 
{0.058137223, -0.17035699, -0.048723277, 0.082864925, 0.190873, -0.05212291, 0.12802996, -0.028795771, -0.043382347, 0.044506468, 0.1252938, 0.064827554, 0.12543423, 0.0846689, -0.16647719, -0.0148334205, 0.066003054, 0.008964866, 0.29906523, 0.41056117, -0.10134534, 0.082366556, -0.085019685, -0.111178845, -0.06525659, 0.04578073, 0.092823066, 0.11476864, 0.06991803, -0.12667741, -0.14731495, 0.023314098, -0.0051279464, -0.0062007257, -0.25285706, 0.12430383, 0.0035130777, 0.105737545, -0.03880465, -0.093643405, -0.009049565, 0.041194364, -0.10854428, -0.10145607, 0.059261553, -0.22129342, 0.009511083, 0.12865509, -0.11579986, -0.13892525, -0.04678583, 0.10628082, 0.04649236, 0.028368095, -0.09128986, -0.060943335, 0.075128585, -0.0117505975, 0.09206957, 0.09449704, 0.053777337, -0.1447066, -0.11910782, 0.080394365}, 
{-0.09780643, -0.1795837, 0.059643228, -0.13555214, 0.19526096, -0.10307915, 0.098502986, 0.03498608, -0.08653116, 0.08817235, 0.040658448, 0.10155286, -0.02980505, -0.051324606, -0.013324281, -0.0014968663, -0.095184594, -0.012805834, 0.26294667, 0.45859316, -0.14058556, 0.008950517, 0.039733317, 0.0840848, -0.020474486, -0.17602502, -0.042856257, 0.14189066, -0.0541853, -0.08962478, -0.04870093, 0.16248883, -0.13490517, 0.14356916, -0.3791669, 0.08515172, 0.09749619, -0.1253593, -0.054442555, -0.019984117, 0.036556337, 0.14066006, 0.15576948, 0.009918445, 0.19727321, -0.25494915, 0.038598806, -0.07313828, -0.02829653, -0.13845322, 0.25366786, 0.035404652, 0.120774694, 0.049999893, -0.08443418, -0.10237912, 0.03333415, 0.22874093, -0.06812515, -0.0748505, -0.081544936, 0.02141701, -0.08938728, 0.003113447}, 
{-0.24691105, -0.27285656, 0.07385481, -0.096346654, 0.35610786, 0.010791409, 0.10728066, 0.13848715, -0.06332969, 0.015893312, 0.039202206, -0.00720435, 0.04875192, -0.088523686, -0.043806914, 0.112803474, -0.14045855, -0.075015984, 0.24723792, 0.20511205, 0.06369511, 0.10463092, 0.13794675, -0.041947532, 0.08743641, -0.07266948, -0.11165683, -0.14025241, -0.23726568, -0.07842369, -0.042170003, 0.12102023, -0.008940309, 0.039083358, -0.65525347, -0.08329938, 0.08553906, 0.20293252, -0.07948468, -0.07098222, -0.04381973, 0.11284135, 0.48416495, 0.042655498, 0.07427466, -0.33138654, 0.020356938, -0.12290225, -0.11699164, -0.14184232, 0.1862704, -0.08423947, 0.042099353, -0.14029835, -0.11069896, -0.008784697, 0.022846088, -0.13755657, -0.06028959, 0.06740455, -0.13356274, 0.03553689, -0.08491619, 0.073815435}, 
{-0.25433716, 0.013298919, 0.007522059, -0.11396505, 0.64729595, 0.122722425, -0.11811597, 0.19750501, 0.124432966, -0.00056235766, -0.09631548, -0.088982284, 0.1376584, 0.14309436, -0.39168048, -0.10071878, 0.034268476, -0.025612243, 0.22523922, -0.49555424, 0.13005388, -0.12004921, -0.060498837, 0.057010237, -0.103790954, 0.19039845, -0.007830155, 0.005295649, -0.3260132, 0.03187033, -0.016451212, 0.044099286, 0.03864434, 0.019004926, -0.8265442, 0.11222829, 0.06735942, 0.0448689, -0.061015792, 0.026589317, -0.25834894, 0.05971141, 0.4052226, 0.12773772, 0.20456845, -0.44874263, 0.07032186, 0.044478588, 0.02191478, 0.06378464, 0.11525027, 0.05349125, 0.08072894, 0.12070147, -0.06745399, -0.14465012, 0.046028644, -0.13176225, -0.09430833, 0.10270405, 0.0228955, -0.011817582, 0.07170964, 0.002789162}, 
{-0.0520311, 0.29894736, -0.085549325, 0.0058662444, 0.18479395, 0.09138858, 0.034893993, 0.29296297, -0.10743967, -0.07817287, -0.019758541, 0.08417982, 0.061200514, 0.09986808, 0.06130944, 0.019599408, 0.12970045, 0.115530625, 0.14905901, -0.39745197, -0.05204134, -0.049582645, -0.055145185, -0.16130333, 0.050965056, 0.038456313, -0.07433612, 0.014756575, -0.07158448, -0.0107845, -0.114658155, 0.049329717, -0.48836556, 0.26097435, -0.13231666, -0.12917131, 0.1126127, 0.1012968, -0.09263572, 0.05871072, -0.35802218, -0.01225543, -0.035121463, 0.07922332, 0.2171444, -0.42721826, -0.07604963, 0.3761292, -0.006278664, 0.09873735, -0.14063694, 0.084101945, -0.11791976, -0.03969236, -0.082525924, -0.030987155, -0.010076225, 0.22040312, -0.08963885, 0.046139047, -0.12832159, 0.09629615, -0.0071967756, 0.029202018}, 
{-0.32297787, -0.1312936, 0.010602695, 0.085577965, -0.05371703, 0.111027375, 0.082276516, 0.36299047, 0.09060906, 0.10370853, -0.09894473, -0.09019116, 0.035520688, 0.009147456, -0.0972576, -0.11275534, 0.022134524, -0.13772886, 0.02030401, -0.21471742, 0.022945624, 0.03453496, 0.04602371, -0.15076743, -0.13100979, -0.15906483, -0.0633496, -0.026100919, 0.02449284, -0.001252729, -0.14788662, 0.18216535, -0.472536, -0.014661843, -0.00020711415, 0.04656042, 0.19729719, 0.21254416, -0.1029438, -0.06383223, -0.09463231, 0.023169115, -0.47758582, 0.064218, 0.09528677, -0.33894458, -0.06038916, 0.44282696, -0.111, 0.06754932, -0.26165608, -0.13480623, -0.0036411677, -0.12162108, -0.105698586, 0.035436682, -0.060688615, 0.13401091, 0.019086571, 0.023692802, 0.13662516, 0.04367868, -0.1495108, 0.13792825}, 
{-0.22800058, -0.0012709695, 0.106912255, -0.14238831, -0.11974847, -0.09977321, 0.08868383, 0.19755794, 0.021695778, 0.04956205, 0.06430221, 0.05621745, -0.121309936, 0.2916677, -0.28084344, -0.11063118, -0.105207935, -0.02397947, 0.18786947, 0.104468636, -0.07157299, -0.033865526, -0.1083786, -0.14609508, -0.039942734, -0.21024914, 0.11405593, 0.07288845, -0.024502609, -0.046456516, 0.026731467, 0.06572154, -0.26975885, -0.37511513, 0.23762715, -0.059357397, 0.13096195, 0.1617692, 0.050898165, -0.10427004, -0.122238964, 0.011607379, -0.31911412, 0.03093814, 0.068618596, -0.012432023, -0.040357, 0.19086477, -0.09404108, -0.04760204, -0.04620718, 0.013542771, 0.017134842, 0.10368411, -0.14040494, -0.07573689, -0.08125939, -0.027052935, 0.029566322, 0.017892405, 0.06683618, -0.095132925, 0.11530793, -0.09127355}, 
{-0.14190462, -0.033429954, 0.072670884, 0.027563438, 0.010743159, 0.02086807, -0.028418737, -0.21945658, -0.09123298, -0.044482093, -0.033669025, -0.10221772, 0.090291694, 0.116560414, -0.52182186, -0.1432897, 0.08811159, -0.13097753, -0.09188576, 0.007055308, 0.12352331, 0.09316707, -0.070942126, -0.032658372, -0.12485999, -0.06899209, -0.056621198, 0.03945163, -0.1496321, -0.07146757, -0.056532614, 0.2085889, -0.061777808, -0.43074396, 0.15727252, -0.019349046, -0.012825909, 0.019653453, -0.12969784, 0.040493544, -0.28816667, -0.058906168, -0.31173512, -0.116474286, 0.028028764, -0.11053246, 0.11807178, -0.046649948, 0.055751204, 0.06759542, -0.21788254, -0.03088405, -0.03397454, 0.12278079, -0.08964878, 0.1187699, -0.028417043, -0.28188756, -0.0123590585, 0.010079145, -0.0014408678, -0.021412943, 0.05120419, -0.12325255}, 
{-0.13189438, -0.25162765, 0.014974515, -0.044002697, -0.2116889, -0.073707856, -0.1088724, -0.025967585, 0.10049841, 0.014189118, -0.028851291, 0.11095853, 0.026401922, 0.22648597, -0.41413867, -0.088567585, 0.017594695, -0.041395083, 0.086892016, 0.018768495, 0.056989875, 0.12538041, 0.04102375, 0.00022349163, -0.042259276, -0.15575935, -0.040604495, 0.0037762374, -0.026502872, -0.150781, -0.055687457, -0.025930777, 0.17969032, -0.3446449, 0.2115331, 0.060013503, 0.079722695, 0.16193628, -0.1186993, 0.010401752, 0.37502187, -0.05587364, -0.32825497, -0.13872685, -0.10311501, 0.063920595, -0.037998796, -0.20480625, 0.09015474, -0.04306911, -0.10122362, 0.03894639, -0.07550636, 0.039176755, -0.10583445, -0.13752303, 0.11289464, -0.15318595, -0.12915544, -0.08395502, 0.117636636, 0.022106694, 0.049934585, -0.0038221043}, 
{-0.0077474364, -0.107103094, 0.0068452777, -0.024627268, -0.10216856, 0.017734248, 0.11401033, 0.0689181, -0.04087106, 0.07546824, 0.07858909, -0.08129597, -0.13917801, 0.25025165, -0.3363869, -0.039859705, 0.055980913, 0.032601535, 0.02086573, 0.052395795, 0.08131073, -0.008807704, 0.015270176, 0.026562816, -0.024178654, -0.08485119, 0.07821534, -0.010122746, -0.25656986, -0.04929814, -0.14848602, 0.10328847, 0.084747605, -0.49232775, 0.059159193, -0.11343722, 0.11377114, -0.057635758, 0.07972191, -0.05947296, 0.1871875, 0.019152746, -0.32401967, -0.0036077413, -0.10408957, -0.12749426, 0.045285165, -0.23953241, 0.031482965, -0.08723915, -0.032937285, 0.013966382, -0.079608314, -0.09101315, 0.058995485, -0.008690166, -0.11206165, -0.2364147, 0.13746521, 0.02221489, -0.13700418, 0.009475542, -0.05509097, 0.03860339}, 
{0.10329577, 0.107156366, -0.07962012, 0.085577175, -0.006094696, 0.1169886, -0.01693847, 0.108315624, -0.024595149, -0.10777714, -0.07599276, 0.10434181, 0.045502186, 0.20297636, -0.36216536, 0.0664237, 0.07943726, 0.050921604, -0.15761237, 0.3332618, 0.04247975, -0.11042146, 0.06339401, 0.06865649, -0.07159489, 0.16688323, 0.12221639, -0.062944, -0.20041916, -0.09369762, -0.08267562, 0.052803, 0.17079519, -0.2957742, 0.21539259, 0.07091813, 0.052633744, 0.19176674, -0.098580845, 0.108496994, 0.09010322, 0.014330909, -0.17060152, -0.015355859, 0.12805478, 0.01251275, -0.04287619, -0.36241007, 0.0779901, 0.049351797, 0.035689034, 0.10761593, -0.03849904, -0.107889384, 0.13562892, -0.083488435, 0.111622915, -0.06845204, 0.005702044, -0.13326487, -0.077673264, -0.012170305, 0.049196277, -0.06906241}, 
{0.17611958, 0.26430225, -0.15652458, -0.085444644, -0.062393915, -0.15066925, -0.05298292, 0.04202995, -0.10701029, -0.13157968, 0.02969556, 0.05069044, -0.07827198, 0.12157813, 0.05604349, 0.09740758, -0.002513211, -0.067454234, -0.10706867, -0.03486558, -0.07448455, -0.10543296, -0.00059763505, -0.01847048, -0.02071283, 0.009363581, -0.024053516, 0.12337874, -0.030223731, -0.091042496, 0.076859966, -0.019578857, -0.00016531978, 0.04042334, 0.28008798, 0.11555232, 0.07777275, -0.19935688, -0.096541606, -0.0347868, 0.053016115, 0.0329777, -0.0029091188, 0.071598396, 0.13174357, 0.14026746, -0.070745885, -0.48501933, -0.13198625, -0.118725926, 0.1681883, 0.12165128, -0.07212271, 0.054562442, 0.012052193, -0.13307747, 0.11720534, -0.055263754, -0.038177133, 0.08523749, -0.06803573, 0.019913083, -0.00018262897, -0.12104454}, 
{0.14810596, 0.058936097, -0.09490684, -0.0040432364, 0.0059478595, -0.02944618, 0.017942913, 0.0007744611, -0.10234626, -0.045204476, -0.12836853, 0.08492034, -0.12542231, -0.09139808, -0.0913711, -0.032013513, -0.06929016, 0.05388768, -0.23512766, 0.012145722, -0.11707061, 0.073371634, -0.008408612, -0.13579895, -0.017910615, 0.084717855, -0.05479205, 0.0002772659, 0.10269313, 0.011037031, -0.0068092984, 0.11843893, 0.118946284, 0.21295097, -0.045535374, -0.050069295, 0.12359308, -0.018698895, -0.11881026, 0.04102952, -0.10049151, -0.116491385, -0.0037037025, -0.120354295, 0.111834496, 0.121708274, -0.073572665, -0.1158913, 0.011419162, 0.07200231, -0.1356046, -0.05147087, 0.030545626, 0.13461125, -0.010796383, 0.11213287, -0.12757128, -0.021018198, 0.0109228175, -0.14351557, 0.13093804, 0.022380771, -0.07359028, 0.090599656}, 
{0.12576778, 0.116886035, 0.056382317, 0.043623477, -0.005752189, -0.09922266, 0.061647024, -0.0021073793, 0.04233104, 0.090941325, 0.07567029, 0.04888827, -0.07413579, -0.25263458, 0.046446778, -0.026622362, -0.06924492, 0.13940234, 0.25067174, -0.020129466, -0.006286399, -0.06993223, 0.053829063, -0.001604708, 0.119292274, 0.14638035, 0.06269884, 0.039407, 0.015861204, 0.017997306, -0.10318017, 0.027183227, 0.07001996, -0.04483761, -0.086096875, 0.14124341, 0.14645354, 0.055968873, 0.13951607, -0.12847126, -0.1529931, 0.047805592, 0.036641832, -0.079378754, -0.04381538, -0.15691593, -0.082235605, -0.029969051, 0.0072436035, 0.1239672, 0.1104684, -0.11586114, 0.1033669, 0.13280492, -0.07438354, -0.045655653, -0.0912516, -0.18689072, -0.07196642, -0.04493425, 0.12415038, -0.012971231, 0.07187338, -0.1132242}, 
{0.3115195, -0.031180806, -0.057480376, 0.11630337, -0.1138609, -0.0770508, -0.11664061, 0.15976833, -0.094439745, -0.055555686, -0.03655829, -0.10325536, 0.10903968, -0.065947026, -0.1553463, -0.09507445, -0.038169727, 0.07734953, 0.272205, 0.35495883, 0.053840104, -0.12979816, 0.12171634, -0.059768815, 0.026437894, 0.116515666, -0.0062223417, 0.021641538, 0.02944245, -0.012592227, -0.02747101, -0.13127673, 0.082691975, 0.15535268, -0.112586975, -0.015907615, 0.039553985, -0.28344536, 0.11345954, 0.0905014, -0.13568835, 0.021149114, 0.042495795, -0.12356349, 0.035709523, -0.010174349, -0.112266324, 0.003820097, -0.051140152, -0.14052543, 0.1315732, -0.008154586, 0.12677746, 0.055437, -0.050877348, 0.08350242, -0.13820328, 0.057172544, 0.094576634, -0.13260815, 0.03187634, 0.0010799392, -0.13077743, 0.006605795}, 
{0.019002868, -0.12741934, -0.10453911, 0.1272585, 0.23520912, -0.027962275, 0.03921073, 0.21398024, -0.016199782, 0.10798889, 0.08034014, -0.12022252, 0.066017956, 0.12786719, -0.10185904, -0.021328576, -0.09734464, -0.08684906, 0.2808469, 0.35730988, -0.10903355, 0.10241926, 0.027772084, 0.095375694, 0.030701384, 0.08342783, -0.0684443, -0.1055658, -0.037486088, 0.12483072, -0.09627915, 0.18129708, 0.1547466, 0.22649388, -0.17341807, 0.09269512, 0.03884921, 0.08534634, -0.05864227, -0.0023463862, -0.18465671, -0.12931529, 0.116165675, 0.044852126, 0.2602753, -0.16643353, 0.12837003, -0.075188935, 0.009782404, 0.12263335, -0.0887985, 0.03539884, 0.009822863, -0.04470813, 0.11455627, -0.023163296, -0.041932985, 0.123523764, -0.11214261, 0.14317356, -0.13768011, 0.044121403, 0.03999089, -0.032116722}, 
{-0.039720673, -0.3515113, 0.05247782, 0.056968883, 0.36886194, 0.060978923, 0.095704645, 0.08757595, 0.099352926, 0.023336632, 0.13314886, -0.13181551, 0.012239754, 0.04244535, -0.15121739, -0.054786153, 0.0056120134, 0.0074169934, 0.14154422, 0.66493565, -0.018858815, 0.007998377, 0.09492057, -0.08603654, 0.05991684, 0.13083436, -0.059345316, -0.017958388, -0.21980414, 0.10101932, -0.02134799, 0.26357833, 0.34464806, 0.16663332, -0.32759634, -0.042914562, 0.033816844, 0.08780174, -0.10637726, 0.08834108, -0.17628679, -0.11537113, 0.096437365, -0.14483306, 0.077162445, -0.20793346, 0.05991426, -0.16739102, 0.11331488, 0.071271576, 0.18556431, -0.0059264004, -0.01985593, 0.056979872, -0.02369012, 0.09301326, -0.00483267, 0.0376333, -0.21221764, -0.008117035, -0.011339366, -0.011338504, -0.13795121, -0.113889836}, 
{0.08083781, -0.34641975, -0.01659993, 0.11379023, 0.6134661, -0.15029742, 0.08790191, 0.1670677, -0.094429746, 0.02333905, -0.112837665, 0.013075158, 0.098725855, 0.121147275, -0.033657614, -0.13598602, -0.0410771, -0.04922568, 0.16028184, 0.053585935, -0.08422978, 0.06784421, -0.14315805, 0.00052858493, 0.09653254, 0.17326954, 0.0920903, 0.05961752, -0.32592988, -0.118270315, -0.14444278, 0.2519195, 0.2086393, 0.28667778, -0.6748524, -0.1244943, 0.113540396, 0.008322203, -0.117648296, -0.11072869, -0.040736306, 0.021186635, 0.07990077, -0.10978712, 0.1307797, -0.24205174, -0.063219346, -0.21852742, -0.036085322, 0.10989617, 0.21502092, -0.07356989, 0.0033313173, -0.07349005, 0.068229884, -0.12948248, 0.07945812, 0.08387965, -0.18812059, -0.051434316, -0.08632134, 0.06410578, -0.051892, 0.09470341}, 
{-0.346487, 0.0016001553, -0.124574564, -0.10983879, 1.0046847, 0.036916886, 0.06312398, 0.36158717, -0.08089958, -0.05113101, 0.11664022, -0.1441099, -0.08962852, -0.06978926, -0.030771537, -0.11400689, -0.12347363, 0.05272311, -0.19223274, -0.7267658, -0.110895425, -0.015186533, 0.09403159, 0.02169119, -0.046951056, 0.33533746, -0.028362392, -0.018712342, -0.322658, -0.060770307, -0.14843999, 0.18382682, 0.18514341, 0.2716053, -0.4776409, 0.063967004, 0.16644932, 0.12138365, -0.069492266, 0.13117881, -0.68476915, -0.13603655, 0.1831363, -0.09763026, -0.034194324, -0.13896887, -0.05916237, -0.25728783, 0.056336135, -0.05943968, 0.41967782, 0.0661934, 0.11302058, -0.02259222, 0.12564315, 0.07063374, -0.05213505, 0.53238356, 0.018101465, 0.035930187, 0.13230212, 0.11572189, -0.14112824, 0.033470858}, 
{-0.20990333, 0.9728384, -0.022588305, 0.110564515, -0.10324911, 0.08231137, 0.08658681, 0.5544588, -0.016186804, -0.00910963, -0.01429811, 0.1148327, -0.13361074, 0.14596672, -0.20888238, -0.067840636, 0.099853486, 0.1402544, 0.084383376, -0.6548201, -0.12952384, 0.05663924, 0.015734524, -0.08961136, 0.03892091, -0.1517969, -0.087886065, -0.04835459, 0.27768448, -0.15198265, 0.05201605, 0.1432371, -0.21708888, 0.3567248, -0.19973497, 0.14203022, 0.22037385, 0.257149, 0.12570108, -0.13550535, -0.5675409, 0.045299903, -0.39315537, -0.03682749, 0.09350411, -0.18694519, -0.071759716, 0.35722008, -0.00878197, -0.062653095, 0.18212295, -0.013258427, 0.0061541535, -0.0068601286, -0.010280192, 0.036174648, 0.117984936, -0.16626349, 0.12472045, -0.08101449, 0.04961601, -0.07344809, 0.096776925, -0.111644134}, 
{-0.3534583, 0.37822902, 0.067924865, 0.015215814, -0.32323375, -0.13892646, 0.12932338, 0.33063474, 0.13796963, -0.02678208, -0.003333827, 0.07731013, -0.13253517, 0.012212999, 0.13682435, -0.10175944, -0.057275582, -0.10688105, 0.15709463, 0.14793947, -0.06074796, -0.110157005, 0.045544054, -0.09915017, 0.033454895, -0.31433582, -0.064143, -0.090216026, 0.29878762, 0.071623966, 0.13327101, 0.17592806, -0.10225248, 0.6521662, -0.2996566, 0.010233298, 0.17586258, 0.37864637, 0.050507337, 0.09705362, -0.35438827, -0.07881729, -0.31109476, 0.0969589, 0.4136504, -0.08159882, 0.09213629, 0.11491335, -0.041740336, -0.049351472, -0.5728877, 0.078483075, -0.066753455, -0.078694984, -0.039039627, 0.06432871, -0.076783724, -0.012185609, -0.039933853, -0.07982037, -0.070553884, 0.030171974, 0.051390454, 0.103354335}, 
{-0.23088671, -0.10067506, -0.15534222, -0.058938116, -0.20629406, 0.0098140035, -0.0021674458, -0.30769357, -0.009451106, -0.080148615, 0.065180354, -0.13548288, -0.09996724, 0.064573, -0.11562092, 0.124963835, 0.08903703, -0.059295833, 0.02680535, 0.18957901, 0.0017338812, 0.13737695, -0.042035267, 0.116576985, 0.013160005, -0.216594, 0.13384266, 0.109899744, 0.08503629, 0.060267605, 0.0515846, 0.122467466, -0.02975169, -0.13709672, -0.08073146, 0.092794806, 0.24552593, 0.4500107, -0.009674504, -0.11198832, -0.08176698, 0.0133153945, -0.45479137, -0.056807388, 0.35181367, -0.040168658, -0.06622597, 0.13945307, 0.09561081, -0.09529331, -0.48530483, -0.0886974, 0.02518951, 0.05802037, -0.1173834, 0.10802852, -0.13878223, -0.10250485, -0.037857484, 0.109750494, 0.060018137, 0.12659661, 0.106264606, -0.051168215}, 
{-0.18579544, -0.322173, 0.0646806, -0.022172049, -0.2328579, -0.11368994, 0.011930721, -0.17945197, 0.0758713, 0.04052934, 0.09967903, 0.12793438, 0.12381326, 0.18596067, -0.21206808, 0.03546703, 0.119793884, -0.1356128, -0.18078117, 0.08751097, 0.13124286, -0.023260526, -0.13105726, 0.10766449, -0.046229884, -0.2567949, 0.06025183, -0.06087721, 0.035112243, -0.057571862, 0.13345677, 0.23808143, 0.01148257, -0.5011937, -0.06558594, 0.09779516, 0.18688902, 0.23582768, -0.12051194, -0.10349839, 0.02883672, 0.007882372, -0.19259967, 0.12572698, 0.13470784, -0.16404268, 0.01110594, -0.014063699, -0.024105512, -0.022320544, -0.16569404, 0.07127674, 0.0075693903, -0.0056653656, -0.022121966, 0.022823287, -0.034346983, -0.20200826, -0.023103964, -0.090720944, -0.13014574, -0.10358725, 0.05394899, -0.0016609542}, 
{-0.046549294, -0.02675811, -0.08995012, -0.12309011, -0.020244095, -0.029993817, -0.083044805, 0.089020364, -0.14288248, -0.1216824, 0.08347864, -0.075488284, -0.10864392, 0.1699651, -0.29007396, 0.016925916, -0.11564415, 0.0038467646, -0.22558323, 0.13946393, 0.005810304, 0.03991522, -0.14135072, -0.060994267, 0.051088765, -0.097760454, -0.09767322, -0.05362217, 0.05567676, -0.033849683, 0.0880772, 0.12607667, 0.11176539, -0.55771667, -0.008798997, -0.03938388, -0.0006344061, 0.32402742, -0.12110725, -0.03687038, -0.17634282, -0.07618368, -0.3211672, -0.14379644, 0.07176671, 0.055693686, 0.05446434, -0.21617293, -0.068640135, 0.11883531, -0.20858735, -0.13827586, -0.040333234, 0.030311624, 0.017699406, -0.12696484, -0.031143032, -0.28107166, 0.13963011, -0.07994824, 0.06318773, -0.13548231, -0.0745986, -0.05801627}, 
{0.03298499, -0.014411558, 0.114509486, -0.13591075, -0.11787652, 0.09187608, 0.023988698, -0.0132813, 0.10388464, 0.0023800593, -0.11003284, 0.012880225, -0.014114067, 0.06788311, -0.22504508, -0.06266725, -0.09441053, 0.085260645, -0.32671806, -0.012084737, -0.09676067, 0.13593672, 0.10512136, 0.073797785, -0.05018297, 0.26944196, -0.045547545, 0.023633882, -0.14607596, 0.050006043, 0.064858824, 0.18960777, 0.32290035, -0.40350375, 0.22668077, 0.10114558, 0.043721013, 0.10595709, 0.040224507, -0.030586256, -0.11192585, 0.065469265, -0.36887062, -0.12661366, -0.13184269, -0.06329889, 0.0020080805, -0.15810388, -0.102056324, 0.00061172416, -0.18724503, -0.13144429, 0.034265276, 0.015902894, -0.13062699, 0.0026351835, 0.06457749, -0.23616506, 0.074212134, 0.052022442, 0.007242501, -0.13241108, -0.10232109, -0.037199885}, 
{0.11572013, 0.29055658, -0.13800317, 0.1203547, -0.008017398, -0.030655336, 0.030406445, 0.09491247, 0.060054243, -0.0406521, 0.0764565, 0.05638526, -0.09310158, 0.07879167, -0.24196927, -0.082919545, -0.04769543, -0.066918835, -0.3482857, 0.015341574, 0.02533603, -0.000735119, -0.022180686, -0.061092146, -0.049911752, 0.27514526, 0.075081415, 0.05894983, -0.13176173, -0.020484908, -0.075645834, 0.21298166, 0.21936221, -0.21387315, 0.20121981, -0.13465847, 0.06616255, 0.22073145, 0.12189688, 0.09293144, 0.13331343, -0.054767363, -0.23671329, -0.137146, -0.059270065, 0.06263586, 0.12356846, -0.3549605, -0.13498929, 0.07841641, 0.064360656, -0.04112435, -0.0710363, 0.0832661, -0.048475377, -0.10224518, 0.003196627, -0.33256367, 0.1721366, 0.11835484, 0.00066517293, 0.06841018, 0.06760566, 0.09655349}, 
{0.031595603, 0.40999436, 0.10500684, -0.09646651, -0.05553848, -0.106913246, -0.067692354, -0.15244897, -0.017393872, -0.12991218, -0.06839334, 0.054802332, 0.09400332, 0.11259137, -0.042039853, -0.08457736, 0.11830962, 0.012997389, -0.04809489, -0.058539767, 0.10166987, 0.12074955, -0.05960383, -0.15772593, -0.031310163, 0.003333926, -0.06702654, -0.090393454, -0.094697945, 0.019944739, -0.063296884, 0.13640091, -0.025462162, -0.05005057, 0.07275631, -0.019975953, -0.07300974, 0.053010773, 0.008639753, 0.06453536, 0.028029528, -0.1284938, 0.14693767, 0.09767386, 0.061825257, 0.0805637, -0.05068236, -0.23089217, -0.12196299, 0.10755035, -0.012870201, -0.14199878, -0.05381843, 0.13413881, 0.08809945, -0.0759693, -0.0746292, -0.108616404, 0.2565538, -0.04185064, -0.08186157, 0.11601043, 0.06901728, 0.0111926105}, 
{0.058411848, -0.051041428, 0.0018191886, -0.08267695, -0.12252677, 0.019488474, -0.14777364, 0.02602137, -0.13219865, -0.13062118, -0.008415464, -0.02494269, 0.11546059, 0.09109826, -0.03106568, -0.043240055, 0.012604944, 0.027631864, 0.11030238, 0.070847616, 0.13902055, -0.0063087493, -0.029896218, -0.01869828, 0.14407863, 0.045977097, -0.10170847, -0.07033883, 0.020588648, 0.07039342, 0.05386437, 0.059886318, 0.0049905516, 0.06737929, 0.19282442, 0.09146263, -0.0053648213, -0.0668614, -0.07144607, -0.05393615, 0.14397667, 0.038178876, -0.16719788, -0.052736882, -0.08540506, 0.07530044, -0.11053946, -0.0016024861, 0.09790893, 0.024542734, -0.051105898, 0.025465906, -0.14369638, 0.03165538, -0.10723001, -0.007608603, -0.1179526, -0.14656208, -0.017581051, -0.03167534, -0.037419222, -0.11887384, -0.118890524, -0.014659091}, 
{0.07601044, 0.01660082, -0.09300403, -0.1217142, -0.06073032, -0.02832454, -0.099990726, 0.1060269, -0.04279209, 0.03854761, -0.10860092, 0.012785611, -0.13434604, -0.14916421, -0.2098616, 0.14052819, -0.015906021, -0.11768578, 0.09571737, 0.042627897, -0.12307693, -0.050774083, -0.13440594, 0.115892254, -0.12522331, 0.05407019, 0.12758143, -0.035049714, 0.081997275, 0.03159092, -0.12000912, 0.028450157, 0.22656885, 0.12060366, 0.053665575, -0.11648441, 0.093942694, 0.1603654, -0.10795459, 0.04317796, -0.15562584, 0.043387264, 0.06445052, -0.046169564, 0.14349253, 0.036680207, 0.006941125, -0.0039169267, 0.032091558, -0.05211167, 0.014939092, 0.051137984, 0.10998273, 0.09292708, -0.099666506, 0.07415858, -0.05629842, -0.16774912, 0.1239923, 0.11933319, -0.010070384, 0.020442365, 0.16146778, 0.0911137}, 
{-0.04749442, -0.16701645, -0.004435527, 0.07102734, 0.004588257, 0.10181669, 0.05511092, 0.055124756, 0.053428307, -0.017783184, 0.045465082, 0.08828471, 0.0013491809, -0.115434706, 0.15970951, -0.007393077, -0.07708796, -0.12960361, 0.07684058, 0.11771166, -0.10643109, 0.096698985, -0.069207825, -0.07709497, -0.136835, 0.16761683, 0.065051265, -0.06202595, 0.10340619, 0.068648696, -0.11251759, -0.124164484, 0.22040118, 0.2920356, -0.047398172, 0.0056898147, 0.15287647, 0.06583489, 0.0020360053, 0.110036865, -0.12157218, -0.051701136, 0.22444706, 0.052521594, 0.12512667, -0.0055937227, -0.038853504, -0.04515039, -0.023201406, 0.037327822, -0.13079286, -0.119504154, -0.09344171, -0.072517715, 0.018336311, 0.0665307, 0.0044222176, -0.11952508, -0.021596285, -0.06159509, 0.13717364, 0.039907664, -0.11390602, -0.1358507}, 
{0.07964051, -0.24956706, -0.08671826, 0.10448825, 0.24767028, -0.061447266, -0.056755062, 0.22771989, 0.11435969, -0.119101405, -0.0919936, -0.087475464, -0.11132326, -0.14440171, 0.066257305, -0.067014925, 0.07803363, -0.12196099, 0.107464924, 0.36143377, -0.13266383, -0.0044213533, -0.09670566, -0.0008518076, -0.084529474, 0.05299848, -0.030330481, -0.12405135, 0.019510373, 0.04069972, -0.03788325, 0.30461705, 0.4528921, 0.21466944, -0.1587701, 0.08561768, -0.10246788, 0.17609538, -0.13398893, -0.12234047, -0.03873932, -0.04761789, 0.24316688, 0.021152427, 0.24237454, -0.1705935, 0.051194698, -0.31358653, 0.064507455, 0.014678811, 0.021863576, -0.026929416, 0.009769321, -0.09336204, 0.121824816, 0.06019847, 0.111252055, -0.22644523, 0.021989709, -0.039951943, -0.056810997, -0.020121556, -0.18786737, 0.01747594}, 
{-0.013138225, -0.22328939, 0.055425573, 0.10106984, 0.27624378, 0.04514867, 0.072257996, 0.17831124, -0.08516669, 0.081998594, 0.049647447, -0.100414194, -0.10780762, -0.2923222, -0.089722015, 0.00082948804, -0.11332851, -0.13566414, -0.087425746, 0.32115614, -0.06875716, -0.06151347, 0.11611626, -0.0006129305, -0.045232646, -0.016824087, 0.035336662, -0.037798002, 0.17965887, 0.10335263, -0.033030424, 0.28777003, 0.14396046, 0.42982006, -0.16111316, -0.10160224, -0.021000069, 0.25701246, 0.012733519, -0.10611245, -0.102769986, -0.1332785, 0.37010825, -0.07948139, 0.23817492, -0.13689193, 0.13090222, -0.4382203, -0.0653896, -0.09960859, 0.033520423, -0.11783143, -0.014904858, -0.047166105, 0.028916016, -0.12087813, -0.003657654, -0.04434176, -0.06222048, 0.09897484, -0.009182155, -0.014827696, -0.34078678, 0.08419728}, 
{-0.13627897, -0.5919211, -0.021889223, 0.10049449, 0.6562867, 0.11378837, 0.028375478, -0.02230226, -0.0858127, 0.12830043, 0.08146695, 0.046265114, -0.07767004, -0.13920993, 0.071023, -0.049986504, -0.14351384, -0.13934569, -0.13254406, -0.07500227, 0.061283898, -0.12524426, 0.08552474, -0.120881096, -0.10463968, 0.42920586, 0.09324107, 0.11240275, 0.08647436, -0.08635145, 0.08478276, 0.35439676, 0.22409943, 0.29949728, -0.26636845, 0.06436983, 0.019325158, -0.097014196, 0.0753085, 0.031534992, 0.03812263, 0.0060643703, 0.08540171, -0.003718464, 0.28009507, -0.2561454, 0.013722643, -0.33833674, 0.09495431, 0.03283962, 0.3059241, -0.14219813, 0.059660017, -0.11446498, -0.041994207, -0.014419677, -0.12077072, 0.41308787, 0.056404985, 0.13736476, -0.110718094, -0.09527562, -0.44844273, -0.11636237}, 
{-0.20418163, 0.19992186, 0.03277419, -0.14245802, 0.2597009, -0.054704037, 0.09492924, 0.16195057, -0.09552997, 0.025245897, -0.14173546, -0.12757894, -0.048990123, -0.3093999, -0.072287135, 0.007213339, -0.01768172, -0.13981599, -0.060704917, -0.7222089, 0.05822768, 0.018299177, -0.08341187, 0.08328757, -0.0011912286, 0.34810087, 0.07867182, 0.01270999, 0.41195628, 0.0043178275, -0.018681847, 0.3973138, -0.005195905, 0.3053052, -0.22364464, -0.054386422, -0.00018133294, -0.0770039, -0.07937179, -0.025459535, 0.050011173, 0.018910632, -0.6563913, 0.06206242, -0.13852204, 0.1617879, 0.09815125, 0.021561585, 0.042405486, 0.12017241, 0.46911922, -0.049784675, -0.14531519, 0.016652387, -0.015597194, 0.08364274, 0.13410045, 0.2764717, 0.08772673, -0.01659958, -0.026896775, -0.1035981, -0.5932439, -0.015829975}, 
{-0.44168755, 0.3969523, 0.107230805, 0.10794397, -0.34676534, 0.018791089, -0.14251402, 0.5875369, 0.13864298, 0.070046194, -0.00582049, 0.05400417, -0.12128166, 0.049306557, -0.21261041, -0.050771713, -0.048224002, 9.983778e-07, 0.640267, -0.20924777, -0.04982723, 0.08229634, -0.05141577, -0.098972164, -0.06512536, 0.36011413, 0.04494108, 0.026050106, 0.3319161, 0.07145924, -0.12295969, 0.4148425, -0.11031134, 0.31811592, -0.34677875, 0.121508494, 0.3080876, 0.041997485, 0.0037665516, 0.01827583, -0.14448215, 0.122963235, -0.32579416, -0.048919074, -0.10605871, 0.15628284, -0.120399915, -0.036903083, 0.14151748, 0.11815944, 0.53945243, 0.112165555, -0.13654295, -0.007838826, 0.06426911, -0.033462513, 0.025215462, -0.053774353, -0.050338726, 0.017640114, 0.0241151, -0.120638, 0.278842, -0.08455639}, 
{-0.48221904, 0.3025161, -0.048212543, -0.032305956, -0.56716406, -0.08366108, 0.0066454518, 0.02524406, 0.03136818, 0.13617602, 0.04290976, -0.07784689, 0.075436115, -0.018726006, -0.09714971, 0.009534925, -0.11744618, -0.10924403, 0.0808592, 0.1767155, 0.08321131, 0.13112633, -0.07859234, 0.05718477, 0.060421795, 0.3253579, 0.10805873, 0.0277946, -0.062076896, -0.066980556, 0.13633355, 0.34881285, -0.10587406, 0.8008204, -0.57339954, -0.025043495, 0.2033721, 0.28556043, 0.03305331, 0.04337183, -0.332476, 0.0015518665, -0.0063340385, -0.056374073, 0.35037652, 0.044454392, -0.090952, 0.0009199909, -0.14064568, 0.04088995, -0.052187845, 0.14353327, 0.03521221, -0.06318358, 0.08627918, -0.037098657, -0.05613984, -0.109108515, -0.029173872, -0.009608403, 0.052274466, -0.090182826, 0.35553533, 0.021000996}, 
{-0.20761277, 0.00011693345, 0.09153365, 0.0781146, -0.51323247, 0.004101071, -0.06812132, -0.4396553, -0.05335696, -0.021523936, -0.008818474, 0.09881417, -0.099394366, -0.046050057, -0.09222205, 0.021782964, 0.052934643, -0.03452246, -0.22421308, 0.04416593, -0.014424991, 0.013793111, -0.1140712, 0.062325813, 0.119261816, -0.005558003, 0.106500894, -0.11624933, -0.36304677, -0.02305173, -0.07616786, 0.31646463, 0.035983264, -0.14012484, -0.3913864, -0.056467712, 0.11536227, 0.3442604, -0.08702059, -0.05923564, -0.18122537, 0.023457378, -0.10678117, -0.0152230505, 0.70631737, -0.20411605, -0.099572584, 0.4873832, 0.024568155, -0.076751575, -0.19572306, 0.0718548, 0.06938849, -0.10647541, -0.09390655, 0.020300517, -0.024093047, -0.37402356, -0.072577566, 0.12380643, 0.14309298, -0.027521418, 0.2497814, -0.031730816}, 
{-0.086637266, 0.043681767, 0.044855352, 0.07626344, -0.29586717, 0.09633261, 0.054575346, -0.23782958, -0.0883446, 0.021610528, -0.08711283, -0.0027322397, -0.0952467, 0.006523256, -0.27632308, -0.025348514, -0.017217021, 0.09957169, -0.15100396, 0.030289968, -0.13019972, -0.10741985, -0.004961411, 0.110559344, 0.07815699, -0.048053183, -0.14631951, 0.13317321, -0.10839788, -0.019218907, -0.106605455, 0.13725017, 0.12953639, -0.49408376, -0.022831935, -0.052910097, 0.036918152, 0.26898345, -0.020373218, 0.03353995, 0.1770402, -0.12388583, -0.20304245, 0.06580407, 0.6284039, -0.29459512, 0.14198883, 0.085885555, -0.102373466, 0.0043995343, -0.5279961, -0.0358982, -0.06556362, 0.04590709, -0.098348856, 0.0592987, -0.11120096, -0.16408472, -0.09131296, -0.098886624, 0.08024086, -0.11864344, 0.16203628, 0.1251299}, 
{0.046277072, 0.06771155, 0.039804332, 0.13657267, -0.12287157, 0.09565523, -0.016652552, -0.1065904, -0.113413274, -0.05434183, 0.09160373, -0.06834463, 0.13614692, -0.030626494, -0.16171144, 0.11136939, 0.03874351, 0.07414091, -0.19176172, -0.17357948, 0.05737711, 0.058913454, 0.07681392, 0.074046694, 0.080135435, 0.30151916, -0.08449263, -0.04428103, -0.12953712, -0.1503368, -0.1011343, 0.23027946, 0.37771782, -0.55851233, -0.0055076643, 0.08104125, -0.015565116, -0.07206405, 0.028817192, -0.14218211, 0.0890203, -0.113601804, -0.16029993, -0.13489044, 0.32781318, 0.009829572, 0.07895729, -0.078914315, -0.09895952, 0.057767063, -0.36398095, 0.05060576, 0.118587844, 0.0968559, -0.052160233, -0.08042794, -0.087350175, -0.40621543, 0.17148282, 0.038737312, 0.13025369, -0.025937242, 0.18285306, 0.03953065}, 
{0.14793593, 0.12909457, -0.06472716, 0.01879029, 0.04371617, 0.12181705, -0.008942579, -0.14892568, -0.028291136, -0.133859, 0.017626492, -0.010498977, 0.0779448, -0.089002915, -0.08744074, -0.11282137, 0.031667758, 0.080142364, -0.24849269, 0.08663405, -0.13955612, -0.084166326, 0.1290332, -0.037748016, 0.03946516, 0.39833036, 0.103230596, 0.1437716, -0.07293827, -0.04863523, -0.08288229, 0.34979096, 0.24496685, -0.41374862, -0.1373437, -0.13639925, -0.019056987, 0.18283273, -0.017075613, -0.036981337, -0.1327019, -0.027347185, -0.29011387, 0.070295505, 0.4299416, -0.019735876, -0.009934455, 0.024656193, -0.07992769, 0.0031548834, -0.18069828, 0.13645692, 0.009278309, 0.015609456, -0.018176258, -0.0147845885, -0.133082, -0.29051405, 0.12415243, -0.073408216, 0.032765403, -0.054644357, 0.22780575, 0.03058474}, 
{0.15064824, -0.02313368, 0.04459603, 0.11781846, 0.013734774, -0.029258471, -0.11872241, -0.08343074, -0.10728817, 0.108160116, 0.031096969, 0.0824882, -0.023114152, -0.20675826, -0.120300345, 0.1253087, 0.122230895, 0.11887519, -0.20767136, 0.112705775, -0.1437655, -0.098960385, -0.08995138, 0.014715804, -0.1114618, 0.15598124, 0.015398813, -0.11336696, 0.032213718, 0.024495507, -0.074966155, 0.3965466, 0.18638356, -0.18849613, 0.20470649, 0.04522364, 0.079264864, -0.03670904, -0.12891549, 0.040030852, 0.15422638, -0.027520873, -0.035797745, -0.13317783, 0.19359519, 0.022615127, -0.11698102, -0.48445076, -0.14005893, -0.0534563, 0.16696867, 0.073583245, -0.14495327, 0.04644362, -0.09216219, -0.027617577, -0.087740734, -0.05916144, 0.23056881, -0.01217857, 0.030735746, 0.059935886, 0.06598889, 0.048202015}, 
{0.13150051, 0.041618925, -0.002880257, -0.07352114, 0.1443705, 0.02967302, -0.112735316, -0.0390709, 0.012907177, 0.008809902, -0.098376356, -0.047782596, -0.08532609, 0.06161035, 0.027389714, -0.044398375, 0.02280782, 0.062342927, 0.1623841, 0.13277547, 0.12174283, 0.08527233, -0.072176196, -0.14388096, 0.086768374, -0.0122359125, -0.1403997, -0.1200008, -0.09275119, -0.016094564, -0.12633494, 0.14423768, -0.022787958, -0.17988384, 0.08493617, -0.121616945, 0.083170205, -0.08031198, 0.098405376, -0.07117755, 0.17905633, -0.021482646, 0.05604925, -0.100394994, 0.043764777, 0.19895144, -0.07427295, -0.50299615, 0.036445826, 0.08163019, 0.02428363, -0.03941703, -0.09218549, -0.14770845, -0.018396571, 0.10887098, -0.049544483, 0.06157456, 0.07239373, -0.13929941, -0.0037247092, -0.044534914, 0.10323319, -0.12090454}, 
{0.18627079, -0.1325888, -0.10683098, -0.12545513, -0.06774403, -0.039768044, -0.14755449, -0.117523536, 0.029586151, -0.09308818, -0.07560682, -0.020413272, 0.014958337, -0.18621169, -0.09152108, 0.093464494, 0.030628307, -0.14130293, -0.0343138, -0.045740444, -0.0671807, -0.008750513, -0.03672966, -0.14970866, -0.123214714, 0.20477942, 0.11778904, -0.015926465, 0.20278098, 0.00014629573, 0.026145153, 0.06856926, 0.2250382, 0.08254757, 0.10404912, 0.085462615, 0.06778692, -0.06936341, -0.07451528, 0.12030464, 0.09611636, -0.07723811, 0.14262202, 0.062632725, -0.0663229, -0.052585695, -0.074254304, -0.07858744, -0.054017127, -0.0133299, -0.0942309, 0.04280536, 0.06419818, -0.12822317, 0.1309296, 0.028483285, 0.12821095, -0.09073375, 0.14570604, 0.086919695, 0.13204543, 0.080145136, 0.09132885, -0.019087374}, 
{-0.03265002, -0.116499074, -0.016164634, -0.012231201, 0.17190301, 0.08644113, -0.017035425, 0.0060998127, -0.082242, -0.03294936, 0.105224416, 0.11321218, 0.00868696, -0.075349264, -0.05627981, -0.098522484, -0.14347304, -0.090762034, 0.14166951, -0.06601444, 0.012254927, 0.09602314, 0.06794687, 0.123418845, 0.14325584, -0.06637719, 0.11355994, 0.106249824, -0.021718316, -0.12023721, -0.13739327, 0.15838782, 0.10981939, 0.12922864, 0.13787201, 0.0016557127, 0.080719225, 0.1136778, 0.08164765, -0.1384794, 0.025471596, 0.14091559, 0.28786686, 0.07661283, -0.021158127, 0.16647835, 0.052830666, -0.12138238, 0.025541753, 0.0782001, -0.3022792, 0.058181763, -0.045793485, -0.018491209, 0.07545753, -0.025367416, -0.061496913, -0.13655439, -0.02804048, -0.017760456, -0.06937292, 0.08633326, 0.007110587, 0.08876435}, 
{-0.15372528, 0.0005669987, -0.095614344, 0.04540424, 0.32158414, -0.06477307, -0.08349817, 0.087655984, 0.09061545, -0.060157415, -0.017804414, -0.075513884, -0.10072476, -0.084731795, -0.02426246, -0.09717481, -0.12781203, 0.06489602, 0.19638808, 0.019762069, -0.028379908, 0.04558225, 0.070977785, 0.11272283, 0.11931096, -0.06343083, 0.043085936, 0.078661576, 0.2855998, -0.068762854, -0.04849398, -0.16819887, 0.29471752, 0.044258982, 0.28113294, -0.074098065, 0.31021476, -0.058080684, -0.13449907, -0.09677373, 0.072982535, 0.033446178, 0.27587116, 0.009750474, 0.07659566, 0.0036874532, -0.034594983, -0.25811905, -0.12405523, 0.007932047, -0.33924577, -0.09363055, -0.012582418, -0.03913988, -0.1387262, 0.13438722, 0.13566838, -0.09624316, 0.13864952, -0.068210036, 0.12461607, 0.0889637, 0.0112588, -0.057493802}, 
{-0.15529685, 0.017486982, -0.027972884, -0.0138325095, 0.2203837, 0.09702846, -0.0778839, 0.22632611, -0.10264589, 0.06980885, 0.0859716, 0.06027681, -0.07848926, -0.25777045, -0.014348993, -0.0802344, -0.014932754, 0.12443055, -0.26104718, 0.29445606, -0.033792123, -0.008811697, -0.08322239, -0.07548818, 0.031424806, -0.13494952, -0.064868554, -0.06323989, 0.4155327, 0.08473016, 0.09158102, -0.05523612, 0.25987768, -0.14679882, 0.1767613, -0.11935245, 0.16538309, 0.07485895, 0.0054649413, 0.046686605, 0.09820296, 0.12576373, 0.23635316, -0.09849854, 0.12106067, 0.17789541, -0.08967902, -0.14290686, -0.097257115, 0.11762873, 0.00904054, -0.077689, 0.10206489, 0.049916875, 0.13441013, -0.0061627096, -0.12796459, -0.018690003, 0.1897645, 0.055127278, 0.11217292, 0.029676959, -0.2215539, -0.06451961}, 
{-0.31934232, -0.110256076, -0.060716406, -0.03522577, 0.25460482, 0.016075015, -0.14680068, 0.06991992, 0.098943725, -0.090486206, 0.06258627, 0.05340585, 0.008551702, -0.25144613, -0.0026921725, 0.061669707, -0.06237626, 0.14062281, -0.4659273, 0.11364394, 0.12751289, 0.049179345, 0.0667468, -0.0031337945, 0.06937753, -0.21797872, -0.14954296, 0.010253668, 0.38951686, -0.10121977, -0.14621252, 0.16798271, 0.3312438, 0.15345843, -0.0054309145, -0.030154869, 0.13773188, -0.04647618, -0.08457495, -0.026972214, -0.05857969, -0.122517034, 0.464625, -0.11312636, 0.12954435, 0.15086745, -0.09274922, -0.44446173, 0.04985772, 0.077618316, -0.28336316, -0.1053824, 0.014937961, -0.102435134, 0.02182573, 0.12615491, 0.1078413, -0.02130416, 0.15821168, -0.02048479, 0.10527545, 0.017289072, -0.17003943, 0.023644563}, 
{-0.16650826, 0.05139223, 0.017505003, -0.058673523, 0.3558265, -0.0395085, 0.01790284, -0.03997144, 0.11075191, 0.041781407, -0.06920616, 0.031237833, -0.02310206, -0.27595627, -0.20282778, 0.041962907, -0.08969818, 0.09595348, -0.01429695, -0.46275076, 0.053158198, 0.062961355, -0.093219936, -0.039274316, 0.10987438, 0.04617047, 0.12585798, 0.09397535, 0.5133979, 0.09362429, -0.061993815, 0.20595993, 0.10326804, 0.099869825, 0.039878096, -0.080974504, -0.0077857333, -0.32728854, 0.12579884, -0.078040615, 0.03977296, 0.047879457, 0.06869903, -0.012780573, 0.07455325, -0.11787372, 0.0011382848, -0.25521922, 0.025324598, -0.044101007, 0.11368969, -0.07074595, -0.14777993, -0.14520104, -0.09321193, -0.061611578, 0.0027344376, -0.32158026, -0.0092793405, -0.04106296, -0.13297552, 0.011198804, -0.31377408, 0.0990207}, 
{-0.046356346, -0.15920523, -0.0833724, 0.05941923, -0.025260856, -0.13818853, 0.03616272, 0.1203274, 0.06904887, -0.033786785, -0.018857647, -0.02873965, 0.058956116, -0.3661384, -0.33494613, -0.082550764, -0.09395683, -0.060876355, 0.3635581, -0.44607496, 0.024789225, 0.023675993, 0.0040180306, 0.082813025, -0.043914787, 0.118453026, -0.13271934, -0.019010529, 1.075597, -0.026123783, 0.06057372, 0.30647653, 0.23897067, 0.053947292, 0.19870347, -0.0121907, 0.145921, -0.7091749, -0.014670655, 0.022321386, 0.28068942, -0.14346941, -0.13800941, 0.029479504, 0.14830914, 0.03416822, 0.07546222, -0.1411728, -0.036214046, 0.08581086, 0.13538304, 0.14305727, -0.0012221604, -0.11581272, -0.031496048, -0.1404892, 0.13592385, -0.21946631, -0.34918436, -0.13699858, 0.13460572, -0.025491603, -0.30536923, 0.06187181}, 
{-0.3680365, -0.09313134, -0.13551524, -0.013808459, -0.34197167, -0.066126324, -0.002354077, 0.626366, 0.02290143, -0.09082059, 0.06365997, -0.014567816, 0.036321223, -0.48087806, -0.3707732, 0.10757469, 0.0031348916, -0.0066589564, 0.17125759, 0.15581898, -0.14043784, 0.13001128, 0.03953471, 0.03884978, -0.10586406, 0.34232408, -0.13999537, 0.04093334, 0.3751608, 0.09191814, -0.051078677, 0.31250578, 0.09038736, 0.1780241, 0.0070929043, -0.10602112, 0.08972547, -0.38711283, -0.11025573, 0.06380784, 0.6549035, 0.05967942, -0.09300135, -0.01361602, -0.4558402, 0.24092643, -0.13247052, -0.07447693, -0.11090456, 0.10127097, 0.07966913, -0.106621, -0.017940307, -0.1441812, -0.025829665, -0.0497365, -0.006376505, -0.0707832, -0.4267885, 0.081398934, -0.030261464, 0.046778157, 0.033698495, -0.06259322}, 
{-0.4445545, 0.35999835, -0.13669524, 0.12132092, -0.4163322, -0.032291066, -0.12590902, -0.3531574, -0.043355137, 0.012006526, 0.10354507, 0.030921862, -0.11146356, -0.4944826, -0.3282287, 0.12168001, -0.04449898, -0.10562317, -0.09153293, 0.015043701, 0.07533576, 0.10934441, 0.06946249, 0.040646724, -0.06650811, 0.4816756, 0.041463707, -0.003923714, 0.04277587, -0.11848718, 0.10537671, 0.13080046, 0.21379498, 0.56907105, -0.3682674, -0.010795385, 0.08719511, 0.18410803, 0.036274225, 0.05470764, 0.64360774, 0.068217695, -0.021942314, 0.06342504, -0.81327164, 0.044195384, -0.055807203, -0.033209544, -0.037101865, -0.017775115, 0.21772301, 0.066746205, 0.08644063, -0.08826919, -0.027508743, 0.13294074, -0.14285071, -0.11411023, -0.55054396, 0.036653772, 0.061640307, -0.08030864, 0.750359, 0.07255768}, 
{-0.7357599, 0.35814646, -0.1105879, -0.043109752, -0.13037546, 0.05445014, 0.012033194, -0.83693784, -0.093121335, 0.019067291, 0.06753062, 0.097374275, -0.01275894, -0.069533035, -0.350699, 0.13450576, -0.15226339, 0.10150361, -0.05384977, -0.18600523, 0.05243152, -0.123155005, -0.03313206, 0.06488294, -0.0067338794, 0.29357672, -0.00578379, 0.051392987, -0.11105299, 0.12240792, -0.081362985, 0.19531067, -0.08527255, 0.29093635, -0.33214152, -0.0671041, 0.08076662, 0.026185725, 0.05249326, -0.083328374, 0.40044633, 0.12981288, 0.06831395, -0.12681325, -0.2954647, -0.4080453, -0.090734646, 0.49958315, 0.036565512, 0.019137267, 0.047142383, -0.11793817, -0.021119144, 0.04689564, 0.04925166, -0.005820841, -0.08767994, -0.26494253, -0.2652205, -0.10732719, 0.07274571, -0.028499912, 0.47282946, -0.13762258}, 
{-0.49805573, 0.3418187, 0.10305769, -0.09117798, 0.08886582, -0.059877723, 0.11161507, -0.35147107, 0.03561613, 0.05851988, 0.09626937, 0.127644, -0.13691758, -0.26905504, -0.25886998, -0.07932085, -0.12651375, -0.055011205, -0.21507639, -0.1702536, -0.11283163, -0.101415664, 0.058553647, -0.15533584, -0.11094541, 0.46698788, 0.12828304, -0.12812327, -0.2549354, -0.116748944, -0.041446492, 0.22001746, -0.028429935, -0.41939598, -0.19157347, -0.07033574, 0.16238467, 0.236096, 0.0027008802, 0.007935405, 0.48912784, -0.106964424, 0.16371095, 0.087432675, 0.1022087, -0.2472675, 0.03049396, 0.54199576, -0.022297062, 0.028198536, -0.28843138, 0.09320371, -0.040635668, 0.025741622, 0.05929947, 0.0062133903, -0.04996465, -0.5756881, 0.14297396, 0.08782971, -0.019344062, 0.11949292, 0.47826895, 0.0557495}, 
{-0.31682825, 0.4323948, 0.06461976, 0.11851473, -0.0072879, -0.04911, 0.036734402, -0.24118608, -0.103338555, -0.03056251, 0.0752341, -0.078385904, 0.119400695, -0.18190253, -0.26424465, -0.041923746, -0.02361678, -0.09667583, -0.011224964, -0.2385653, 0.097783245, -0.12853165, 0.03035958, -0.10869976, -0.12021925, 0.28232956, 0.098202385, -0.03586079, -0.14685105, 0.05608146, -0.14491212, 0.22078845, -0.040162303, -0.37275618, -0.082859136, 0.0299986, 0.19290754, 0.23637334, -0.1339327, 0.05113015, 0.4824484, 0.05905223, 0.22305837, -0.07722155, 0.39414564, 0.14494896, -0.020161465, 0.16144815, -0.005451262, 0.13135572, -0.19036488, 0.112020746, -0.032928966, -0.09117188, 0.030316293, -0.016270267, -0.014665395, -0.37926918, 0.3533112, 0.10018648, 0.076230854, -0.1417405, 0.12539871, -0.003676168}, 
{-0.15191706, 0.4470593, 0.06101827, 0.013053924, -0.084218666, -2.2379085e-05, 0.027343193, 0.06623169, -0.089837484, -0.11026382, -0.023397941, -0.119810365, 0.06598911, -0.21766573, -0.035889108, -0.031744935, 0.12339744, 0.06373674, -0.029131956, -0.03536834, 0.0263463, 0.10487479, -0.053785767, 0.12180448, 0.12030627, 0.43924835, -0.12715267, 0.04376188, -0.035486076, 0.10999356, 0.021093657, 0.29808554, 0.17663948, -0.4953979, -0.050932523, -0.018274128, -0.0013799813, 0.00929022, 0.08567841, 0.05457907, 0.2478351, -0.06826363, 0.13472159, -0.12441985, 0.24369901, 0.012368944, -0.059835553, -0.04536212, 0.089489624, -0.07018357, -0.15801036, 0.09124641, -0.090548776, -0.0711542, -0.10082844, -0.09486125, -0.04672862, -0.5864364, 0.18217058, -0.10282923, -0.051384404, 0.028219437, 0.049834315, 0.11540783}, 
{-0.062729225, 0.33100602, -0.067830704, 0.035021096, 0.13913259, -0.03449349, 0.058497984, 0.061685003, -0.016474947, 0.12956637, -0.08420653, -0.051702093, -0.030121267, -0.22496839, 0.028237972, -0.0012659878, 0.10826339, 0.020300046, 0.055736568, -0.0071082166, 0.029757358, -0.099879295, -0.13214865, 0.045690354, 0.025938228, -0.073493965, -0.068637505, -0.1205778, 0.2441623, 0.08496044, -0.14872141, 0.14900018, -0.13942148, -0.28800508, 0.03594646, -0.013818592, 0.22680719, 0.13201883, -0.020924307, -0.042308483, 0.26643386, -0.10770759, 0.46278572, -0.11637169, 0.23930478, 0.007377686, -0.062228806, -0.3592203, -0.021037571, -0.09916681, 0.24576528, -0.13409622, -0.13242935, -0.105273806, -0.07649489, -0.064476736, -0.113726124, -0.2632074, 0.24630436, 0.017619774, 0.01688005, -0.06950407, 0.10719278, 0.1044722}, 
{-0.012609209, 0.3427248, 0.12163702, -0.0711001, -0.083502434, -0.1445895, 0.030804107, -0.15626806, -0.0035901517, -0.1456354, -0.03281715, -0.13233821, 0.06604703, -0.077297255, 0.22010344, 0.0888972, 0.06990506, 0.074946344, -0.003988739, 0.023604618, -0.1307969, -0.07861269, 0.0721855, 0.11245895, -0.10533719, -0.039592303, 0.028185364, -0.076527625, -0.021671666, 0.017233612, -0.08361837, 0.043036964, -0.24018027, -0.042726725, 0.26755542, -0.013901874, 0.097749494, 0.078369685, -0.078016624, 0.11264951, 0.017218549, 0.078726396, 0.24099526, 0.07010785, 0.019340465, 0.104387134, -0.011181399, -0.50967324, -0.05095523, -0.006073329, -0.032046165, -0.040234014, -0.027991964, 0.04379084, 0.07048012, -0.1264727, -0.12348634, 0.007552576, 0.08483952, -0.031722367, 0.070850044, 0.046082888, 0.18197244, 0.029878093}, 
{-0.009744949, 0.036723405, 0.10388981, -0.1256463, 0.046491314, 0.052228738, -0.09114495, -0.07386744, -0.12292408, 0.08131695, -0.13059312, -0.11447405, -0.07069164, -0.2006523, -0.061867587, -0.047367387, -0.07295696, -0.040550992, 0.17899206, -0.05616845, 0.020328633, -0.10231782, 0.017196646, 0.106009334, -0.070883535, 0.057900857, 0.10540276, -0.117278144, -0.031028895, -0.15056863, 0.11787891, 0.18365915, -0.11287208, 0.005725233, 0.12753864, -0.012049615, 0.03737545, 0.040895287, 0.086674005, -0.0846103, 0.15153967, 0.08876254, 0.26485702, 0.005596333, 0.040910214, 0.12714887, 0.061914474, -0.009949941, 0.112103716, -0.05959927, -0.10996326, 0.044530734, -0.11411268, -0.06415925, -0.13666639, 0.05632161, -0.060951076, -0.094393626, 0.1542099, -0.04133133, 0.02746649, 0.040774252, -0.012494662, -0.026905073}, 
{0.030791396, -0.2868283, 0.08323, -0.06299646, 0.106417514, 0.09403344, 0.035171155, -0.0046240687, 0.14034308, 0.11637885, -0.02135978, -0.14128864, -0.025822312, -0.095928565, 0.18655702, -0.13301468, 0.06929416, 0.118815854, 0.20855485, -0.092065096, -0.08670222, -0.12606758, 0.022354728, 0.070493214, -0.08209449, 0.058736265, 0.11391524, -0.017351747, 0.0027576932, 0.114137694, -0.10561165, 0.1853484, 0.1344711, -0.02482417, -0.105450325, -0.052871898, 0.103490986, 0.11951854, 0.11160557, -0.0117481295, -0.0045884275, -0.11899865, 0.06830691, -0.07322948, 0.019187447, 0.18661706, -0.13526437, -0.077093154, -0.061809905, 0.008021263, -0.22903086, 0.016227365, -0.029309185, 0.0049032774, -0.04816857, -0.06372225, -0.047613665, 0.09314418, -0.03871401, 0.09182337, -0.14179222, 0.09673031, -0.09400438, 0.082579225}, 
